{"learner":{"attributes":{"scikit_learn":"{\"_estimator_type\": \"regressor\"}"},"feature_names":["SENSOR_751_SPEED_lag_1","SENSOR_751_SPEED_lag_2","SENSOR_751_SPEED_lag_3","SENSOR_751_SPEED_lag_4","SENSOR_751_SPEED_lag_5","SENSOR_751_SPEED_lag_6","SENSOR_751_SPEED_lag_7","SENSOR_751_SPEED_lag_8","SENSOR_751_SPEED_lag_9","SENSOR_751_SPEED_lag_10","SENSOR_751_SPEED_lag_11","SENSOR_751_SPEED_lag_12","SENSOR_751_SPEED_lag_13","SENSOR_751_SPEED_lag_14","SENSOR_751_SPEED_lag_15","SENSOR_1254_SPEED_lag_1","SENSOR_1254_SPEED_lag_2","SENSOR_1254_SPEED_lag_3","SENSOR_1254_SPEED_lag_4","SENSOR_1254_SPEED_lag_5","SENSOR_1254_SPEED_lag_6","SENSOR_1254_SPEED_lag_7","SENSOR_1254_SPEED_lag_8","SENSOR_1254_SPEED_lag_9","SENSOR_1254_SPEED_lag_10","SENSOR_1254_SPEED_lag_11","SENSOR_1254_SPEED_lag_12","SENSOR_1254_SPEED_lag_13","SENSOR_1254_SPEED_lag_14","SENSOR_1254_SPEED_lag_15"],"feature_types":["float","float","float","float","float","float","float","float","float","float","float","float","float","float","float","float","float","float","float","float","float","float","float","float","float","float","float","float","float","float"],"gradient_booster":{"model":{"gbtree_model_param":{"num_parallel_tree":"1","num_trees":"200"},"iteration_indptr":[0,1,2,3,4,5,6,7,8,9,10,11,12,13,14,15,16,17,18,19,20,21,22,23,24,25,26,27,28,29,30,31,32,33,34,35,36,37,38,39,40,41,42,43,44,45,46,47,48,49,50,51,52,53,54,55,56,57,58,59,60,61,62,63,64,65,66,67,68,69,70,71,72,73,74,75,76,77,78,79,80,81,82,83,84,85,86,87,88,89,90,91,92,93,94,95,96,97,98,99,100,101,102,103,104,105,106,107,108,109,110,111,112,113,114,115,116,117,118,119,120,121,122,123,124,125,126,127,128,129,130,131,132,133,134,135,136,137,138,139,140,141,142,143,144,145,146,147,148,149,150,151,152,153,154,155,156,157,158,159,160,161,162,163,164,165,166,167,168,169,170,171,172,173,174,175,176,177,178,179,180,181,182,183,184,185,186,187,188,189,190,191,192,193,194,195,196,197,198,199,200],"tree_info":[0,0,0,0,0,0,0,0,0,0,0,0,0,0,0,0,0,0,0,0,0,0,0,0,0,0,0,0,0,0,0,0,0,0,0,0,0,0,0,0,0,0,0,0,0,0,0,0,0,0,0,0,0,0,0,0,0,0,0,0,0,0,0,0,0,0,0,0,0,0,0,0,0,0,0,0,0,0,0,0,0,0,0,0,0,0,0,0,0,0,0,0,0,0,0,0,0,0,0,0,0,0,0,0,0,0,0,0,0,0,0,0,0,0,0,0,0,0,0,0,0,0,0,0,0,0,0,0,0,0,0,0,0,0,0,0,0,0,0,0,0,0,0,0,0,0,0,0,0,0,0,0,0,0,0,0,0,0,0,0,0,0,0,0,0,0,0,0,0,0,0,0,0,0,0,0,0,0,0,0,0,0,0,0,0,0,0,0,0,0,0,0,0,0,0,0,0,0,0,0],"trees":[{"base_weights":[2.7122223E-3,-5.4342175E-1,1.2923853E0,-1.0162356E1,-4.906679E-1,6.665994E-1,1.712574E0,-1.0368852E1,-1.5301609E0,-8.9062107E-1,-2.950176E-2,2.1496904E-1,1.0905302E0,1.3654051E0,1.989539E0,-1.053002E1,-4.620438E0,-1.4227204E-1,-7.1626985E-3,-2.7382767E0,-8.286801E-1,-2.5031415E-1,6.152209E-1,-7.888882E-2,6.0451496E-1,8.176324E-1,1.4377108E0,1.1076053E0,1.6862518E0,1.8031251E0,2.2058575E0,-5.3338754E-1,-2.0377472E-1,-2.709497E-1,-3.5655357E-2,-1.9947277E-1,-1.0360157E-1,-5.882714E-2,-3.1380042E-2,-2.3345115E-2,4.576335E-4,1.9499203E-2,5.58019E-2,-2.909183E-1,-3.1144351E-3,1.7507708E-2,4.325923E-2,3.0863686E-2,5.3516675E-2,6.330321E-2,9.047923E-2,3.8917452E-2,6.626934E-2,7.678791E-2,1.01662174E-1,7.946517E-2,9.960486E-2,1.03591256E-1,1.20102756E-1],"categories":[],"categories_nodes":[],"categories_segments":[],"categories_sizes":[],"default_left":[0,0,0,1,1,1,0,0,0,0,1,1,0,1,0,0,0,0,0,0,1,0,0,0,0,0,0,1,0,0,0,0,0,0,0,0,0,0,0,0,0,0,0,0,0,0,0,0,0,0,0,0,0,0,0,0,0,0,0],"id":0,"left_children":[1,3,5,7,9,11,13,15,17,19,21,23,25,27,29,31,33,-1,-1,35,37,39,41,43,45,47,49,51,53,55,57,-1,-1,-1,-1,-1,-1,-1,-1,-1,-1,-1,-1,-1,-1,-1,-1,-1,-1,-1,-1,-1,-1,-1,-1,-1,-1,-1,-1],"loss_changes":[2.2250621E4,1.1256525E4,2.4700469E3,1.9981738E2,4.0712246E3,7.229098E2,5.378574E2,6.066992E1,6.889064E0,1.3505918E3,1.4597994E3,2.0952988E2,1.8338745E2,2.0475244E2,1.22038086E2,5.7867188E1,1.1736786E1,0E0,0E0,3.1099976E2,7.99396E2,4.2924023E2,2.9465607E2,9.910569E1,5.1878387E1,5.4678894E1,5.2348267E1,9.849609E1,5.48938E1,6.487793E1,3.294336E1,0E0,0E0,0E0,0E0,0E0,0E0,0E0,0E0,0E0,0E0,0E0,0E0,0E0,0E0,0E0,0E0,0E0,0E0,0E0,0E0,0E0,0E0,0E0,0E0,0E0,0E0,0E0,0E0],"parents":[2147483647,0,0,1,1,2,2,3,3,4,4,5,5,6,6,7,7,8,8,9,9,10,10,11,11,12,12,13,13,14,14,15,15,16,16,19,19,20,20,21,21,22,22,23,23,24,24,25,25,26,26,27,27,28,28,29,29,30,30],"right_children":[2,4,6,8,10,12,14,16,18,20,22,24,26,28,30,32,34,-1,-1,36,38,40,42,44,46,48,50,52,54,56,58,-1,-1,-1,-1,-1,-1,-1,-1,-1,-1,-1,-1,-1,-1,-1,-1,-1,-1,-1,-1,-1,-1,-1,-1,-1,-1,-1,-1],"split_conditions":[1.996E1,8.2E0,2.04E1,2.023E1,1.874E1,2.004E1,2.107E1,1.563E1,8.2E0,1.596E1,1.997E1,1.975E1,2.063E1,2.1E1,2.188E1,2.353E1,1.5E1,-1.4227204E-1,-7.1626985E-3,1.56E1,1.798E1,1.9E1,2.048E1,8.2E0,1.99E1,2.032E1,2.159E1,2.032E1,2.223E1,2.131E1,2.22E1,-5.3338754E-1,-2.0377472E-1,-2.709497E-1,-3.5655357E-2,-1.9947277E-1,-1.0360157E-1,-5.882714E-2,-3.1380042E-2,-2.3345115E-2,4.576335E-4,1.9499203E-2,5.58019E-2,-2.909183E-1,-3.1144351E-3,1.7507708E-2,4.325923E-2,3.0863686E-2,5.3516675E-2,6.330321E-2,9.047923E-2,3.8917452E-2,6.626934E-2,7.678791E-2,1.01662174E-1,7.946517E-2,9.960486E-2,1.03591256E-1,1.20102756E-1],"split_indices":[1,0,2,12,0,8,0,2,1,0,12,13,0,3,2,28,13,0,0,1,2,3,5,0,0,3,1,5,3,5,1,0,0,0,0,0,0,0,0,0,0,0,0,0,0,0,0,0,0,0,0,0,0,0,0,0,0,0,0],"split_type":[0,0,0,0,0,0,0,0,0,0,0,0,0,0,0,0,0,0,0,0,0,0,0,0,0,0,0,0,0,0,0,0,0,0,0,0,0,0,0,0,0,0,0,0,0,0,0,0,0,0,0,0,0,0,0,0,0,0,0],"sum_hessian":[3.1589E4,2.2192E4,9.397E3,1.2E2,2.2072E4,3.776E3,5.621E3,1.17E2,3E0,1.182E4,1.0252E4,1.829E3,1.947E3,2.497E3,3.124E3,1.13E2,4E0,1E0,2E0,3.82E2,1.1438E4,7.637E3,2.615E3,1.043E3,7.86E2,1.092E3,8.55E2,1.387E3,1.11E3,1.683E3,1.441E3,1.1E2,3E0,3E0,1E0,1.31E2,2.51E2,4.188E3,7.25E3,4.162E3,3.475E3,1.805E3,8.1E2,2E0,1.041E3,3.99E2,3.87E2,6.11E2,4.81E2,5.88E2,2.67E2,5.54E2,8.33E2,7.78E2,3.32E2,7.94E2,8.89E2,8.63E2,5.78E2],"tree_param":{"num_deleted":"0","num_feature":"30","num_nodes":"59","size_leaf_vector":"1"}},{"base_weights":[2.524961E-3,-5.665423E-1,1.0968E0,-9.603238E0,-5.1547986E-1,4.9787033E-1,1.5564942E0,-9.826858E0,-2.6287737E0,-8.476101E-1,-9.3297966E-2,1.8336764E-1,1.0222942E0,1.2732221E0,1.8766662E0,-9.939261E0,-1.1961645E-1,-1.8860358E-1,-6.0921794E-1,-4.0095115E0,-8.1669927E-1,-3.0675134E-1,4.3520752E-1,-4.5310676E-2,5.503049E-1,8.550016E-1,1.562331E0,9.857601E-1,1.5591975E0,1.696926E0,2.1057007E0,-4.994102E-1,-1.1388733E-1,-2.6706697E-3,-4.3020677E-2,-1.3160095E-1,-3.260204E-1,-5.8556695E-2,-3.0938337E-2,-2.2973612E-2,-1.1974601E-3,1.3489924E-2,4.894163E-2,-1.5893485E-2,6.3320296E-3,1.9289412E-2,4.4633403E-2,3.4077197E-2,5.9886146E-2,6.912095E-2,9.715947E-2,3.794206E-2,6.3441455E-2,6.8131275E-2,8.951531E-2,7.4990556E-2,9.526153E-2,9.8255366E-2,1.1104242E-1],"categories":[],"categories_nodes":[],"categories_segments":[],"categories_sizes":[],"default_left":[1,0,0,1,1,0,1,0,0,0,1,0,0,0,0,0,0,0,0,1,0,1,0,1,0,0,0,1,0,0,0,0,0,0,0,0,0,0,0,0,0,0,0,0,0,0,0,0,0,0,0,0,0,0,0,0,0,0,0],"id":1,"left_children":[1,3,5,7,9,11,13,15,17,19,21,23,25,27,29,31,-1,-1,33,35,37,39,41,43,45,47,49,51,53,55,57,-1,-1,-1,-1,-1,-1,-1,-1,-1,-1,-1,-1,-1,-1,-1,-1,-1,-1,-1,-1,-1,-1,-1,-1,-1,-1,-1,-1],"loss_changes":[1.971955E4,9.608135E3,2.9820908E3,1.5664355E2,2.9048457E3,7.7598584E2,5.5348535E2,7.065234E1,9.2467575E0,1.1299883E3,1.0293108E3,2.4697379E2,1.5803125E2,2.6604736E2,1.1478027E2,1.887207E1,0E0,0E0,3.728894E-1,3.702173E2,8.049253E2,2.806795E2,2.3577719E2,8.5056755E1,6.3302216E1,7.937854E1,2.581842E1,1.0348108E2,7.1610596E1,6.3495605E1,1.603418E1,0E0,0E0,0E0,0E0,0E0,0E0,0E0,0E0,0E0,0E0,0E0,0E0,0E0,0E0,0E0,0E0,0E0,0E0,0E0,0E0,0E0,0E0,0E0,0E0,0E0,0E0,0E0,0E0],"parents":[2147483647,0,0,1,1,2,2,3,3,4,4,5,5,6,6,7,7,8,8,9,9,10,10,11,11,12,12,13,13,14,14,15,15,18,18,19,19,20,20,21,21,22,22,23,23,24,24,25,25,26,26,27,27,28,28,29,29,30,30],"right_children":[2,4,6,8,10,12,14,16,18,20,22,24,26,28,30,32,-1,-1,34,36,38,40,42,44,46,48,50,52,54,56,58,-1,-1,-1,-1,-1,-1,-1,-1,-1,-1,-1,-1,-1,-1,-1,-1,-1,-1,-1,-1,-1,-1,-1,-1,-1,-1,-1,-1],"split_conditions":[1.976E1,1.027E1,2.039E1,2.373E1,1.879E1,2.027E1,2.138E1,2.136E1,1.833E1,1.772E1,1.976E1,1.979E1,2.58E1,2.1E1,2.61E1,1.984E1,-1.1961645E-1,-1.8860358E-1,8.16E0,1.982E1,2.141E1,1.924E1,2.077E1,1.889E1,2.042E1,2.08E1,2.178E1,2.079E1,2.555E1,2.552E1,2.183E1,-4.994102E-1,-1.1388733E-1,-2.6706697E-3,-4.3020677E-2,-1.3160095E-1,-3.260204E-1,-5.8556695E-2,-3.0938337E-2,-2.2973612E-2,-1.1974601E-3,1.3489924E-2,4.894163E-2,-1.5893485E-2,6.3320296E-3,1.9289412E-2,4.4633403E-2,3.4077197E-2,5.9886146E-2,6.912095E-2,9.715947E-2,3.794206E-2,6.3441455E-2,6.8131275E-2,8.951531E-2,7.4990556E-2,9.526153E-2,9.8255366E-2,1.1104242E-1],"split_indices":[3,16,6,29,6,10,7,19,12,16,11,13,23,3,17,10,0,0,6,23,16,10,12,12,7,7,3,10,24,18,13,0,0,0,0,0,0,0,0,0,0,0,0,0,0,0,0,0,0,0,0,0,0,0,0,0,0,0,0],"split_type":[0,0,0,0,0,0,0,0,0,0,0,0,0,0,0,0,0,0,0,0,0,0,0,0,0,0,0,0,0,0,0,0,0,0,0,0,0,0,0,0,0,0,0,0,0,0,0,0,0,0,0,0,0,0,0,0,0,0,0],"sum_hessian":[3.1665E4,2.0832E4,1.0833E4,1.16E2,2.0716E4,4.705E3,6.128E3,1.12E2,4E0,1.1594E4,9.122E3,2.942E3,1.763E3,3.254E3,2.874E3,1.1E2,2E0,2E0,2E0,1.11E2,1.1483E4,6.498E3,2.624E3,1.813E3,1.129E3,1.348E3,4.15E2,1.625E3,1.629E3,1.615E3,1.259E3,1.09E2,1E0,1E0,1E0,7.3E1,3.8E1,4.113E3,7.37E3,4.219E3,2.279E3,2.013E3,6.11E2,7.01E2,1.112E3,7.64E2,3.65E2,8.97E2,4.51E2,2.85E2,1.3E2,9.04E2,7.21E2,8.84E2,7.45E2,8.34E2,7.81E2,5.75E2,6.84E2],"tree_param":{"num_deleted":"0","num_feature":"30","num_nodes":"59","size_leaf_vector":"1"}},{"base_weights":[-1.040094E-2,-5.559635E-1,1.0634648E0,-9.6337385E0,-4.9615207E-1,5.365808E-1,1.5349933E0,-1.0034912E1,-5.675123E0,-8.858669E-1,-1.3287316E-1,2.0504108E-1,1.0137393E0,1.2841572E0,1.8387339E0,-1.0152866E1,-9.4655834E-2,-7.207137E0,-1.1696686E0,-4.1505237E0,-8.442464E-1,-3.4088653E-1,4.0976351E-1,-3.3256203E-2,5.2964145E-1,8.151012E-1,1.4318316E0,1.0949367E0,1.6573654E0,1.6285639E0,2.0018942E0,-4.5922706E-1,-5.6604195E-1,-4.176165E-2,-4.2651558E-1,-9.034354E-2,-7.128843E-3,-1.4382862E-1,-2.909724E-1,-6.3354604E-2,-3.3760156E-2,-2.3862144E-2,-2.638982E-3,1.2523516E-2,5.1306732E-2,-1.3702682E-2,7.026302E-3,1.4439705E-2,3.5489716E-2,2.7351696E-2,5.049033E-2,6.0810637E-2,8.673819E-2,4.6437945E-2,7.0963636E-2,7.1017176E-2,9.26122E-2,7.134068E-2,9.1939315E-2,9.1642804E-2,1.07366204E-1],"categories":[],"categories_nodes":[],"categories_segments":[],"categories_sizes":[],"default_left":[0,0,0,0,0,1,1,1,0,0,1,1,0,0,0,0,0,0,0,0,0,1,0,1,0,0,0,0,1,0,0,0,0,0,0,0,0,0,0,0,0,0,0,0,0,0,0,0,0,0,0,0,0,0,0,0,0,0,0,0,0],"id":2,"left_children":[1,3,5,7,9,11,13,15,17,19,21,23,25,27,29,31,-1,33,35,37,39,41,43,45,47,49,51,53,55,57,59,-1,-1,-1,-1,-1,-1,-1,-1,-1,-1,-1,-1,-1,-1,-1,-1,-1,-1,-1,-1,-1,-1,-1,-1,-1,-1,-1,-1,-1,-1],"loss_changes":[1.8633896E4,1.1446679E4,2.6612197E3,1.6220703E2,2.9664492E3,8.0058545E2,4.284121E2,9.986621E1,9.510629E1,1.3700718E3,1.2243894E3,2.3114359E2,1.7115991E2,2.1710303E2,8.4353516E1,3.4001953E1,0E0,8.56178E1,3.0147076E0,2.5327808E2,7.127217E2,3.0801013E2,2.948833E2,7.2181564E1,5.4682495E1,7.298926E1,4.1457153E1,1.0971069E2,4.545337E1,4.496289E1,3.1316406E1,0E0,0E0,0E0,0E0,0E0,0E0,0E0,0E0,0E0,0E0,0E0,0E0,0E0,0E0,0E0,0E0,0E0,0E0,0E0,0E0,0E0,0E0,0E0,0E0,0E0,0E0,0E0,0E0,0E0,0E0],"parents":[2147483647,0,0,1,1,2,2,3,3,4,4,5,5,6,6,7,7,8,8,9,9,10,10,11,11,12,12,13,13,14,14,15,15,17,17,18,18,19,19,20,20,21,21,22,22,23,23,24,24,25,25,26,26,27,27,28,28,29,29,30,30],"right_children":[2,4,6,8,10,12,14,16,18,20,22,24,26,28,30,32,-1,34,36,38,40,42,44,46,48,50,52,54,56,58,60,-1,-1,-1,-1,-1,-1,-1,-1,-1,-1,-1,-1,-1,-1,-1,-1,-1,-1,-1,-1,-1,-1,-1,-1,-1,-1,-1,-1,-1,-1],"split_conditions":[1.975E1,8.2E0,2.047E1,1.884E1,1.855E1,2.017E1,2.145E1,1.971E1,2.267E1,1.486E1,1.975E1,1.973E1,2.115E1,2.553E1,2.145E1,1.014E1,-9.4655834E-2,1.904E1,1.758E1,1.733E1,1.76E1,1.924E1,2.073E1,1.902E1,1.979E1,2.014E1,2.58E1,2.125E1,2.124E1,2.54E1,2.193E1,-4.5922706E-1,-5.6604195E-1,-4.176165E-2,-4.2651558E-1,-9.034354E-2,-7.128843E-3,-1.4382862E-1,-2.909724E-1,-6.3354604E-2,-3.3760156E-2,-2.3862144E-2,-2.638982E-3,1.2523516E-2,5.1306732E-2,-1.3702682E-2,7.026302E-3,1.4439705E-2,3.5489716E-2,2.7351696E-2,5.049033E-2,6.0810637E-2,8.673819E-2,4.6437945E-2,7.0963636E-2,7.1017176E-2,9.26122E-2,7.134068E-2,9.1939315E-2,9.1642804E-2,1.07366204E-1],"split_indices":[0,0,1,10,1,5,0,5,27,0,14,13,0,17,11,23,0,10,6,9,0,9,6,10,9,9,24,6,10,21,1,0,0,0,0,0,0,0,0,0,0,0,0,0,0,0,0,0,0,0,0,0,0,0,0,0,0,0,0,0,0],"split_type":[0,0,0,0,0,0,0,0,0,0,0,0,0,0,0,0,0,0,0,0,0,0,0,0,0,0,0,0,0,0,0,0,0,0,0,0,0,0,0,0,0,0,0,0,0,0,0,0,0,0,0,0,0,0,0,0,0,0,0,0,0],"sum_hessian":[3.1804E4,2.109E4,1.0714E4,1.37E2,2.0953E4,5.061E3,5.653E3,1.23E2,1.4E1,1.0108E4,1.0845E4,2.987E3,2.074E3,3.099E3,2.554E3,1.21E2,2E0,1E1,4E0,1.26E2,9.982E3,7.84E3,3.005E3,1.723E3,1.264E3,1.408E3,6.66E2,2.059E3,1.04E3,1.121E3,1.433E3,7.1E1,5E1,2E0,8E0,2E0,2E0,7.3E1,5.3E1,2.849E3,7.133E3,5.321E3,2.519E3,2.389E3,6.16E2,7.22E2,1.001E3,5.42E2,7.22E2,5.94E2,8.14E2,3.92E2,2.74E2,1.364E3,6.95E2,4.73E2,5.67E2,5.76E2,5.45E2,6.69E2,7.64E2],"tree_param":{"num_deleted":"0","num_feature":"30","num_nodes":"61","size_leaf_vector":"1"}},{"base_weights":[3.983527E-3,-5.1073235E-1,1.0276452E0,-8.443673E0,-4.6536398E-1,4.773113E-1,1.43578E0,-8.629285E0,-9.036119E-1,-7.672435E-1,-6.10122E-2,1.6654003E-1,8.9952976E-1,1.183863E0,1.7626071E0,-8.709277E0,1.6245795E-2,-6.9605306E-2,1.4046765E-2,-1.3352824E0,-6.334878E-1,-2.387568E-1,4.884522E-1,-7.789372E-2,4.7416195E-1,7.361208E-1,1.3872017E0,1.0035065E0,1.551981E0,1.5667143E0,1.9163058E0,-4.433639E-1,-1.714105E-1,-1.6987221E-1,-6.1830427E-2,-4.009145E-2,-2.0746192E-2,-2.3388987E-2,-3.4390464E-3,1.1723116E-2,4.1638225E-2,-1.2090091E-2,8.532769E-3,1.38480095E-2,3.5050794E-2,2.8954623E-2,5.1343065E-2,4.9257983E-2,7.774389E-2,4.0393434E-2,6.386664E-2,6.8781435E-2,8.722453E-2,7.107661E-2,9.285785E-2,8.846657E-2,1.0371374E-1],"categories":[],"categories_nodes":[],"categories_segments":[],"categories_sizes":[],"default_left":[0,0,1,1,1,1,0,1,0,0,1,1,0,0,0,0,0,0,0,0,1,1,0,1,1,0,1,0,1,1,0,0,0,0,0,0,0,0,0,0,0,0,0,0,0,0,0,0,0,0,0,0,0,0,0,0,0],"id":3,"left_children":[1,3,5,7,9,11,13,15,17,19,21,23,25,27,29,31,-1,-1,-1,33,35,37,39,41,43,45,47,49,51,53,55,-1,-1,-1,-1,-1,-1,-1,-1,-1,-1,-1,-1,-1,-1,-1,-1,-1,-1,-1,-1,-1,-1,-1,-1,-1,-1],"loss_changes":[1.6717846E4,7.594738E3,2.3837783E3,1.6014453E2,2.5625972E3,5.93197E2,4.9973633E2,8.663281E1,2.705669E0,9.1241455E2,8.76654E2,1.9599033E2,1.517445E2,2.2716455E2,7.681445E1,6.639258E1,0E0,0E0,0E0,4.6177222E2,3.5770337E2,2.6398013E2,1.9167407E2,5.9235336E1,5.1431213E1,6.505652E1,3.0826355E1,1.2298462E2,3.599707E1,4.6737793E1,3.0714844E1,0E0,0E0,0E0,0E0,0E0,0E0,0E0,0E0,0E0,0E0,0E0,0E0,0E0,0E0,0E0,0E0,0E0,0E0,0E0,0E0,0E0,0E0,0E0,0E0,0E0,0E0],"parents":[2147483647,0,0,1,1,2,2,3,3,4,4,5,5,6,6,7,7,8,8,9,9,10,10,11,11,12,12,13,13,14,14,15,15,19,19,20,20,21,21,22,22,23,23,24,24,25,25,26,26,27,27,28,28,29,29,30,30],"right_children":[2,4,6,8,10,12,14,16,18,20,22,24,26,28,30,32,-1,-1,-1,34,36,38,40,42,44,46,48,50,52,54,56,-1,-1,-1,-1,-1,-1,-1,-1,-1,-1,-1,-1,-1,-1,-1,-1,-1,-1,-1,-1,-1,-1,-1,-1,-1,-1],"split_conditions":[1.977E1,8.2E0,2.035E1,1.884E1,1.882E1,2.004E1,2.15E1,2.077E1,1.493E1,1.735E1,1.994E1,1.966E1,2.142E1,2.553E1,2.153E1,1.869E1,1.6245795E-2,-6.9605306E-2,1.4046765E-2,1.489E1,1.855E1,1.877E1,2E1,1.934E1,2E1,2.086E1,2.046E1,2.095E1,2.147E1,2.188E1,2.653E1,-4.433639E-1,-1.714105E-1,-1.6987221E-1,-6.1830427E-2,-4.009145E-2,-2.0746192E-2,-2.3388987E-2,-3.4390464E-3,1.1723116E-2,4.1638225E-2,-1.2090091E-2,8.532769E-3,1.38480095E-2,3.5050794E-2,2.8954623E-2,5.1343065E-2,4.9257983E-2,7.774389E-2,4.0393434E-2,6.386664E-2,6.8781435E-2,8.722453E-2,7.107661E-2,9.285785E-2,8.846657E-2,1.0371374E-1],"split_indices":[1,1,4,8,5,5,1,14,3,1,10,14,1,17,14,4,0,0,0,1,3,14,3,3,8,12,14,6,10,6,19,0,0,0,0,0,0,0,0,0,0,0,0,0,0,0,0,0,0,0,0,0,0,0,0,0,0],"split_type":[0,0,0,0,0,0,0,0,0,0,0,0,0,0,0,0,0,0,0,0,0,0,0,0,0,0,0,0,0,0,0,0,0,0,0,0,0,0,0,0,0,0,0,0,0,0,0,0,0,0,0,0,0,0,0,0,0],"sum_hessian":[3.1727E4,2.1112E4,1.0615E4,1.19E2,2.0993E4,4.521E3,6.094E3,1.16E2,3E0,1.2019E4,8.974E3,2.605E3,1.916E3,3.444E3,2.65E3,1.15E2,1E0,2E0,1E0,2.289E3,9.73E3,6.781E3,2.193E3,1.452E3,1.153E3,1.437E3,4.79E2,2.314E3,1.13E3,1.17E3,1.48E3,1.11E2,4E0,1.03E2,2.186E3,5.495E3,4.235E3,2.888E3,3.893E3,1.263E3,9.3E2,8.75E2,5.77E2,6.18E2,5.35E2,9.35E2,5.02E2,1.43E2,3.36E2,1.352E3,9.62E2,5.94E2,5.36E2,7.84E2,3.86E2,7.73E2,7.07E2],"tree_param":{"num_deleted":"0","num_feature":"30","num_nodes":"57","size_leaf_vector":"1"}},{"base_weights":[3.4361114E-3,-4.482054E-1,1.044562E0,-8.389239E0,-4.0483284E-1,6.3674176E-1,1.4806831E0,-8.548373E0,-1.509739E-1,-7.4435705E-1,-4.055453E-2,3.6551473E-1,1.0887848E0,1.255179E0,1.7300445E0,-8.701107E0,-3.4174707E0,-1.18597E0,-5.5794996E-1,-2.4541824E-1,4.4349268E-1,9.702121E-2,6.5501213E-1,8.987572E-1,1.4481682E0,1.0789733E0,1.5479308E0,1.5154142E0,1.8480592E0,-4.4398394E-1,-2.3770013E-1,-2.3113346E-1,3.5083055E-2,-1.7917006E-1,-5.5244267E-2,-3.8633224E-2,-2.06867E-2,-2.1311684E-2,-2.3863432E-3,1.0663583E-2,4.083415E-2,-2.6738152E-3,2.0978916E-2,-2.9736695E-1,3.317174E-2,3.646909E-2,6.0484268E-2,6.512715E-2,8.757672E-2,4.615779E-2,6.855767E-2,6.986683E-2,8.634324E-2,6.945776E-2,8.7826975E-2,8.728326E-2,9.979964E-2],"categories":[],"categories_nodes":[],"categories_segments":[],"categories_sizes":[],"default_left":[1,0,0,1,1,0,0,0,0,0,1,0,0,0,0,0,0,0,1,1,0,0,0,0,0,0,0,1,0,0,0,0,0,0,0,0,0,0,0,0,0,0,0,0,0,0,0,0,0,0,0,0,0,0,0,0,0],"id":4,"left_children":[1,3,5,7,9,11,13,15,-1,17,19,21,23,25,27,29,31,33,35,37,39,41,43,45,47,49,51,53,55,-1,-1,-1,-1,-1,-1,-1,-1,-1,-1,-1,-1,-1,-1,-1,-1,-1,-1,-1,-1,-1,-1,-1,-1,-1,-1,-1,-1],"loss_changes":[1.4899724E4,7.6083516E3,1.7041914E3,7.672949E1,2.718609E3,6.0723865E2,2.5829492E2,6.1168945E1,0E0,9.3589014E2,1.0517399E3,2.4081601E2,1.25586426E2,1.239895E2,5.2848145E1,3.6728516E1,2.80654E1,6.523179E2,2.4746436E2,2.663562E2,2.7080566E2,7.812981E1,8.6858826E1,6.32619E1,2.6036499E1,6.811719E1,2.2189209E1,2.1458618E1,1.7918945E1,0E0,0E0,0E0,0E0,0E0,0E0,0E0,0E0,0E0,0E0,0E0,0E0,0E0,0E0,0E0,0E0,0E0,0E0,0E0,0E0,0E0,0E0,0E0,0E0,0E0,0E0,0E0,0E0],"parents":[2147483647,0,0,1,1,2,2,3,3,4,4,5,5,6,6,7,7,9,9,10,10,11,11,12,12,13,13,14,14,15,15,16,16,17,17,18,18,19,19,20,20,21,21,22,22,23,23,24,24,25,25,26,26,27,27,28,28],"right_children":[2,4,6,8,10,12,14,16,-1,18,20,22,24,26,28,30,32,34,36,38,40,42,44,46,48,50,52,54,56,-1,-1,-1,-1,-1,-1,-1,-1,-1,-1,-1,-1,-1,-1,-1,-1,-1,-1,-1,-1,-1,-1,-1,-1,-1,-1,-1,-1],"split_conditions":[1.999E1,1.032E1,2.08E1,2.356E1,1.871E1,2.062E1,2.547E1,1.888E1,-1.509739E-1,2.117E1,1.979E1,1.999E1,2.553E1,2.56E1,2.128E1,1.935E1,1.641E1,1.772E1,1.826E1,1.894E1,2.03E1,1.995E1,1.032E1,2.126E1,2.193E1,2.144E1,2.172E1,2.193E1,2.228E1,-4.4398394E-1,-2.3770013E-1,-2.3113346E-1,3.5083055E-2,-1.7917006E-1,-5.5244267E-2,-3.8633224E-2,-2.06867E-2,-2.1311684E-2,-2.3863432E-3,1.0663583E-2,4.083415E-2,-2.6738152E-3,2.0978916E-2,-2.9736695E-1,3.317174E-2,3.646909E-2,6.0484268E-2,6.512715E-2,8.757672E-2,4.615779E-2,6.855767E-2,6.986683E-2,8.634324E-2,6.945776E-2,8.7826975E-2,8.728326E-2,9.979964E-2],"split_indices":[6,15,3,27,3,5,15,3,0,15,14,13,22,19,5,13,9,15,13,13,12,9,15,13,6,8,9,9,6,0,0,0,0,0,0,0,0,0,0,0,0,0,0,0,0,0,0,0,0,0,0,0,0,0,0,0,0],"split_type":[0,0,0,0,0,0,0,0,0,0,0,0,0,0,0,0,0,0,0,0,0,0,0,0,0,0,0,0,0,0,0,0,0,0,0,0,0,0,0,0,0,0,0,0,0,0,0,0,0,0,0,0,0,0,0,0,0],"sum_hessian":[3.1685E4,2.2099E4,9.586E3,1.19E2,2.198E4,4.955E3,4.631E3,1.15E2,4E0,1.1376E4,1.0604E4,3.098E3,1.857E3,2.435E3,2.196E3,1.11E2,4E0,3.375E3,8.001E3,7.451E3,3.153E3,1.608E3,1.49E3,1.217E3,6.4E2,1.523E3,9.12E2,7.84E2,1.412E3,1.05E2,6E0,3E0,1E0,1.09E2,3.266E3,3.213E3,4.788E3,3.891E3,3.56E3,1.951E3,1.202E3,1.097E3,5.11E2,1E0,1.489E3,7.9E2,4.27E2,4.36E2,2.04E2,9.96E2,5.27E2,5E2,4.12E2,5.19E2,2.65E2,8.42E2,5.7E2],"tree_param":{"num_deleted":"0","num_feature":"30","num_nodes":"57","size_leaf_vector":"1"}},{"base_weights":[3.147971E-3,-4.5473543E-1,9.6719325E-1,-8.362197E0,-4.1013777E-1,4.8491114E-1,1.3316948E0,-8.620487E0,-3.6685658E0,-7.763936E-1,-1.03983775E-1,1.552532E-1,8.421105E-1,1.109151E0,1.6016605E0,-8.779194E0,-2.100946E0,-2.6408416E-1,-1.6443589E0,-3.5499544E0,-7.430113E-1,-2.726501E-1,3.6954534E-1,2.1651646E-3,4.9333754E-1,6.622121E-1,1.2098237E0,8.492337E-1,1.3166035E0,1.4413004E0,1.7749585E0,-4.452272E-1,-1.6156398E-1,-1.4242391E-1,3.541279E-3,-1.0272844E-1,-8.7976456E-5,-1.1218375E-1,-2.66328E-1,-4.9485262E-2,-2.5364602E-2,-2.2115363E-2,-4.735953E-3,8.738211E-3,3.9889917E-2,-1.0225858E-2,6.7275944E-3,1.7731111E-2,3.8522057E-2,2.8842285E-2,5.41684E-2,5.100106E-2,7.605008E-2,3.349769E-2,5.281363E-2,5.657005E-2,7.431249E-2,6.3200824E-2,8.041959E-2,8.2376726E-2,9.540373E-2],"categories":[],"categories_nodes":[],"categories_segments":[],"categories_sizes":[],"default_left":[0,0,0,0,1,0,0,1,0,0,0,0,0,0,1,0,0,0,0,0,0,0,0,0,0,0,0,0,0,1,0,0,0,0,0,0,0,0,0,0,0,0,0,0,0,0,0,0,0,0,0,0,0,0,0,0,0,0,0,0,0],"id":5,"left_children":[1,3,5,7,9,11,13,15,17,19,21,23,25,27,29,31,33,-1,35,37,39,41,43,45,47,49,51,53,55,57,59,-1,-1,-1,-1,-1,-1,-1,-1,-1,-1,-1,-1,-1,-1,-1,-1,-1,-1,-1,-1,-1,-1,-1,-1,-1,-1,-1,-1,-1,-1],"loss_changes":[1.3936963E4,7.5454854E3,1.7866377E3,1.13853516E2,2.3868452E3,5.1539465E2,3.4608203E2,9.8475586E1,1.7437279E1,8.947246E2,9.262549E2,1.1790063E2,1.3818225E2,1.7018726E2,7.008496E1,4.772461E1,6.6956234E0,0E0,3.3654375E0,2.5493445E2,5.564634E2,2.5808954E2,2.5394452E2,4.2958485E1,2.7018127E1,5.0175964E1,3.9142456E1,5.173999E1,5.377295E1,3.834253E1,1.8092773E1,0E0,0E0,0E0,0E0,0E0,0E0,0E0,0E0,0E0,0E0,0E0,0E0,0E0,0E0,0E0,0E0,0E0,0E0,0E0,0E0,0E0,0E0,0E0,0E0,0E0,0E0,0E0,0E0,0E0,0E0],"parents":[2147483647,0,0,1,1,2,2,3,3,4,4,5,5,6,6,7,7,8,8,9,9,10,10,11,11,12,12,13,13,14,14,15,15,16,16,18,18,19,19,20,20,21,21,22,22,23,23,24,24,25,25,26,26,27,27,28,28,29,29,30,30],"right_children":[2,4,6,8,10,12,14,16,18,20,22,24,26,28,30,32,34,-1,36,38,40,42,44,46,48,50,52,54,56,58,60,-1,-1,-1,-1,-1,-1,-1,-1,-1,-1,-1,-1,-1,-1,-1,-1,-1,-1,-1,-1,-1,-1,-1,-1,-1,-1,-1,-1,-1,-1],"split_conditions":[1.984E1,8.2E0,2.04E1,2.136E1,1.85E1,1.999E1,2.138E1,2.355E1,1.821E1,1.486E1,1.977E1,1.994E1,2.094E1,2.08E1,2.188E1,1.824E1,8.2E0,-2.6408416E-1,1.488E1,1.983E1,2.171E1,1.884E1,2.027E1,2.25E1,2.033E1,2.553E1,2.566E1,2.082E1,2.123E1,2.138E1,2.677E1,-4.452272E-1,-1.6156398E-1,-1.4242391E-1,3.541279E-3,-1.0272844E-1,-8.7976456E-5,-1.1218375E-1,-2.66328E-1,-4.9485262E-2,-2.5364602E-2,-2.2115363E-2,-4.735953E-3,8.738211E-3,3.9889917E-2,-1.0225858E-2,6.7275944E-3,1.7731111E-2,3.8522057E-2,2.8842285E-2,5.41684E-2,5.100106E-2,7.605008E-2,3.349769E-2,5.281363E-2,5.657005E-2,7.431249E-2,6.3200824E-2,8.041959E-2,8.2376726E-2,9.540373E-2],"split_indices":[0,0,2,19,2,7,1,28,5,0,8,8,1,8,2,2,1,0,2,24,15,7,2,19,1,19,20,0,0,7,18,0,0,0,0,0,0,0,0,0,0,0,0,0,0,0,0,0,0,0,0,0,0,0,0,0,0,0,0,0,0],"split_type":[0,0,0,0,0,0,0,0,0,0,0,0,0,0,0,0,0,0,0,0,0,0,0,0,0,0,0,0,0,0,0,0,0,0,0,0,0,0,0,0,0,0,0,0,0,0,0,0,0,0,0,0,0,0,0,0,0,0,0,0,0],"sum_hessian":[3.1571E4,2.1405E4,1.0166E4,1.19E2,2.1286E4,4.377E3,5.789E3,1.12E2,7E0,9.691E3,1.1595E4,2.277E3,2.1E3,3.176E3,2.613E3,1.09E2,3E0,3E0,4E0,1.14E2,9.577E3,8.55E3,3.045E3,1.568E3,7.09E2,1.412E3,6.88E2,1.412E3,1.764E3,1.362E3,1.251E3,1.06E2,3E0,2E0,1E0,3E0,1E0,6.7E1,4.7E1,4.678E3,4.899E3,4.376E3,4.174E3,2.094E3,9.51E2,6.12E2,9.56E2,4.74E2,2.35E2,1.176E3,2.36E2,4.3E2,2.58E2,7.59E2,6.53E2,8.47E2,9.17E2,6.65E2,6.97E2,6.46E2,6.05E2],"tree_param":{"num_deleted":"0","num_feature":"30","num_nodes":"61","size_leaf_vector":"1"}},{"base_weights":[-2.819293E-4,-4.5797834E-1,8.7675434E-1,-7.5922775E0,-4.1534567E-1,4.1915107E-1,1.266484E0,-7.938353E0,-3.7295506E0,-7.33601E-1,-1.1181353E-1,1.2977146E-1,7.604658E-1,1.0525275E0,1.5509402E0,-8.092054E0,-3.0307233E0,-5.1872396E0,-6.513376E-1,-2.5204825E0,-6.935514E-1,-2.8066236E-1,2.9716465E-1,-6.026032E-2,4.0042E-1,6.140523E-1,1.2271067E0,8.7342054E-1,1.3494368E0,1.397428E0,1.7250559E0,-3.492169E-1,-4.5548964E-1,1.2206777E-2,-2.6476705E-1,-1.3052444E-1,-3.5556844E-1,-5.1652673E-3,-7.108667E-2,-1.0130348E-1,-1.8096374E-1,-5.302872E-2,-2.8153671E-2,-2.2416376E-2,-6.1496003E-3,7.173975E-3,3.7832037E-2,-1.738771E-1,-2.4700563E-3,1.2256093E-2,3.0902317E-2,2.5511352E-2,4.8417445E-2,5.2803457E-2,7.419609E-2,3.9133444E-2,6.41671E-2,6.039962E-2,7.782751E-2,6.258308E-2,7.906454E-2,7.900515E-2,9.0286724E-2],"categories":[],"categories_nodes":[],"categories_segments":[],"categories_sizes":[],"default_left":[0,0,0,1,1,1,1,1,0,0,1,1,0,1,0,1,0,0,0,1,1,1,0,0,0,0,0,1,1,1,0,0,0,0,0,0,0,0,0,0,0,0,0,0,0,0,0,0,0,0,0,0,0,0,0,0,0,0,0,0,0,0,0],"id":6,"left_children":[1,3,5,7,9,11,13,15,17,19,21,23,25,27,29,31,33,35,37,39,41,43,45,47,49,51,53,55,57,59,61,-1,-1,-1,-1,-1,-1,-1,-1,-1,-1,-1,-1,-1,-1,-1,-1,-1,-1,-1,-1,-1,-1,-1,-1,-1,-1,-1,-1,-1,-1,-1,-1],"loss_changes":[1.2655452E4,6.297702E3,1.9275195E3,1.3481934E2,1.989313E3,4.911809E2,3.5367578E2,5.9958496E1,5.0466278E1,7.176831E2,7.2806635E2,1.3853003E2,1.5515857E2,1.7617188E2,6.451807E1,5.8128906E1,3.83743E1,2.1099869E1,1.9641361E0,1.1218359E2,4.703379E2,1.9720898E2,2.1745514E2,5.8571636E1,3.7396927E1,6.3474976E1,2.2328064E1,7.648535E1,3.4826416E1,3.382715E1,1.0817871E1,0E0,0E0,0E0,0E0,0E0,0E0,0E0,0E0,0E0,0E0,0E0,0E0,0E0,0E0,0E0,0E0,0E0,0E0,0E0,0E0,0E0,0E0,0E0,0E0,0E0,0E0,0E0,0E0,0E0,0E0,0E0,0E0],"parents":[2147483647,0,0,1,1,2,2,3,3,4,4,5,5,6,6,7,7,8,8,9,9,10,10,11,11,12,12,13,13,14,14,15,15,16,16,17,17,18,18,19,19,20,20,21,21,22,22,23,23,24,24,25,25,26,26,27,27,28,28,29,29,30,30],"right_children":[2,4,6,8,10,12,14,16,18,20,22,24,26,28,30,32,34,36,38,40,42,44,46,48,50,52,54,56,58,60,62,-1,-1,-1,-1,-1,-1,-1,-1,-1,-1,-1,-1,-1,-1,-1,-1,-1,-1,-1,-1,-1,-1,-1,-1,-1,-1,-1,-1,-1,-1,-1,-1],"split_conditions":[1.977E1,8.2E0,2.037E1,1.88E1,1.856E1,2E1,2.143E1,1.898E1,1.846E1,1.867E1,1.963E1,1.968E1,2.126E1,2.134E1,2.61E1,8.41E0,1.672E1,2.136E1,1.91E1,2.114E1,1.76E1,1.873E1,2.037E1,1.559E1,2.017E1,2.525E1,2.58E1,2.169E1,2.165E1,2.176E1,2.547E1,-3.492169E-1,-4.5548964E-1,1.2206777E-2,-2.6476705E-1,-1.3052444E-1,-3.5556844E-1,-5.1652673E-3,-7.108667E-2,-1.0130348E-1,-1.8096374E-1,-5.302872E-2,-2.8153671E-2,-2.2416376E-2,-6.1496003E-3,7.173975E-3,3.7832037E-2,-1.738771E-1,-2.4700563E-3,1.2256093E-2,3.0902317E-2,2.5511352E-2,4.8417445E-2,5.2803457E-2,7.419609E-2,3.9133444E-2,6.41671E-2,6.039962E-2,7.782751E-2,6.258308E-2,7.906454E-2,7.900515E-2,9.0286724E-2],"split_indices":[4,0,0,12,0,5,2,11,9,15,12,8,2,7,18,12,8,23,9,29,5,7,0,0,11,21,23,5,5,8,21,0,0,0,0,0,0,0,0,0,0,0,0,0,0,0,0,0,0,0,0,0,0,0,0,0,0,0,0,0,0,0,0],"split_type":[0,0,0,0,0,0,0,0,0,0,0,0,0,0,0,0,0,0,0,0,0,0,0,0,0,0,0,0,0,0,0,0,0,0,0,0,0,0,0,0,0,0,0,0,0,0,0,0,0,0,0,0,0,0,0,0,0,0,0,0,0,0,0],"sum_hessian":[3.1525E4,2.0715E4,1.081E4,1.22E2,2.0593E4,4.973E3,5.837E3,1.11E2,1.1E1,1.0052E4,1.0541E4,2.692E3,2.281E3,3.334E3,2.503E3,1.07E2,4E0,7E0,4E0,2.19E2,9.833E3,7.461E3,3.08E3,1.582E3,1.11E3,1.738E3,5.43E2,2.082E3,1.252E3,1.335E3,1.168E3,5.5E1,5.2E1,2E0,2E0,4E0,3E0,3E0,1E0,1.53E2,6.6E1,2.577E3,7.256E3,3.615E3,3.846E3,2.309E3,7.71E2,4E0,1.578E3,6.49E2,4.61E2,1.346E3,3.92E2,3.29E2,2.14E2,1.707E3,3.75E2,7.48E2,5.04E2,7.49E2,5.86E2,4.25E2,7.43E2],"tree_param":{"num_deleted":"0","num_feature":"30","num_nodes":"63","size_leaf_vector":"1"}},{"base_weights":[6.5624993E-3,-4.1903898E-1,8.480365E-1,-5.284151E0,-3.6803362E-1,4.7552904E-1,1.2568337E0,-7.308686E0,-3.3382678E0,-6.939457E-1,-1.0883031E-1,1.8952322E-1,8.47022E-1,1.0906332E0,1.5235788E0,-7.3966255E0,4.812455E-2,-2.374894E0,-4.972122E0,-1.0204602E0,-5.151124E-1,-2.6659483E-1,3.1423166E-1,-4.730479E-2,4.1164246E-1,6.8440795E-1,1.260422E0,9.317076E-1,1.349458E0,1.3993671E0,1.700426E0,-3.8071877E-1,-1.6301821E-1,-9.838796E-2,-2.371534E-1,-3.694509E-1,-1.7930493E-1,-5.9849214E-2,-3.6983814E-2,-3.7800405E-2,-2.009092E-2,-2.129735E-2,-5.1252623E-3,9.080424E-3,3.642749E-2,-1.4261666E-2,3.6028854E-3,1.6995737E-2,4.4115867E-2,2.7654389E-2,5.0619375E-2,5.404367E-2,7.3875576E-2,3.714484E-2,5.494183E-2,5.9367675E-2,7.4617326E-2,6.195124E-2,7.7919215E-2,8.125502E-2,9.441029E-2],"categories":[],"categories_nodes":[],"categories_segments":[],"categories_sizes":[],"default_left":[0,0,1,0,0,1,0,1,1,0,1,1,0,0,0,0,0,1,0,0,1,1,0,1,0,0,0,0,1,1,0,0,0,0,0,0,0,0,0,0,0,0,0,0,0,0,0,0,0,0,0,0,0,0,0,0,0,0,0,0,0],"id":7,"left_children":[1,3,5,7,9,11,13,15,17,19,21,23,25,27,29,31,-1,33,35,37,39,41,43,45,47,49,51,53,55,57,59,-1,-1,-1,-1,-1,-1,-1,-1,-1,-1,-1,-1,-1,-1,-1,-1,-1,-1,-1,-1,-1,-1,-1,-1,-1,-1,-1,-1,-1,-1],"loss_changes":[1.1334894E4,5.213853E3,1.6182905E3,8.3441406E2,1.7572253E3,5.9100977E2,2.2301904E2,8.421924E1,1.6605518E2,5.375532E2,7.7351514E2,1.6545924E2,1.6182092E2,1.27326904E2,4.030127E1,6.974463E1,0E0,6.1050934E1,1.10847046E2,1.6069678E2,1.6224768E2,2.2067188E2,1.7284457E2,4.327337E1,5.4493256E1,7.4339294E1,2.4986084E1,6.0401855E1,2.5722412E1,2.7314453E1,8.204834E0,0E0,0E0,0E0,0E0,0E0,0E0,0E0,0E0,0E0,0E0,0E0,0E0,0E0,0E0,0E0,0E0,0E0,0E0,0E0,0E0,0E0,0E0,0E0,0E0,0E0,0E0,0E0,0E0,0E0,0E0],"parents":[2147483647,0,0,1,1,2,2,3,3,4,4,5,5,6,6,7,7,8,8,9,9,10,10,11,11,12,12,13,13,14,14,15,15,17,17,18,18,19,19,20,20,21,21,22,22,23,23,24,24,25,25,26,26,27,27,28,28,29,29,30,30],"right_children":[2,4,6,8,10,12,14,16,18,20,22,24,26,28,30,32,-1,34,36,38,40,42,44,46,48,50,52,54,56,58,60,-1,-1,-1,-1,-1,-1,-1,-1,-1,-1,-1,-1,-1,-1,-1,-1,-1,-1,-1,-1,-1,-1,-1,-1,-1,-1,-1,-1,-1,-1],"split_conditions":[1.977E1,1.772E1,2.072E1,1.032E1,1.849E1,2.019E1,2.61E1,2.415E1,2.089E1,2.129E1,1.967E1,1.958E1,2.54E1,2.56E1,2.207E1,2.267E1,4.812455E-2,2.02E1,1.696E1,2.151E1,1.8E1,1.881E1,2.059E1,1.869E1,2.555E1,2.121E1,2.56E1,2.087E1,2.153E1,2.162E1,2.282E1,-3.8071877E-1,-1.6301821E-1,-9.838796E-2,-2.371534E-1,-3.694509E-1,-1.7930493E-1,-5.9849214E-2,-3.6983814E-2,-3.7800405E-2,-2.009092E-2,-2.129735E-2,-5.1252623E-3,9.080424E-3,3.642749E-2,-1.4261666E-2,3.6028854E-3,1.6995737E-2,4.4115867E-2,2.7654389E-2,5.0619375E-2,5.404367E-2,7.3875576E-2,3.714484E-2,5.494183E-2,5.9367675E-2,7.4617326E-2,6.195124E-2,7.7919215E-2,8.125502E-2,9.441029E-2],"split_indices":[1,15,4,15,4,6,16,26,23,15,9,12,17,20,10,28,0,20,4,17,12,7,7,9,25,9,15,7,12,6,4,0,0,0,0,0,0,0,0,0,0,0,0,0,0,0,0,0,0,0,0,0,0,0,0,0,0,0,0,0,0],"split_type":[0,0,0,0,0,0,0,0,0,0,0,0,0,0,0,0,0,0,0,0,0,0,0,0,0,0,0,0,0,0,0,0,0,0,0,0,0,0,0,0,0,0,0,0,0,0,0,0,0,0,0,0,0,0,0,0,0,0,0,0,0],"sum_hessian":[3.1648E4,2.1018E4,1.063E4,2.17E2,2.0801E4,5.563E3,5.067E3,1.05E2,1.12E2,9.214E3,1.1587E4,3.144E3,2.419E3,3.125E3,1.942E3,1.04E2,1E0,7.2E1,4E1,3.259E3,5.955E3,8.44E3,3.147E3,1.522E3,1.622E3,1.738E3,6.81E2,1.939E3,1.186E3,1.146E3,7.96E2,9.8E1,6E0,6.3E1,9E0,1.3E1,2.7E1,1.999E3,1.26E3,1.903E3,4.052E3,4.281E3,4.159E3,2.385E3,7.62E2,5.08E2,1.014E3,1.409E3,2.13E2,1.243E3,4.95E2,3.76E2,3.05E2,9.13E2,1.026E3,5.6E2,6.26E2,5.75E2,5.71E2,5.75E2,2.21E2],"tree_param":{"num_deleted":"0","num_feature":"30","num_nodes":"61","size_leaf_vector":"1"}},{"base_weights":[3.2000777E-3,-3.7687674E-1,8.5986966E-1,-6.601667E0,-3.4197062E-1,4.746022E-1,1.1829638E0,-6.851192E0,-3.9824808E0,-5.807979E-1,2.5798036E-2,2.3550664E-1,7.920999E-1,9.6733624E-1,1.3976547E0,-6.4371643E0,-4.996121E-1,-1.236838E0,-3.4897956E-1,-8.893157E-1,-3.9866522E-1,-1.2713668E-1,4.6257564E-1,3.8071606E-2,4.3027514E-1,6.5325904E-1,1.1601068E0,8.17975E-1,1.2553465E0,1.2713529E0,1.5984625E0,-3.3123794E-1,-7.7396266E-2,5.81177E-2,-8.728152E-2,-1.4953312E-1,-4.2311847E-2,-2.979433E-2,-1.3471231E-2,-1.4336124E-2,2.349701E-3,1.5825352E-2,4.7943573E-2,-2.2730034E-2,4.7896667E-3,1.898672E-2,5.3007275E-2,2.4704149E-2,4.4364758E-2,5.0428446E-2,7.089979E-2,3.3960786E-2,5.274097E-2,5.660323E-2,7.737945E-2,5.6614608E-2,7.085346E-2,7.303472E-2,8.4666386E-2],"categories":[],"categories_nodes":[],"categories_segments":[],"categories_sizes":[],"default_left":[1,0,0,1,1,0,0,1,0,1,0,1,0,0,0,0,0,0,0,0,0,1,1,0,0,0,1,1,1,0,0,0,0,0,0,0,0,0,0,0,0,0,0,0,0,0,0,0,0,0,0,0,0,0,0,0,0,0,0],"id":8,"left_children":[1,3,5,7,9,11,13,15,17,19,21,23,25,27,29,31,-1,33,-1,35,37,39,41,43,45,47,49,51,53,55,57,-1,-1,-1,-1,-1,-1,-1,-1,-1,-1,-1,-1,-1,-1,-1,-1,-1,-1,-1,-1,-1,-1,-1,-1,-1,-1,-1,-1],"loss_changes":[1.0288641E4,4.7536367E3,1.2082407E3,5.244922E1,1.9118794E3,3.3618085E2,2.4312256E2,7.8731445E1,9.8344345E1,7.412012E2,5.725884E2,9.7234116E1,9.647473E1,1.1245361E2,6.502588E1,8.1464355E1,0E0,1.1794563E1,0E0,4.4085278E2,2.113982E2,1.7644449E2,1.6084894E2,3.578998E1,4.012227E1,5.111963E1,1.8891418E1,5.646753E1,3.063733E1,3.1384033E1,1.0818359E1,0E0,0E0,0E0,0E0,0E0,0E0,0E0,0E0,0E0,0E0,0E0,0E0,0E0,0E0,0E0,0E0,0E0,0E0,0E0,0E0,0E0,0E0,0E0,0E0,0E0,0E0,0E0,0E0],"parents":[2147483647,0,0,1,1,2,2,3,3,4,4,5,5,6,6,7,7,8,8,9,9,10,10,11,11,12,12,13,13,14,14,15,15,17,17,19,19,20,20,21,21,22,22,23,23,24,24,25,25,26,26,27,27,28,28,29,29,30,30],"right_children":[2,4,6,8,10,12,14,16,18,20,22,24,26,28,30,32,-1,34,-1,36,38,40,42,44,46,48,50,52,54,56,58,-1,-1,-1,-1,-1,-1,-1,-1,-1,-1,-1,-1,-1,-1,-1,-1,-1,-1,-1,-1,-1,-1,-1,-1,-1,-1,-1,-1],"split_conditions":[1.994E1,8.2E0,2.048E1,1.887E1,1.892E1,2.018E1,2.129E1,1.823E1,1.818E1,1.799E1,1.987E1,1.967E1,2.553E1,2.15E1,2.68E1,1.67E1,-4.996121E-1,8E0,-3.4897956E-1,1.486E1,1.827E1,1.901E1,2.09E1,1.803E1,2.69E1,2.087E1,2.172E1,2.106E1,2.219E1,2.559E1,2.175E1,-3.3123794E-1,-7.7396266E-2,5.81177E-2,-8.728152E-2,-1.4953312E-1,-4.2311847E-2,-2.979433E-2,-1.3471231E-2,-1.4336124E-2,2.349701E-3,1.5825352E-2,4.7943573E-2,-2.2730034E-2,4.7896667E-3,1.898672E-2,5.3007275E-2,2.4704149E-2,4.4364758E-2,5.0428446E-2,7.089979E-2,3.3960786E-2,5.274097E-2,5.660323E-2,7.737945E-2,5.6614608E-2,7.085346E-2,7.303472E-2,8.4666386E-2],"split_indices":[5,0,0,12,0,1,1,12,5,4,4,9,19,7,19,6,0,5,0,0,1,8,7,0,26,9,12,4,0,18,5,0,0,0,0,0,0,0,0,0,0,0,0,0,0,0,0,0,0,0,0,0,0,0,0,0,0,0,0],"split_type":[0,0,0,0,0,0,0,0,0,0,0,0,0,0,0,0,0,0,0,0,0,0,0,0,0,0,0,0,0,0,0,0,0,0,0,0,0,0,0,0,0,0,0,0,0,0,0,0,0,0,0,0,0,0,0,0,0,0,0],"sum_hessian":[3.1597E4,2.1887E4,9.71E3,1.21E2,2.1766E4,4.43E3,5.28E3,1.09E2,1.2E1,1.3196E4,8.57E3,2.528E3,1.902E3,2.637E3,2.643E3,9.9E1,1E1,7E0,5E0,4.897E3,8.299E3,6.348E3,2.222E3,1.256E3,1.272E3,1.383E3,5.19E2,1.739E3,8.98E2,1.627E3,1.016E3,9.5E1,4E0,1E0,6E0,9.7E1,4.8E3,3.284E3,5.015E3,3.312E3,3.036E3,1.718E3,5.04E2,1.31E2,1.125E3,1.179E3,9.3E1,8.25E2,5.58E2,3.3E2,1.89E2,1.099E3,6.4E2,6.35E2,2.63E2,8.37E2,7.9E2,4.21E2,5.95E2],"tree_param":{"num_deleted":"0","num_feature":"30","num_nodes":"59","size_leaf_vector":"1"}},{"base_weights":[-2.2501675E-3,-3.8367856E-1,7.869326E-1,-6.499167E0,-3.4802684E-1,4.7056708E-1,1.1770288E0,-6.71834E0,-1.8760818E0,-6.429163E-1,-8.926547E-2,2.38329E-1,8.0339295E-1,9.8269767E-1,1.36161E0,-6.8067966E0,-5.29291E-2,6.0936328E-2,-3.3577504E0,-1.0326464E0,-5.0883013E-1,-2.2477679E-1,3.3411047E-1,-4.213514E0,2.581737E-1,6.5304494E-1,1.1615067E0,8.612718E-1,1.2707946E0,1.2276523E0,1.5096239E0,-2.9889253E-1,-3.990924E-1,-1.9599915E-1,-2.7720524E-2,-9.5382266E-2,-4.678262E-2,-3.6627125E-2,-2.0269983E-2,-1.9282153E-2,-3.3100643E-3,6.5773367E-3,3.1167274E-2,-2.8559396E-1,-3.720417E-3,2.092704E-3,2.1330845E-2,2.7975399E-2,4.8664104E-2,4.851836E-2,6.619166E-2,3.6565915E-2,5.413701E-2,5.81727E-2,7.3642015E-2,5.5339463E-2,7.1833186E-2,6.90556E-2,8.104702E-2],"categories":[],"categories_nodes":[],"categories_segments":[],"categories_sizes":[],"default_left":[1,0,0,1,1,0,0,0,0,0,1,0,0,1,0,1,0,0,0,1,0,1,0,0,0,0,0,0,0,0,0,0,0,0,0,0,0,0,0,0,0,0,0,0,0,0,0,0,0,0,0,0,0,0,0,0,0,0,0],"id":9,"left_children":[1,3,5,7,9,11,13,15,17,19,21,23,25,27,29,31,-1,-1,33,35,37,39,41,43,45,47,49,51,53,55,57,-1,-1,-1,-1,-1,-1,-1,-1,-1,-1,-1,-1,-1,-1,-1,-1,-1,-1,-1,-1,-1,-1,-1,-1,-1,-1,-1,-1],"loss_changes":[9.55698E3,4.6644023E3,1.2761538E3,1.1303955E2,1.623811E3,4.4147144E2,1.6481104E2,5.1870117E1,3.6190544E1,5.1922705E2,6.504468E2,2.9854724E2,1.2566162E2,7.796582E1,4.5197266E1,6.527637E1,0E0,0E0,5.707363E0,2.1420825E2,1.7097546E2,2.1904962E2,1.6097784E2,9.260333E1,1.2215727E2,4.9059265E1,2.0217041E1,4.5055664E1,1.2773804E1,3.0012451E1,1.3826416E1,0E0,0E0,0E0,0E0,0E0,0E0,0E0,0E0,0E0,0E0,0E0,0E0,0E0,0E0,0E0,0E0,0E0,0E0,0E0,0E0,0E0,0E0,0E0,0E0,0E0,0E0,0E0,0E0],"parents":[2147483647,0,0,1,1,2,2,3,3,4,4,5,5,6,6,7,7,8,8,9,9,10,10,11,11,12,12,13,13,14,14,15,15,18,18,19,19,20,20,21,21,22,22,23,23,24,24,25,25,26,26,27,27,28,28,29,29,30,30],"right_children":[2,4,6,8,10,12,14,16,18,20,22,24,26,28,30,32,-1,-1,34,36,38,40,42,44,46,48,50,52,54,56,58,-1,-1,-1,-1,-1,-1,-1,-1,-1,-1,-1,-1,-1,-1,-1,-1,-1,-1,-1,-1,-1,-1,-1,-1,-1,-1,-1,-1],"split_conditions":[1.996E1,8.2E0,2.078E1,1.887E1,1.853E1,2.035E1,2.138E1,2.164E1,2.064E1,2.097E1,1.977E1,1.559E1,2.56E1,2.177E1,2.203E1,8.33E0,-5.29291E-2,6.0936328E-2,1.669E1,1.596E1,2.151E1,1.882E1,2.004E1,2.123E1,1.951E1,2.54E1,2.138E1,2.138E1,2.775E1,2.64E1,2.644E1,-2.9889253E-1,-3.990924E-1,-1.9599915E-1,-2.7720524E-2,-9.5382266E-2,-4.678262E-2,-3.6627125E-2,-2.0269983E-2,-1.9282153E-2,-3.3100643E-3,6.5773367E-3,3.1167274E-2,-2.8559396E-1,-3.720417E-3,2.092704E-3,2.1330845E-2,2.7975399E-2,4.8664104E-2,4.851836E-2,6.619166E-2,3.6565915E-2,5.413701E-2,5.81727E-2,7.3642015E-2,5.5339463E-2,7.1833186E-2,6.90556E-2,8.104702E-2],"split_indices":[13,0,0,11,0,4,7,21,26,18,7,0,22,9,0,9,0,0,4,0,17,11,11,18,6,21,4,11,26,17,23,0,0,0,0,0,0,0,0,0,0,0,0,0,0,0,0,0,0,0,0,0,0,0,0,0,0,0,0],"split_type":[0,0,0,0,0,0,0,0,0,0,0,0,0,0,0,0,0,0,0,0,0,0,0,0,0,0,0,0,0,0,0,0,0,0,0,0,0,0,0,0,0,0,0,0,0,0,0,0,0,0,0,0,0,0,0,0,0,0,0],"sum_hessian":[3.1747E4,2.1403E4,1.0344E4,1.23E2,2.128E4,5.713E3,4.631E3,1.17E2,6E0,9.945E3,1.1335E4,3.366E3,2.347E3,2.259E3,2.372E3,1.15E2,2E0,2E0,4E0,2.544E3,7.401E3,8.587E3,2.748E3,1.4E1,3.352E3,1.655E3,6.92E2,1.592E3,6.67E2,1.25E3,1.122E3,7.1E1,4.4E1,3E0,1E0,2.52E2,2.292E3,2.338E3,5.063E3,4.262E3,4.325E3,1.617E3,1.131E3,1E1,4E0,1.468E3,1.884E3,1.283E3,3.72E2,3.21E2,3.71E2,1.006E3,5.86E2,4.4E2,2.27E2,7.96E2,4.54E2,5.27E2,5.95E2],"tree_param":{"num_deleted":"0","num_feature":"30","num_nodes":"59","size_leaf_vector":"1"}},{"base_weights":[4.4097178E-4,-3.6755967E-1,7.6386863E-1,-6.228208E0,-3.31036E-1,3.9995056E-1,1.0604857E0,-6.4177394E0,-1.1784267E0,-6.182317E-1,-8.248813E-2,1.5172404E-1,6.8248373E-1,9.150156E-1,1.333711E0,-6.581756E0,-2.013109E0,7.2636384E-1,-1.1562065E-1,-1.3552886E0,-5.294726E-1,-2.1030317E-1,3.1704506E-1,-5.4935224E-2,3.306718E-1,5.5406433E-1,1.052629E0,7.630707E-1,1.1253232E0,1.2169112E0,1.4787173E0,-3.3409116E-1,-1.9257927E-2,-1.4284308E-1,5.5141356E-2,5.544584E-2,-9.6855167E-4,-1.1308526E-1,-5.6647755E-2,-3.534112E-2,-1.881109E-2,-1.6404493E-2,-1.0092901E-3,9.731336E-3,3.43259E-2,-1.6189227E-1,-2.3255479E-3,1.1507392E-2,2.846386E-2,2.47674E-2,5.052135E-2,4.215431E-2,6.0836054E-2,3.305989E-2,5.0784376E-2,5.0974455E-2,6.611548E-2,5.484426E-2,6.9184735E-2,6.7387E-2,7.821853E-2],"categories":[],"categories_nodes":[],"categories_segments":[],"categories_sizes":[],"default_left":[0,0,1,0,1,1,0,0,0,0,1,1,0,1,0,0,1,0,0,0,1,1,0,0,1,0,0,0,0,0,0,0,0,0,0,0,0,0,0,0,0,0,0,0,0,0,0,0,0,0,0,0,0,0,0,0,0,0,0,0,0],"id":10,"left_children":[1,3,5,7,9,11,13,15,17,19,21,23,25,27,29,31,33,35,-1,37,39,41,43,45,47,49,51,53,55,57,59,-1,-1,-1,-1,-1,-1,-1,-1,-1,-1,-1,-1,-1,-1,-1,-1,-1,-1,-1,-1,-1,-1,-1,-1,-1,-1,-1,-1,-1,-1],"loss_changes":[8.877764E3,4.561964E3,1.1090269E3,1.1877344E2,1.5126025E3,3.2369696E2,2.2382275E2,7.8498535E1,1.4639691E1,6.424321E2,5.802315E2,9.095497E1,1.020423E2,1.1731177E2,3.1481201E1,7.307568E1,1.8925104E1,8.7733006E-1,0E0,2.1024976E2,2.3825684E2,1.9275488E2,1.2443054E2,3.0470633E1,3.1481934E1,4.250699E1,1.8057495E1,5.4658203E1,3.094519E1,2.0382324E1,7.6741943E0,0E0,0E0,0E0,0E0,0E0,0E0,0E0,0E0,0E0,0E0,0E0,0E0,0E0,0E0,0E0,0E0,0E0,0E0,0E0,0E0,0E0,0E0,0E0,0E0,0E0,0E0,0E0,0E0,0E0,0E0],"parents":[2147483647,0,0,1,1,2,2,3,3,4,4,5,5,6,6,7,7,8,8,9,9,10,10,11,11,12,12,13,13,14,14,15,15,16,16,17,17,19,19,20,20,21,21,22,22,23,23,24,24,25,25,26,26,27,27,28,28,29,29,30,30],"right_children":[2,4,6,8,10,12,14,16,18,20,22,24,26,28,30,32,34,36,-1,38,40,42,44,46,48,50,52,54,56,58,60,-1,-1,-1,-1,-1,-1,-1,-1,-1,-1,-1,-1,-1,-1,-1,-1,-1,-1,-1,-1,-1,-1,-1,-1,-1,-1,-1,-1,-1,-1],"split_conditions":[1.984E1,1.032E1,2.047E1,2.364E1,1.853E1,2.007E1,2.182E1,1.888E1,2.108E1,2.019E1,1.988E1,1.941E1,2.547E1,2.132E1,2.69E1,2.332E1,1.822E1,8E0,-1.1562065E-1,1.867E1,1.824E1,1.911E1,2.423E1,8E0,2.03E1,2.61E1,2.511E1,2.555E1,2.665E1,2.186E1,2.599E1,-3.3409116E-1,-1.9257927E-2,-1.4284308E-1,5.5141356E-2,5.544584E-2,-9.6855167E-4,-1.1308526E-1,-5.6647755E-2,-3.534112E-2,-1.881109E-2,-1.6404493E-2,-1.0092901E-3,9.731336E-3,3.43259E-2,-1.6189227E-1,-2.3255479E-3,1.1507392E-2,2.846386E-2,2.47674E-2,5.052135E-2,4.215431E-2,6.0836054E-2,3.305989E-2,5.0784376E-2,5.0974455E-2,6.611548E-2,5.484426E-2,6.9184735E-2,6.7387E-2,7.821853E-2],"split_indices":[2,15,3,29,3,8,2,3,25,15,11,12,21,10,25,25,10,7,0,15,10,8,15,3,7,15,24,20,22,8,15,0,0,0,0,0,0,0,0,0,0,0,0,0,0,0,0,0,0,0,0,0,0,0,0,0,0,0,0,0,0],"split_type":[0,0,0,0,0,0,0,0,0,0,0,0,0,0,0,0,0,0,0,0,0,0,0,0,0,0,0,0,0,0,0,0,0,0,0,0,0,0,0,0,0,0,0,0,0,0,0,0,0,0,0,0,0,0,0,0,0,0,0,0,0],"sum_hessian":[3.1598E4,2.1321E4,1.0277E4,1.31E2,2.119E4,4.616E3,5.661E3,1.26E2,5E0,9.83E3,1.136E4,2.458E3,2.158E3,3.697E3,1.964E3,1.21E2,5E0,2E0,3E0,1.055E3,8.775E3,8.607E3,2.753E3,1.141E3,1.317E3,1.604E3,5.54E2,2.149E3,1.548E3,1.093E3,8.71E2,1.19E2,2E0,4E0,1E0,1E0,1E0,2.06E2,8.49E2,4.066E3,4.709E3,5.314E3,3.293E3,2.069E3,6.84E2,2E0,1.139E3,9.28E2,3.89E2,1.423E3,1.81E2,2.46E2,3.08E2,1.534E3,6.15E2,1.011E3,5.37E2,6.4E2,4.53E2,3.51E2,5.2E2],"tree_param":{"num_deleted":"0","num_feature":"30","num_nodes":"61","size_leaf_vector":"1"}},{"base_weights":[-2.1792806E-3,-3.795254E-1,6.600607E-1,-5.873132E0,-3.4668317E-1,2.8722772E-1,9.763427E-1,-6.065191E0,-2.81164E-1,-6.8317455E-1,-1.4093833E-1,9.313516E-2,5.9271574E-1,7.744169E-1,1.1894416E0,-6.130218E0,3.3697795E-2,-1.0847433E-1,7.332883E-1,-1.288005E0,-5.8656406E-1,-2.766836E-1,1.5056284E-1,-1.4793107E-1,2.1160673E-1,4.9815446E-1,1.1361231E0,6.316205E-1,1.045714E0,1.0695353E0,1.3611757E0,-2.63357E-1,-3.4363607E-1,4.9515437E-2,-9.443283E-4,-1.2201625E-1,-5.766185E-2,-3.72292E-2,-2.0774564E-2,-2.4238778E-2,-9.441642E-3,1.8225933E-3,2.697363E-2,-2.6517293E-1,-6.9013364E-3,4.469067E-3,2.021818E-2,2.0892339E-2,4.0748954E-2,4.7272634E-2,6.817868E-2,2.73429E-2,4.8955765E-2,4.632881E-2,6.157539E-2,4.8092373E-2,6.270534E-2,6.447868E-2,7.467266E-2],"categories":[],"categories_nodes":[],"categories_segments":[],"categories_sizes":[],"default_left":[1,0,0,0,1,0,0,1,0,1,1,0,0,0,0,0,0,0,0,0,1,1,1,0,0,0,0,0,0,1,0,0,0,0,0,0,0,0,0,0,0,0,0,0,0,0,0,0,0,0,0,0,0,0,0,0,0,0,0],"id":11,"left_children":[1,3,5,7,9,11,13,15,17,19,21,23,25,27,29,31,-1,-1,33,35,37,39,41,43,45,47,49,51,53,55,57,-1,-1,-1,-1,-1,-1,-1,-1,-1,-1,-1,-1,-1,-1,-1,-1,-1,-1,-1,-1,-1,-1,-1,-1,-1,-1,-1,-1],"loss_changes":[7.8594067E3,3.612725E3,1.3458989E3,1.2609863E2,1.3787847E3,3.106991E2,2.64833E2,5.4527832E1,1.1168924E1,4.4082227E2,4.8916528E2,9.159305E1,1.04054504E2,1.22301025E2,6.0381836E1,3.6855957E1,0E0,0E0,7.9200053E-1,1.5869348E2,1.7589136E2,1.5409076E2,1.7430057E2,5.324063E1,5.0617393E1,4.3829315E1,1.1764587E1,6.078888E1,2.305249E1,3.403418E1,9.733154E0,0E0,0E0,0E0,0E0,0E0,0E0,0E0,0E0,0E0,0E0,0E0,0E0,0E0,0E0,0E0,0E0,0E0,0E0,0E0,0E0,0E0,0E0,0E0,0E0,0E0,0E0,0E0,0E0],"parents":[2147483647,0,0,1,1,2,2,3,3,4,4,5,5,6,6,7,7,8,8,9,9,10,10,11,11,12,12,13,13,14,14,15,15,18,18,19,19,20,20,21,21,22,22,23,23,24,24,25,25,26,26,27,27,28,28,29,29,30,30],"right_children":[2,4,6,8,10,12,14,16,18,20,22,24,26,28,30,32,-1,-1,34,36,38,40,42,44,46,48,50,52,54,56,58,-1,-1,-1,-1,-1,-1,-1,-1,-1,-1,-1,-1,-1,-1,-1,-1,-1,-1,-1,-1,-1,-1,-1,-1,-1,-1,-1,-1],"split_conditions":[1.97E1,8.2E0,2.03E1,2.373E1,1.824E1,1.998E1,2.123E1,2.416E1,1.02E1,1.689E1,1.935E1,1.882E1,2.165E1,2.56E1,2.64E1,1.06E1,3.3697795E-2,-1.0847433E-1,2.323E1,1.772E1,1.828E1,1.817E1,2.024E1,8.2E0,2E1,2.56E1,2.56E1,2.153E1,2.175E1,2.186E1,2.247E1,-2.63357E-1,-3.4363607E-1,4.9515437E-2,-9.443283E-4,-1.2201625E-1,-5.766185E-2,-3.72292E-2,-2.0774564E-2,-2.4238778E-2,-9.441642E-3,1.8225933E-3,2.697363E-2,-2.6517293E-1,-6.9013364E-3,4.469067E-3,2.021818E-2,2.0892339E-2,4.0748954E-2,4.7272634E-2,6.817868E-2,2.73429E-2,4.8955765E-2,4.632881E-2,6.157539E-2,4.8092373E-2,6.270534E-2,6.447868E-2,7.467266E-2],"split_indices":[7,0,1,29,1,0,3,25,20,0,5,1,5,24,19,25,0,0,24,15,5,8,0,0,8,27,19,0,1,8,7,0,0,0,0,0,0,0,0,0,0,0,0,0,0,0,0,0,0,0,0,0,0,0,0,0,0,0,0],"split_type":[0,0,0,0,0,0,0,0,0,0,0,0,0,0,0,0,0,0,0,0,0,0,0,0,0,0,0,0,0,0,0,0,0,0,0,0,0,0,0,0,0,0,0,0,0,0,0,0,0,0,0,0,0,0,0,0,0,0,0],"sum_hessian":[3.1449E4,2.0034E4,1.1415E4,1.18E2,1.9916E4,5.24E3,6.175E3,1.14E2,4E0,7.556E3,1.236E4,3.205E3,2.035E3,3.173E3,3.002E3,1.13E2,1E0,1E0,3E0,1.039E3,6.517E3,8.433E3,3.927E3,1.056E3,2.149E3,1.735E3,3E2,2.081E3,1.092E3,1.772E3,1.23E3,5.6E1,5.7E1,2E0,1E0,1.07E2,9.32E2,3.386E3,3.131E3,2.502E3,5.931E3,3.037E3,8.9E2,1E0,1.055E3,1.316E3,8.33E2,1.386E3,3.49E2,1.66E2,1.34E2,1.675E3,4.06E2,6.69E2,4.23E2,1.123E3,6.49E2,8.05E2,4.25E2],"tree_param":{"num_deleted":"0","num_feature":"30","num_nodes":"59","size_leaf_vector":"1"}},{"base_weights":[7.1964937E-4,-3.4145653E-1,6.712813E-1,-5.5445185E0,-3.0896473E-1,3.9290878E-1,1.005488E0,-5.8231783E0,-2.0005484E0,-6.3184625E-1,-1.2593319E-1,1.338021E-1,6.33641E-1,8.73028E-1,1.2345297E0,-5.93092E0,-1.2159386E0,6.943372E-1,-4.362009E0,-1.3323964E0,-5.5444187E-1,-2.4518436E-1,2.1453452E-1,-8.87197E-2,2.8006053E-1,5.073887E-1,9.747979E-1,7.39666E-1,1.0732286E0,1.1153523E0,1.3645037E0,-2.51986E-1,-3.360798E-1,-1.1139943E-1,4.5505285E-2,7.4697435E-2,-3.016286E-2,-9.8648526E-2,-3.0466956E-1,-1.0247482E-1,-6.0287233E-2,-3.731854E-2,-2.1314511E-2,-2.0310186E-2,-7.0020068E-3,4.9771587E-3,2.7429346E-2,-1.10587245E-2,2.6234116E-3,9.346518E-3,2.684707E-2,2.1247577E-2,4.0380333E-2,4.167681E-2,6.0074884E-2,3.225639E-2,4.94012E-2,4.5246102E-2,5.9579354E-2,5.0705027E-2,6.428842E-2,6.2541865E-2,7.12975E-2],"categories":[],"categories_nodes":[],"categories_segments":[],"categories_sizes":[],"default_left":[0,0,1,1,1,1,0,0,0,1,1,1,0,0,0,0,1,0,0,1,1,1,0,1,0,0,0,0,0,0,0,0,0,0,0,0,0,0,0,0,0,0,0,0,0,0,0,0,0,0,0,0,0,0,0,0,0,0,0,0,0,0,0],"id":12,"left_children":[1,3,5,7,9,11,13,15,17,19,21,23,25,27,29,31,33,35,37,39,41,43,45,47,49,51,53,55,57,59,61,-1,-1,-1,-1,-1,-1,-1,-1,-1,-1,-1,-1,-1,-1,-1,-1,-1,-1,-1,-1,-1,-1,-1,-1,-1,-1,-1,-1,-1,-1,-1,-1],"loss_changes":[7.262328E3,3.5412131E3,9.9450977E2,1.1673364E2,1.2308032E3,3.6393762E2,1.4633887E2,5.2355225E1,7.3031235E1,4.0785205E2,5.398046E2,9.154332E1,1.2979785E2,8.149292E1,2.6019287E1,4.8569336E1,1.0634357E1,7.126664E0,1.2795944E1,6.5554565E1,1.6661499E2,1.6663849E2,1.3243233E2,2.0881939E1,4.049756E1,5.4352356E1,2.5130066E1,4.286969E1,2.3423828E1,1.4794922E1,4.125122E0,0E0,0E0,0E0,0E0,0E0,0E0,0E0,0E0,0E0,0E0,0E0,0E0,0E0,0E0,0E0,0E0,0E0,0E0,0E0,0E0,0E0,0E0,0E0,0E0,0E0,0E0,0E0,0E0,0E0,0E0,0E0,0E0],"parents":[2147483647,0,0,1,1,2,2,3,3,4,4,5,5,6,6,7,7,8,8,9,9,10,10,11,11,12,12,13,13,14,14,15,15,16,16,17,17,18,18,19,19,20,20,21,21,22,22,23,23,24,24,25,25,26,26,27,27,28,28,29,29,30,30],"right_children":[2,4,6,8,10,12,14,16,18,20,22,24,26,28,30,32,34,36,38,40,42,44,46,48,50,52,54,56,58,60,62,-1,-1,-1,-1,-1,-1,-1,-1,-1,-1,-1,-1,-1,-1,-1,-1,-1,-1,-1,-1,-1,-1,-1,-1,-1,-1,-1,-1,-1,-1,-1,-1],"split_conditions":[1.977E1,8.2E0,2.08E1,1.887E1,1.824E1,1.999E1,2.178E1,1.782E1,2.24E1,1.667E1,1.966E1,1.919E1,2.125E1,2.56E1,2.64E1,1.879E1,1.822E1,1.916E1,1.918E1,1.489E1,1.787E1,1.846E1,2.02E1,2.272E1,2.43E1,2.541E1,2.64E1,2.604E1,2.13E1,2.68E1,2.24E1,-2.51986E-1,-3.360798E-1,-1.1139943E-1,4.5505285E-2,7.4697435E-2,-3.016286E-2,-9.8648526E-2,-3.0466956E-1,-1.0247482E-1,-6.0287233E-2,-3.731854E-2,-2.1314511E-2,-2.0310186E-2,-7.0020068E-3,4.9771587E-3,2.7429346E-2,-1.10587245E-2,2.6234116E-3,9.346518E-3,2.684707E-2,2.1247577E-2,4.0380333E-2,4.167681E-2,6.0074884E-2,3.225639E-2,4.94012E-2,4.5246102E-2,5.9579354E-2,5.0705027E-2,6.428842E-2,6.2541865E-2,7.12975E-2],"split_indices":[2,1,5,11,4,9,3,4,27,1,11,1,1,21,17,28,11,23,11,1,3,9,1,28,27,23,27,27,11,21,3,0,0,0,0,0,0,0,0,0,0,0,0,0,0,0,0,0,0,0,0,0,0,0,0,0,0,0,0,0,0,0,0],"split_type":[0,0,0,0,0,0,0,0,0,0,0,0,0,0,0,0,0,0,0,0,0,0,0,0,0,0,0,0,0,0,0,0,0,0,0,0,0,0,0,0,0,0,0,0,0,0,0,0,0,0,0,0,0,0,0,0,0,0,0,0,0,0,0],"sum_hessian":[3.1649E4,2.0956E4,1.0693E4,1.29E2,2.0827E4,5.835E3,4.858E3,1.19E2,1E1,7.534E3,1.3293E4,2.811E3,3.024E3,3.081E3,1.777E3,1.16E2,3E0,5E0,5E0,7.48E2,6.786E3,9.845E3,3.448E3,1.115E3,1.696E3,2.209E3,8.15E2,1.852E3,1.229E3,9.32E2,8.45E2,5.8E1,5.8E1,2E0,1E0,3E0,2E0,3E0,2E0,1.1E2,6.38E2,2.715E3,4.071E3,3.888E3,5.957E3,2.566E3,8.82E2,5.75E2,5.4E2,1.246E3,4.5E2,1.735E3,4.74E2,5.05E2,3.1E2,1.344E3,5.08E2,5.11E2,7.18E2,5.89E2,3.43E2,3.04E2,5.41E2],"tree_param":{"num_deleted":"0","num_feature":"30","num_nodes":"63","size_leaf_vector":"1"}},{"base_weights":[-1.5197905E-3,-3.439372E-1,6.1848813E-1,-5.3590174E0,-3.1362057E-1,3.2109535E-1,9.2865837E-1,-5.605999E0,-2.0322216E0,-5.5143285E-1,-8.1409864E-2,1.684212E-1,6.8072456E-1,7.746027E-1,1.1662362E0,-5.6913166E0,-2.902864E-2,-1.4201784E-1,-3.197679E-1,-1.0143633E0,-4.4807562E-1,-2.0845498E-1,2.1063973E-1,7.637174E-3,3.612875E-1,5.738506E-1,9.318428E-1,6.119013E-1,9.726434E-1,1.0647541E0,1.3318294E0,-2.909416E-1,-9.121152E-2,8.114007E-2,-5.003789E-2,-1.1449422E-1,-4.694369E-2,-3.026305E-2,-1.5467594E-2,-1.8475449E-2,-5.3100255E-3,7.125323E-3,3.578488E-2,-5.811786E-3,8.282371E-3,1.556959E-2,3.975786E-2,2.4156842E-2,4.067717E-2,4.0325005E-2,5.9147645E-2,2.4536002E-2,3.8670857E-2,4.1828092E-2,5.6643076E-2,4.8312884E-2,6.2402416E-2,6.2327243E-2,7.122642E-2],"categories":[],"categories_nodes":[],"categories_segments":[],"categories_sizes":[],"default_left":[1,0,0,1,1,0,0,1,0,0,1,0,0,0,0,0,0,0,0,0,1,1,0,0,0,0,0,1,0,0,0,0,0,0,0,0,0,0,0,0,0,0,0,0,0,0,0,0,0,0,0,0,0,0,0,0,0,0,0],"id":13,"left_children":[1,3,5,7,9,11,13,15,17,19,21,23,25,27,29,31,-1,33,-1,35,37,39,41,43,45,47,49,51,53,55,57,-1,-1,-1,-1,-1,-1,-1,-1,-1,-1,-1,-1,-1,-1,-1,-1,-1,-1,-1,-1,-1,-1,-1,-1,-1,-1,-1,-1],"loss_changes":[6.694504E3,3.0868662E3,1.0345693E3,8.884985E1,1.1150642E3,3.1444244E2,2.0006836E2,4.5145508E1,8.156391E1,4.7686914E2,3.7916724E2,1.2474977E2,4.527771E1,1.068313E2,3.484668E1,4.412085E1,0E0,1.3748199E1,0E0,1.7309521E2,1.7767896E2,1.1723285E2,1.0650404E2,4.2982403E1,3.9347E1,2.5699036E1,1.5035156E1,3.5497253E1,3.1799927E1,2.3040405E1,4.675293E0,0E0,0E0,0E0,0E0,0E0,0E0,0E0,0E0,0E0,0E0,0E0,0E0,0E0,0E0,0E0,0E0,0E0,0E0,0E0,0E0,0E0,0E0,0E0,0E0,0E0,0E0,0E0,0E0],"parents":[2147483647,0,0,1,1,2,2,3,3,4,4,5,5,6,6,7,7,8,8,9,9,10,10,11,11,12,12,13,13,14,14,15,15,17,17,19,19,20,20,21,21,22,22,23,23,24,24,25,25,26,26,27,27,28,28,29,29,30,30],"right_children":[2,4,6,8,10,12,14,16,18,20,22,24,26,28,30,32,-1,34,-1,36,38,40,42,44,46,48,50,52,54,56,58,-1,-1,-1,-1,-1,-1,-1,-1,-1,-1,-1,-1,-1,-1,-1,-1,-1,-1,-1,-1,-1,-1,-1,-1,-1,-1,-1,-1],"split_conditions":[1.968E1,1.032E1,2.074E1,1.897E1,1.855E1,2.06E1,2.56E1,1.972E1,1.669E1,2.06E1,1.961E1,1.975E1,2.56E1,2.105E1,2.205E1,1.563E1,-2.902864E-2,1.905E1,-3.197679E-1,1.772E1,1.829E1,1.85E1,2.095E1,1.936E1,2.61E1,2.542E1,2.181E1,2.087E1,2.56E1,2.212E1,2.292E1,-2.909416E-1,-9.121152E-2,8.114007E-2,-5.003789E-2,-1.1449422E-1,-4.694369E-2,-3.026305E-2,-1.5467594E-2,-1.8475449E-2,-5.3100255E-3,7.125323E-3,3.578488E-2,-5.811786E-3,8.282371E-3,1.556959E-2,3.975786E-2,2.4156842E-2,4.067717E-2,4.0325005E-2,5.9147645E-2,2.4536002E-2,3.8670857E-2,4.1828092E-2,5.6643076E-2,4.8312884E-2,6.2402416E-2,6.2327243E-2,7.122642E-2],"split_indices":[2,15,14,12,1,4,15,4,4,15,13,13,15,1,1,2,0,12,0,15,7,12,4,1,24,22,12,7,19,13,1,0,0,0,0,0,0,0,0,0,0,0,0,0,0,0,0,0,0,0,0,0,0,0,0,0,0,0,0],"split_type":[0,0,0,0,0,0,0,0,0,0,0,0,0,0,0,0,0,0,0,0,0,0,0,0,0,0,0,0,0,0,0,0,0,0,0,0,0,0,0,0,0,0,0,0,0,0,0,0,0,0,0,0,0,0,0,0,0,0,0],"sum_hessian":[3.1531E4,2.0313E4,1.1218E4,1.21E2,2.0192E4,5.728E3,5.49E3,1.12E2,9E0,9.975E3,1.0217E4,4.022E3,1.706E3,3.333E3,2.157E3,1.1E2,2E0,7E0,2E0,1.819E3,8.156E3,7.12E3,3.097E3,2.194E3,1.828E3,1.199E3,5.07E2,1.832E3,1.501E3,1.342E3,8.15E2,1.06E2,4E0,2E0,5E0,1E2,1.719E3,3.822E3,4.334E3,2.764E3,4.356E3,2.73E3,3.67E2,1.23E3,9.64E2,1.641E3,1.87E2,8.72E2,3.27E2,3.41E2,1.66E2,1.049E3,7.83E2,8.15E2,6.86E2,8.77E2,4.65E2,4.32E2,3.83E2],"tree_param":{"num_deleted":"0","num_feature":"30","num_nodes":"59","size_leaf_vector":"1"}},{"base_weights":[-2.453916E-3,-3.2002777E-1,6.0095125E-1,-5.1530924E0,-2.9107168E-1,3.5510916E-1,9.43267E-1,-5.40235E0,-1.3955684E0,-5.902529E-1,-1.19974285E-1,1.9340454E-1,6.4451015E-1,8.1674093E-1,1.1420918E0,-5.0834227E0,-4.1213724E-1,5.076494E-1,-2.4317856E0,-1.0006299E0,-4.9179786E-1,-2.2596253E-1,2.0188996E-1,-2.4613477E-2,3.1873217E-1,5.2864283E-1,8.8855267E-1,7.1793544E-1,1.0441976E0,1.0702162E0,1.320296E0,-2.5967968E-1,2.1515196E-2,3.7419654E-2,8.89686E-3,-1.8113999E-1,-1.6585508E-3,-1.0314997E-1,-4.5142915E-2,-3.2229923E-2,-1.7307956E-2,-1.8021634E-2,-4.9897963E-3,3.8455443E-3,2.6913125E-2,-1.17880896E-1,-2.7953117E-4,1.4133856E-2,4.063082E-2,2.1929378E-2,3.652185E-2,3.9573256E-2,5.5698913E-2,3.206432E-2,4.9298182E-2,4.5979403E-2,5.891611E-2,4.694521E-2,5.8194067E-2,8.183543E-3,6.6229336E-2],"categories":[],"categories_nodes":[],"categories_segments":[],"categories_sizes":[],"default_left":[1,0,0,1,1,0,0,1,0,1,1,0,0,0,1,0,0,0,0,0,1,1,0,0,0,0,0,1,0,0,0,0,0,0,0,0,0,0,0,0,0,0,0,0,0,0,0,0,0,0,0,0,0,0,0,0,0,0,0,0,0],"id":14,"left_children":[1,3,5,7,9,11,13,15,17,19,21,23,25,27,29,31,-1,33,35,37,39,41,43,45,47,49,51,53,55,57,59,-1,-1,-1,-1,-1,-1,-1,-1,-1,-1,-1,-1,-1,-1,-1,-1,-1,-1,-1,-1,-1,-1,-1,-1,-1,-1,-1,-1,-1,-1],"loss_changes":[6.043492E3,2.890217E3,9.148572E2,1.0766138E2,1.051405E3,2.9615015E2,1.13403564E2,6.2274902E1,1.8983814E1,3.0144434E2,4.4587924E2,1.1102397E2,6.368976E1,6.175049E1,2.1194092E1,6.662427E1,0E0,1.843375E-1,1.7020535E1,1.4822888E2,1.3394421E2,1.6677023E2,1.3608257E2,6.5847336E1,4.5712402E1,2.7683655E1,1.5073242E1,3.9264404E1,1.2955566E1,1.4441284E1,2.279419E0,0E0,0E0,0E0,0E0,0E0,0E0,0E0,0E0,0E0,0E0,0E0,0E0,0E0,0E0,0E0,0E0,0E0,0E0,0E0,0E0,0E0,0E0,0E0,0E0,0E0,0E0,0E0,0E0,0E0,0E0],"parents":[2147483647,0,0,1,1,2,2,3,3,4,4,5,5,6,6,7,7,8,8,9,9,10,10,11,11,12,12,13,13,14,14,15,15,17,17,18,18,19,19,20,20,21,21,22,22,23,23,24,24,25,25,26,26,27,27,28,28,29,29,30,30],"right_children":[2,4,6,8,10,12,14,16,18,20,22,24,26,28,30,32,-1,34,36,38,40,42,44,46,48,50,52,54,56,58,60,-1,-1,-1,-1,-1,-1,-1,-1,-1,-1,-1,-1,-1,-1,-1,-1,-1,-1,-1,-1,-1,-1,-1,-1,-1,-1,-1,-1,-1,-1],"split_conditions":[1.98E1,8.2E0,2.082E1,1.887E1,1.822E1,2.048E1,2.6E1,1.822E1,8E0,1.695E1,1.963E1,1.912E1,2.542E1,2.657E1,2.251E1,1.87E1,-4.1213724E-1,1.672E1,1.493E1,1.486E1,1.82E1,1.866E1,2.017E1,1.486E1,2.657E1,2.104E1,2.192E1,2.19E1,2.19E1,2.135E1,2.081E1,-2.5967968E-1,2.1515196E-2,3.7419654E-2,8.89686E-3,-1.8113999E-1,-1.6585508E-3,-1.0314997E-1,-4.5142915E-2,-3.2229923E-2,-1.7307956E-2,-1.8021634E-2,-4.9897963E-3,3.8455443E-3,2.6913125E-2,-1.17880896E-1,-2.7953117E-4,1.4133856E-2,4.063082E-2,2.1929378E-2,3.652185E-2,3.9573256E-2,5.5698913E-2,3.206432E-2,4.9298182E-2,4.5979403E-2,5.891611E-2,4.694521E-2,5.8194067E-2,8.183543E-3,6.6229336E-2],"split_indices":[10,0,0,10,0,5,16,10,3,0,12,0,22,28,11,12,0,8,3,0,8,5,3,0,21,3,8,5,0,3,22,0,0,0,0,0,0,0,0,0,0,0,0,0,0,0,0,0,0,0,0,0,0,0,0,0,0,0,0,0,0],"split_type":[0,0,0,0,0,0,0,0,0,0,0,0,0,0,0,0,0,0,0,0,0,0,0,0,0,0,0,0,0,0,0,0,0,0,0,0,0,0,0,0,0,0,0,0,0,0,0,0,0,0,0,0,0,0,0,0,0,0,0,0,0],"sum_hessian":[3.1536E4,2.0662E4,1.0874E4,1.22E2,2.054E4,6.33E3,4.544E3,1.14E2,8E0,7.472E3,1.3068E4,4.062E3,2.268E3,2.78E3,1.764E3,1.05E2,9E0,3E0,5E0,1.444E3,6.028E3,9.831E3,3.237E3,1.483E3,2.579E3,1.54E3,7.28E2,1.941E3,8.39E2,1.262E3,5.02E2,1.03E2,2E0,1E0,2E0,3E0,2E0,1.2E2,1.324E3,2.94E3,3.088E3,4.758E3,5.073E3,2.361E3,8.76E2,1.1E1,1.472E3,2.405E3,1.74E2,1.067E3,4.73E2,5.12E2,2.16E2,1.512E3,4.29E2,4.39E2,4E2,5.3E2,7.32E2,2E0,5E2],"tree_param":{"num_deleted":"0","num_feature":"30","num_nodes":"61","size_leaf_vector":"1"}},{"base_weights":[-3.0877683E-3,-2.9057497E-1,5.991841E-1,-3.742944E0,-2.5083232E-1,2.9116252E-1,8.2145774E-1,-5.0245094E0,-2.388079E0,-4.8479196E-1,-4.9271278E-2,1.6987224E-1,6.071871E-1,7.028461E-1,1.064507E0,-5.1280518E0,8.955628E-1,-1.2916114E0,-4.3469825E0,-6.9975877E-1,-3.542324E-1,-1.611063E-1,2.627937E-1,-3.63251E0,1.7960179E-1,5.064356E-1,1.005984E0,5.8101594E-1,9.0759814E-1,9.8771286E-1,1.2138063E0,-2.631662E-1,-4.4148333E-2,5.8657434E-2,8.509779E-3,-5.8316793E-2,-2.0382424E-1,-6.657452E-2,-2.8046566E-1,-4.7580764E-2,-2.9195938E-2,-2.4027659E-2,-1.1794713E-2,-1.42952865E-2,-1.7777606E-3,4.653062E-3,2.5591714E-2,-3.6170018E-1,-1.240654E-3,8.401723E-4,1.465358E-2,2.0249924E-2,3.9259553E-2,2.597252E-2,5.313341E-2,2.5711168E-2,4.2695303E-2,3.956337E-2,5.3118892E-2,4.4936E-2,5.699126E-2,5.756525E-2,6.790018E-2],"categories":[],"categories_nodes":[],"categories_segments":[],"categories_sizes":[],"default_left":[1,0,0,0,1,0,0,1,0,0,0,0,0,0,0,0,0,1,0,1,1,1,0,0,0,1,1,0,0,1,0,0,0,0,0,0,0,0,0,0,0,0,0,0,0,0,0,0,0,0,0,0,0,0,0,0,0,0,0,0,0,0,0],"id":15,"left_children":[1,3,5,7,9,11,13,15,17,19,21,23,25,27,29,31,33,35,37,39,41,43,45,47,49,51,53,55,57,59,61,-1,-1,-1,-1,-1,-1,-1,-1,-1,-1,-1,-1,-1,-1,-1,-1,-1,-1,-1,-1,-1,-1,-1,-1,-1,-1,-1,-1,-1,-1,-1,-1],"loss_changes":[5.5082773E3,2.9536611E3,7.035132E2,4.1340625E2,1.0039518E3,1.651023E2,1.7135791E2,8.12146E1,2.5427814E2,2.7628613E2,3.9922617E2,1.1593035E2,4.7504883E1,9.962659E1,2.122705E1,6.598462E1,4.0439034E-1,2.2806732E1,1.5621277E2,1.08033936E2,9.155127E1,1.3193599E2,1.2752406E2,1.0376528E2,5.7426697E1,2.6714005E1,6.0668945E0,4.5493042E1,2.6095947E1,1.6533081E1,4.3847656E0,0E0,0E0,0E0,0E0,0E0,0E0,0E0,0E0,0E0,0E0,0E0,0E0,0E0,0E0,0E0,0E0,0E0,0E0,0E0,0E0,0E0,0E0,0E0,0E0,0E0,0E0,0E0,0E0,0E0,0E0,0E0,0E0],"parents":[2147483647,0,0,1,1,2,2,3,3,4,4,5,5,6,6,7,7,8,8,9,9,10,10,11,11,12,12,13,13,14,14,15,15,16,16,17,17,18,18,19,19,20,20,21,21,22,22,23,23,24,24,25,25,26,26,27,27,28,28,29,29,30,30],"right_children":[2,4,6,8,10,12,14,16,18,20,22,24,26,28,30,32,34,36,38,40,42,44,46,48,50,52,54,56,58,60,62,-1,-1,-1,-1,-1,-1,-1,-1,-1,-1,-1,-1,-1,-1,-1,-1,-1,-1,-1,-1,-1,-1,-1,-1,-1,-1,-1,-1,-1,-1,-1,-1],"split_conditions":[1.996E1,1.486E1,2.027E1,8.2E0,1.855E1,2.06E1,2.182E1,2.391E1,1.724E1,2.141E1,1.967E1,1.486E1,2.667E1,2.135E1,2.236E1,1.888E1,7.96E0,2.086E1,2.083E1,1.735E1,1.844E1,1.884E1,2E1,2.261E1,1.926E1,2.139E1,1.99E1,2.61E1,2.64E1,2.205E1,2.353E1,-2.631662E-1,-4.4148333E-2,5.8657434E-2,8.509779E-3,-5.8316793E-2,-2.0382424E-1,-6.657452E-2,-2.8046566E-1,-4.7580764E-2,-2.9195938E-2,-2.4027659E-2,-1.1794713E-2,-1.42952865E-2,-1.7777606E-3,4.653062E-3,2.5591714E-2,-3.6170018E-1,-1.240654E-3,8.401723E-4,1.465358E-2,2.0249924E-2,3.9259553E-2,2.597252E-2,5.313341E-2,2.5711168E-2,4.2695303E-2,3.956337E-2,5.3118892E-2,4.4936E-2,5.699126E-2,5.756525E-2,6.790018E-2],"split_indices":[13,0,0,0,6,4,6,29,10,17,0,0,24,3,0,3,4,17,27,0,11,9,11,26,1,10,10,17,29,9,0,0,0,0,0,0,0,0,0,0,0,0,0,0,0,0,0,0,0,0,0,0,0,0,0,0,0,0,0,0,0,0,0],"split_type":[0,0,0,0,0,0,0,0,0,0,0,0,0,0,0,0,0,0,0,0,0,0,0,0,0,0,0,0,0,0,0,0,0,0,0,0,0,0,0,0,0,0,0,0,0,0,0,0,0,0,0,0,0,0,0,0,0,0,0,0,0,0,0],"sum_hessian":[3.1811E4,2.1533E4,1.0278E4,2.44E2,2.1289E4,4.309E3,5.969E3,1.24E2,1.2E2,9.852E3,1.1437E4,3.115E3,1.194E3,4.014E3,1.955E3,1.22E2,2E0,7.8E1,4.2E1,3.721E3,6.131E3,8.42E3,3.017E3,7E0,3.108E3,9.55E2,2.39E2,2.519E3,1.495E3,1.296E3,6.59E2,1.18E2,4E0,1E0,1E0,7.6E1,2E0,1.3E1,2.9E1,1.17E3,2.551E3,2.964E3,3.167E3,4.222E3,4.198E3,1.795E3,1.222E3,3E0,4E0,1.277E3,1.831E3,7.02E2,2.53E2,2.6E1,2.13E2,2.026E3,4.93E2,8.57E2,6.38E2,8.22E2,4.74E2,4.66E2,1.93E2],"tree_param":{"num_deleted":"0","num_feature":"30","num_nodes":"63","size_leaf_vector":"1"}},{"base_weights":[4.7495784E-3,-2.947103E-1,5.3854954E-1,-4.893549E0,-2.6783654E-1,3.0062935E-1,8.304183E-1,-4.988017E0,-9.541991E-1,-5.386882E-1,-1.0694114E-1,1.6240974E-1,6.0398304E-1,6.8603307E-1,9.91166E-1,-4.2537155E0,-5.6128845E0,-2.2037976E0,6.986492E-2,-8.475082E-1,-4.330475E-1,-2.362017E-1,1.11284114E-1,-1.9265944E-2,2.821611E-1,4.8632497E-1,8.521403E-1,5.6958413E-1,8.561984E-1,8.844043E-1,1.1351141E0,-2.24853E-1,4.742974E-3,5.875008E-2,-2.875088E-1,-1.3100865E-1,-3.4276176E-2,-6.766609E-2,-3.652815E-2,-2.7025927E-2,-1.3804989E-2,-2.047838E-2,-8.047483E-3,-2.1114208E-4,1.697293E-2,-1.5912388E-1,-5.00817E-4,1.1171964E-2,2.5298884E-2,2.0146685E-2,3.7277516E-2,3.524632E-2,4.888346E-2,2.3967676E-2,3.5963614E-2,3.8470745E-2,5.2211046E-2,4.0074352E-2,5.282826E-2,5.032869E-2,5.9780665E-2],"categories":[],"categories_nodes":[],"categories_segments":[],"categories_sizes":[],"default_left":[1,0,0,0,1,0,0,0,1,0,1,0,0,0,0,1,0,0,0,0,1,1,0,0,0,0,0,0,0,0,0,0,0,0,0,0,0,0,0,0,0,0,0,0,0,0,0,0,0,0,0,0,0,0,0,0,0,0,0,0,0],"id":16,"left_children":[1,3,5,7,9,11,13,15,17,19,21,23,25,27,29,31,33,35,-1,37,39,41,43,45,47,49,51,53,55,57,59,-1,-1,-1,-1,-1,-1,-1,-1,-1,-1,-1,-1,-1,-1,-1,-1,-1,-1,-1,-1,-1,-1,-1,-1,-1,-1,-1,-1,-1,-1],"loss_changes":[5.070654E3,2.5101235E3,7.9138354E2,3.9153564E1,8.804082E2,2.6330255E2,1.1812964E2,2.8891113E1,1.4833075E1,2.4525879E2,3.575899E2,9.392569E1,5.6988342E1,5.3014282E1,3.618701E1,6.074402E1,6.1739624E1,1.00325584E-1,0E0,1.124657E2,9.4510376E1,1.0379437E2,1.24295105E2,5.0175632E1,3.4084824E1,2.8580048E1,1.0971405E1,2.1346558E1,1.7063904E1,1.9052612E1,6.783081E0,0E0,0E0,0E0,0E0,0E0,0E0,0E0,0E0,0E0,0E0,0E0,0E0,0E0,0E0,0E0,0E0,0E0,0E0,0E0,0E0,0E0,0E0,0E0,0E0,0E0,0E0,0E0,0E0,0E0,0E0],"parents":[2147483647,0,0,1,1,2,2,3,3,4,4,5,5,6,6,7,7,8,8,9,9,10,10,11,11,12,12,13,13,14,14,15,15,16,16,17,17,19,19,20,20,21,21,22,22,23,23,24,24,25,25,26,26,27,27,28,28,29,29,30,30],"right_children":[2,4,6,8,10,12,14,16,18,20,22,24,26,28,30,32,34,36,-1,38,40,42,44,46,48,50,52,54,56,58,60,-1,-1,-1,-1,-1,-1,-1,-1,-1,-1,-1,-1,-1,-1,-1,-1,-1,-1,-1,-1,-1,-1,-1,-1,-1,-1,-1,-1,-1,-1],"split_conditions":[1.972E1,8.2E0,2.072E1,1.888E1,1.824E1,2.048E1,2.138E1,8.38E0,1.888E1,1.739E1,1.924E1,1.925E1,2.559E1,2.131E1,2.64E1,8E0,1.027E1,8.2E0,6.986492E-2,1.634E1,1.85E1,1.815E1,1.986E1,1.56E1,2.495E1,2.56E1,2.105E1,2.511E1,2.69E1,2.69E1,2.559E1,-2.24853E-1,4.742974E-3,5.875008E-2,-2.875088E-1,-1.3100865E-1,-3.4276176E-2,-6.766609E-2,-3.652815E-2,-2.7025927E-2,-1.3804989E-2,-2.047838E-2,-8.047483E-3,-2.1114208E-4,1.697293E-2,-1.5912388E-1,-5.00817E-4,1.1171964E-2,2.5298884E-2,2.0146685E-2,3.7277516E-2,3.524632E-2,4.888346E-2,2.3967676E-2,3.5963614E-2,3.8470745E-2,5.2211046E-2,4.0074352E-2,5.282826E-2,5.032869E-2,5.9780665E-2],"split_indices":[6,0,2,3,0,0,4,11,11,2,11,1,23,5,18,8,27,1,0,0,5,3,8,1,26,24,1,24,23,24,23,0,0,0,0,0,0,0,0,0,0,0,0,0,0,0,0,0,0,0,0,0,0,0,0,0,0,0,0,0,0],"split_type":[0,0,0,0,0,0,0,0,0,0,0,0,0,0,0,0,0,0,0,0,0,0,0,0,0,0,0,0,0,0,0,0,0,0,0,0,0,0,0,0,0,0,0,0,0,0,0,0,0,0,0,0,0,0,0,0,0,0,0,0,0],"sum_hessian":[3.1719E4,2.032E4,1.1399E4,1.17E2,2.0203E4,6.281E3,5.118E3,1.14E2,3E0,7.528E3,1.2675E4,4.316E3,1.965E3,2.699E3,2.419E3,5.6E1,5.8E1,2E0,1E0,1.917E3,5.611E3,7.96E3,4.715E3,1.715E3,2.601E3,1.335E3,6.3E2,1.605E3,1.094E3,1.393E3,1.026E3,5.3E1,3E0,1E0,5.7E1,1E0,1E0,3.58E2,1.559E3,3.329E3,2.282E3,2.408E3,5.552E3,3.131E3,1.584E3,4E0,1.711E3,2.062E3,5.39E2,1.012E3,3.23E2,2.93E2,3.37E2,1.004E3,6.01E2,7.52E2,3.42E2,9.44E2,4.49E2,3.34E2,6.92E2],"tree_param":{"num_deleted":"0","num_feature":"30","num_nodes":"61","size_leaf_vector":"1"}},{"base_weights":[-7.7509845E-4,-2.7809957E-1,5.21916E-1,-4.7533264E0,-2.5445384E-1,2.9967222E-1,8.113749E-1,-5.081018E0,-2.2051811E-2,-4.761246E-1,-6.9808014E-2,1.17550075E-1,5.208297E-1,6.624576E-1,9.568431E-1,-5.2765007E0,-2.7244815E-1,6.7113465E-1,-7.0053704E-2,-9.5329845E-1,-4.028819E-1,-2.0517199E-1,1.23605326E-1,-2.798505E-2,2.752826E-1,4.1314578E-1,7.556622E-1,5.925012E-1,9.379245E-1,8.8430494E-1,1.125944E0,-2.7076086E-1,-3.487767E-2,-5.1087152E-2,6.811829E-2,-6.7372323E-4,5.084039E-2,-9.8394E-2,-4.21724E-2,-2.7213102E-2,-1.4564112E-2,-1.7282663E-2,-5.747215E-3,3.1754866E-3,2.4153888E-2,-1.128855E-2,2.2594149E-3,1.1568927E-2,3.248443E-2,1.8118948E-2,3.8360484E-2,3.2449145E-2,4.8598178E-2,2.4875386E-2,3.6330834E-2,4.016885E-2,5.1805444E-2,3.9969366E-2,5.0400414E-2,5.2919365E-2,6.1416607E-2],"categories":[],"categories_nodes":[],"categories_segments":[],"categories_sizes":[],"default_left":[0,0,1,0,1,1,0,0,0,1,1,1,0,0,0,0,0,0,0,1,1,0,0,1,0,0,0,0,1,1,1,0,0,0,0,0,0,0,0,0,0,0,0,0,0,0,0,0,0,0,0,0,0,0,0,0,0,0,0,0,0],"id":17,"left_children":[1,3,5,7,9,11,13,15,17,19,21,23,25,27,29,31,33,35,-1,37,39,41,43,45,47,49,51,53,55,57,59,-1,-1,-1,-1,-1,-1,-1,-1,-1,-1,-1,-1,-1,-1,-1,-1,-1,-1,-1,-1,-1,-1,-1,-1,-1,-1,-1,-1,-1,-1],"loss_changes":[4.5613E3,2.1743447E3,7.014734E2,1.673313E2,8.37079E2,2.4853253E2,1.0198242E2,9.3501465E1,8.5876665E0,3.2443677E2,2.921814E2,7.773544E1,7.016461E1,4.461487E1,2.8370117E1,5.783423E1,7.5167766E0,1.4336069E0,0E0,1.3609521E2,1.26996216E2,8.3173615E1,9.9233765E1,2.5511028E1,2.6561325E1,3.4107574E1,1.9559692E1,2.3487976E1,5.4161377E0,1.6841919E1,3.6455078E0,0E0,0E0,0E0,0E0,0E0,0E0,0E0,0E0,0E0,0E0,0E0,0E0,0E0,0E0,0E0,0E0,0E0,0E0,0E0,0E0,0E0,0E0,0E0,0E0,0E0,0E0,0E0,0E0,0E0,0E0],"parents":[2147483647,0,0,1,1,2,2,3,3,4,4,5,5,6,6,7,7,8,8,9,9,10,10,11,11,12,12,13,13,14,14,15,15,16,16,17,17,19,19,20,20,21,21,22,22,23,23,24,24,25,25,26,26,27,27,28,28,29,29,30,30],"right_children":[2,4,6,8,10,12,14,16,18,20,22,24,26,28,30,32,34,36,-1,38,40,42,44,46,48,50,52,54,56,58,60,-1,-1,-1,-1,-1,-1,-1,-1,-1,-1,-1,-1,-1,-1,-1,-1,-1,-1,-1,-1,-1,-1,-1,-1,-1,-1,-1,-1,-1,-1],"split_conditions":[1.972E1,8.2E0,2.089E1,1.872E1,1.85E1,2.016E1,2.139E1,1.87E1,2.326E1,1.7E1,1.927E1,1.951E1,2.125E1,2.198E1,2.89E1,2.278E1,1.641E1,8.2E0,-7.0053704E-2,1.486E1,1.817E1,1.847E1,2.056E1,1.863E1,2.61E1,2.74E1,2.176E1,2.13E1,2.137E1,2.196E1,2.235E1,-2.7076086E-1,-3.487767E-2,-5.1087152E-2,6.811829E-2,-6.7372323E-4,5.084039E-2,-9.8394E-2,-4.21724E-2,-2.7213102E-2,-1.4564112E-2,-1.7282663E-2,-5.747215E-3,3.1754866E-3,2.4153888E-2,-1.128855E-2,2.2594149E-3,1.1568927E-2,3.248443E-2,1.8118948E-2,3.8360484E-2,3.2449145E-2,4.8598178E-2,2.4875386E-2,3.6330834E-2,4.016885E-2,5.1805444E-2,3.9969366E-2,5.0400414E-2,5.2919365E-2,6.1416607E-2],"split_indices":[2,0,8,9,5,9,2,3,25,0,11,0,6,1,15,20,9,1,0,0,8,8,3,7,15,26,11,11,0,11,11,0,0,0,0,0,0,0,0,0,0,0,0,0,0,0,0,0,0,0,0,0,0,0,0,0,0,0,0,0,0],"split_type":[0,0,0,0,0,0,0,0,0,0,0,0,0,0,0,0,0,0,0,0,0,0,0,0,0,0,0,0,0,0,0,0,0,0,0,0,0,0,0,0,0,0,0,0,0,0,0,0,0,0,0,0,0,0,0,0,0,0,0,0,0],"sum_hessian":[3.1465E4,2.0558E4,1.0907E4,1.07E2,2.0451E4,6.171E3,4.736E3,1E2,7E0,9.293E3,1.1158E4,3.385E3,2.786E3,2.343E3,2.393E3,9.6E1,4E0,5E0,2E0,1.235E3,8.058E3,6.564E3,4.594E3,1.761E3,1.624E3,1.912E3,8.74E2,1.871E3,4.72E2,1.679E3,7.14E2,9.3E1,3E0,3E0,1E0,2E0,3E0,1.19E2,1.116E3,3.553E3,4.505E3,2.566E3,3.998E3,3.937E3,6.57E2,4.75E2,1.286E3,1.455E3,1.69E2,1.674E3,2.38E2,5.88E2,2.86E2,1.098E3,7.73E2,2.03E2,2.69E2,1E3,6.79E2,4.37E2,2.77E2],"tree_param":{"num_deleted":"0","num_feature":"30","num_nodes":"61","size_leaf_vector":"1"}},{"base_weights":[-2.317601E-3,-2.7608162E-1,4.9106407E-1,-3.317106E0,-2.388531E-1,2.2538553E-1,6.983097E-1,-4.3478885E0,-2.1985517E0,-4.156379E-1,-3.575935E-2,1.0374701E-1,4.7922128E-1,5.608324E-1,8.890134E-1,-4.4341707E0,3.4824863E-2,-1.4176648E0,-4.600036E0,-6.7422414E-1,-3.30372E-1,-1.3066182E-1,2.014392E-1,-2.38235E-2,2.157962E-1,3.9602977E-1,7.737569E-1,4.27498E-1,7.2490096E-1,7.970452E-1,1.0180975E0,-2.2800763E-1,-2.4929086E-2,-8.3507314E-2,4.0984903E-2,-4.6191618E-1,-1.0254456E-1,-4.6732645E-2,-2.969692E-2,-2.418184E-2,-1.2334429E-2,-1.5975213E-2,-3.1019354E-3,8.028379E-3,3.659649E-2,-6.7334E-3,4.192207E-3,7.872043E-3,2.125243E-2,1.5078681E-2,2.8544156E-2,3.3755463E-2,4.6952706E-2,1.7430997E-2,3.0094985E-2,3.12681E-2,4.3603417E-2,3.384889E-2,4.4948403E-2,4.583186E-2,5.4460455E-2],"categories":[],"categories_nodes":[],"categories_segments":[],"categories_sizes":[],"default_left":[1,0,0,0,1,0,0,0,1,1,0,0,0,0,0,1,0,1,0,0,1,0,0,1,0,0,1,0,0,0,0,0,0,0,0,0,0,0,0,0,0,0,0,0,0,0,0,0,0,0,0,0,0,0,0,0,0,0,0,0,0],"id":18,"left_children":[1,3,5,7,9,11,13,15,17,19,21,23,25,27,29,31,-1,33,35,37,39,41,43,45,47,49,51,53,55,57,59,-1,-1,-1,-1,-1,-1,-1,-1,-1,-1,-1,-1,-1,-1,-1,-1,-1,-1,-1,-1,-1,-1,-1,-1,-1,-1,-1,-1,-1,-1],"loss_changes":[4.273215E3,2.3027502E3,6.21478E2,2.740752E2,7.217251E2,1.527566E2,1.6577246E2,5.8364014E1,2.185133E2,2.367334E2,2.1063669E2,4.784774E1,3.897168E1,8.0368774E1,3.0707764E1,5.970288E1,0E0,5.333914E1,3.2393958E2,5.5145752E1,1.0356384E2,8.658487E1,5.786019E1,1.8700504E1,2.1693062E1,2.0505844E1,5.1058044E0,2.7812103E1,2.3654602E1,1.8420837E1,6.9453125E0,0E0,0E0,0E0,0E0,0E0,0E0,0E0,0E0,0E0,0E0,0E0,0E0,0E0,0E0,0E0,0E0,0E0,0E0,0E0,0E0,0E0,0E0,0E0,0E0,0E0,0E0,0E0,0E0,0E0,0E0],"parents":[2147483647,0,0,1,1,2,2,3,3,4,4,5,5,6,6,7,7,8,8,9,9,10,10,11,11,12,12,13,13,14,14,15,15,17,17,18,18,19,19,20,20,21,21,22,22,23,23,24,24,25,25,26,26,27,27,28,28,29,29,30,30],"right_children":[2,4,6,8,10,12,14,16,18,20,22,24,26,28,30,32,-1,34,36,38,40,42,44,46,48,50,52,54,56,58,60,-1,-1,-1,-1,-1,-1,-1,-1,-1,-1,-1,-1,-1,-1,-1,-1,-1,-1,-1,-1,-1,-1,-1,-1,-1,-1,-1,-1,-1,-1],"split_conditions":[1.969E1,1.486E1,2.041E1,8.2E0,1.874E1,2.029E1,2.553E1,2.136E1,2.106E1,1.757E1,1.974E1,1.937E1,2.64E1,2.47E1,2.188E1,2.391E1,3.4824863E-2,1.852E1,2.139E1,1.696E1,1.805E1,1.82E1,2.648E1,2.269E1,2.438E1,2.47E1,2.188E1,2.478E1,2.555E1,2.128E1,2.61E1,-2.2800763E-1,-2.4929086E-2,-8.3507314E-2,4.0984903E-2,-4.6191618E-1,-1.0254456E-1,-4.6732645E-2,-2.969692E-2,-2.418184E-2,-1.2334429E-2,-1.5975213E-2,-3.1019354E-3,8.028379E-3,3.659649E-2,-6.7334E-3,4.192207E-3,7.872043E-3,2.125243E-2,1.5078681E-2,2.8544156E-2,3.3755463E-2,4.6952706E-2,1.7430997E-2,3.0094985E-2,3.12681E-2,4.3603417E-2,3.384889E-2,4.4948403E-2,4.583186E-2,5.4460455E-2],"split_indices":[3,0,11,0,13,0,19,18,19,0,11,2,29,16,2,29,0,13,26,2,11,2,25,25,16,23,6,15,15,10,18,0,0,0,0,0,0,0,0,0,0,0,0,0,0,0,0,0,0,0,0,0,0,0,0,0,0,0,0,0,0],"split_type":[0,0,0,0,0,0,0,0,0,0,0,0,0,0,0,0,0,0,0,0,0,0,0,0,0,0,0,0,0,0,0,0,0,0,0,0,0,0,0,0,0,0,0,0,0,0,0,0,0,0,0,0,0,0,0,0,0,0,0,0,0],"sum_hessian":[3.1635E4,2.0346E4,1.1289E4,2.45E2,2.0101E4,4.948E3,6.341E3,1.26E2,1.19E2,1.0746E4,9.355E3,3.346E3,1.602E3,3.687E3,2.654E3,1.24E2,2E0,9.1E1,2.8E1,2.663E3,8.083E3,6.682E3,2.673E3,1.565E3,1.781E3,1.251E3,3.51E2,2.036E3,1.651E3,1.554E3,1.1E3,1.2E2,4E0,8.2E1,9E0,9E0,1.9E1,6.25E2,2.038E3,2.853E3,5.23E3,1.78E3,4.902E3,2.483E3,1.9E2,7.71E2,7.94E2,1.394E3,3.87E2,8.14E2,4.37E2,2.23E2,1.28E2,1.404E3,6.32E2,9.88E2,6.63E2,7.17E2,8.37E2,4.59E2,6.41E2],"tree_param":{"num_deleted":"0","num_feature":"30","num_nodes":"61","size_leaf_vector":"1"}},{"base_weights":[2.3789727E-3,-2.4731985E-1,4.9178004E-1,-3.8092442E0,-2.2472842E-1,2.6962018E-1,7.240483E-1,-4.048864E0,-8.0534804E-1,-4.2039016E-1,-5.2273378E-2,1.5854512E-1,5.2353466E-1,6.191072E-1,9.1601956E-1,-4.3484416E0,-1.6219814E0,6.567109E-1,-2.4615379E-1,-6.274383E-1,-2.937666E-1,-1.90592E-1,1.0965102E-1,-4.266113E-2,2.3802507E-1,4.4464839E-1,8.469353E-1,5.240928E-1,8.042803E-1,8.077647E-1,1.0088996E0,-2.2085221E-1,7.480097E-2,-1.3151573E-1,4.6037372E-2,-2.0145528E-2,5.0850928E-2,-4.2207528E-2,-2.5261644E-2,-1.974648E-2,-8.66263E-3,-1.7113771E-2,-5.7360735E-3,2.5915932E-3,2.4430549E-2,-1.15560256E-1,-1.3904041E-3,1.0054504E-2,2.6587507E-2,1.8844184E-2,3.3051744E-2,3.3687048E-2,5.033807E-2,2.1738471E-2,3.2882098E-2,3.596931E-2,4.859815E-2,3.6432013E-2,4.739296E-2,4.794276E-2,5.587333E-2],"categories":[],"categories_nodes":[],"categories_segments":[],"categories_sizes":[],"default_left":[1,0,0,1,1,0,0,0,0,1,0,0,0,0,0,0,0,0,0,0,1,0,0,0,0,0,1,1,0,0,0,0,0,0,0,0,0,0,0,0,0,0,0,0,0,0,0,0,0,0,0,0,0,0,0,0,0,0,0,0,0],"id":19,"left_children":[1,3,5,7,9,11,13,15,17,19,21,23,25,27,29,31,33,35,-1,37,39,41,43,45,47,49,51,53,55,57,59,-1,-1,-1,-1,-1,-1,-1,-1,-1,-1,-1,-1,-1,-1,-1,-1,-1,-1,-1,-1,-1,-1,-1,-1,-1,-1,-1,-1,-1,-1],"loss_changes":[3.8671094E3,1.6852906E3,5.514678E2,9.175183E1,7.0260535E2,1.5407764E2,1.04714355E2,8.164575E1,6.945701E1,2.5556421E2,2.4793507E2,6.08432E1,4.2049652E1,5.9081787E1,1.7735962E1,4.9910156E1,4.088061E1,3.8458753E0,0E0,9.758862E1,7.3751465E1,6.86653E1,1.1172152E2,3.6258724E1,2.947757E1,1.9385101E1,8.318024E0,2.6411255E1,1.5600098E1,8.809143E0,4.30188E0,0E0,0E0,0E0,0E0,0E0,0E0,0E0,0E0,0E0,0E0,0E0,0E0,0E0,0E0,0E0,0E0,0E0,0E0,0E0,0E0,0E0,0E0,0E0,0E0,0E0,0E0,0E0,0E0,0E0,0E0],"parents":[2147483647,0,0,1,1,2,2,3,3,4,4,5,5,6,6,7,7,8,8,9,9,10,10,11,11,12,12,13,13,14,14,15,15,16,16,17,17,19,19,20,20,21,21,22,22,23,23,24,24,25,25,26,26,27,27,28,28,29,29,30,30],"right_children":[2,4,6,8,10,12,14,16,18,20,22,24,26,28,30,32,34,36,-1,38,40,42,44,46,48,50,52,54,56,58,60,-1,-1,-1,-1,-1,-1,-1,-1,-1,-1,-1,-1,-1,-1,-1,-1,-1,-1,-1,-1,-1,-1,-1,-1,-1,-1,-1,-1,-1,-1],"split_conditions":[1.984E1,8.32E0,2.06E1,1.887E1,1.854E1,2.044E1,2.179E1,8.2E0,2.193E1,1.79E1,1.905E1,1.902E1,2.657E1,2.61E1,2.588E1,2.282E1,1.06E1,1.505E1,-2.4615379E-1,1.736E1,1.855E1,1.829E1,2.075E1,1.56E1,2.57E1,2.57E1,2.145E1,2.126E1,2.199E1,2.657E1,2.269E1,-2.2085221E-1,7.480097E-2,-1.3151573E-1,4.6037372E-2,-2.0145528E-2,5.0850928E-2,-4.2207528E-2,-2.5261644E-2,-1.974648E-2,-8.66263E-3,-1.7113771E-2,-5.7360735E-3,2.5915932E-3,2.4430549E-2,-1.15560256E-1,-1.3904041E-3,1.0054504E-2,2.6587507E-2,1.8844184E-2,3.3051744E-2,3.3687048E-2,5.033807E-2,2.1738471E-2,3.2882098E-2,3.596931E-2,4.859815E-2,3.6432013E-2,4.739296E-2,4.794276E-2,5.587333E-2],"split_indices":[10,2,2,12,9,1,4,1,23,1,1,4,21,28,18,25,25,10,0,2,4,6,9,1,28,23,9,9,6,20,9,0,0,0,0,0,0,0,0,0,0,0,0,0,0,0,0,0,0,0,0,0,0,0,0,0,0,0,0,0,0],"split_type":[0,0,0,0,0,0,0,0,0,0,0,0,0,0,0,0,0,0,0,0,0,0,0,0,0,0,0,0,0,0,0,0,0,0,0,0,0,0,0,0,0,0,0,0,0,0,0,0,0,0,0,0,0,0,0,0,0,0,0,0,0],"sum_hessian":[3.1643E4,2.0953E4,1.069E4,1.31E2,2.0822E4,5.465E3,5.225E3,1.21E2,1E1,9.754E3,1.1068E4,3.803E3,1.662E3,3.381E3,1.844E3,1.07E2,1.4E1,8E0,2E0,3.7E3,6.054E3,5.969E3,5.099E3,1.077E3,2.726E3,1.338E3,3.24E2,2.237E3,1.144E3,8.56E2,9.88E2,1.06E2,1E0,1E1,4E0,2E0,6E0,1.332E3,2.368E3,3.29E3,2.764E3,1.989E3,3.98E3,4.425E3,6.74E2,6E0,1.071E3,2.423E3,3.03E2,1.021E3,3.17E2,1.58E2,1.66E2,1.343E3,8.94E2,7.63E2,3.81E2,5.51E2,3.05E2,6.83E2,3.05E2],"tree_param":{"num_deleted":"0","num_feature":"30","num_nodes":"61","size_leaf_vector":"1"}},{"base_weights":[-1.5001261E-3,-2.5201142E-1,4.4250208E-1,-3.220037E0,-2.3496506E-1,2.0683216E-1,6.4242965E-1,-3.3923278E0,4.7529998E-1,-4.8370865E-1,-1.0408732E-1,9.0370566E-2,3.9459434E-1,5.373433E-1,8.516249E-1,-3.472895E0,6.388645E-1,-1.5729764E-1,1.8287411E0,-9.649675E-1,-4.224714E-1,-2.2274868E-1,5.409712E-2,-5.0911482E-2,1.979426E-1,3.0788755E-1,6.5032774E-1,4.4786626E-1,7.379929E-1,7.7215964E-1,9.7685605E-1,-1.558426E-1,-2.6626694E-1,-2.2929406E-2,7.084425E-2,-7.206678E-4,1.1465665E-1,-5.4823738E-2,-2.4898691E-2,-3.1013673E-2,-1.682814E-2,-1.6870063E-2,-7.458693E-3,-9.2399167E-4,1.624215E-2,-8.2793824E-2,-2.0226452E-3,-2.6257855E-3,1.1907862E-2,1.3012287E-2,2.670275E-2,2.4918055E-2,3.838887E-2,1.85245E-2,3.1849843E-2,3.1808477E-2,4.271845E-2,3.439535E-2,4.465156E-2,4.3678373E-2,5.2459497E-2],"categories":[],"categories_nodes":[],"categories_segments":[],"categories_sizes":[],"default_left":[1,0,0,1,0,0,0,1,0,1,1,0,0,0,0,1,0,0,0,0,0,1,0,0,0,0,0,1,0,0,0,0,0,0,0,0,0,0,0,0,0,0,0,0,0,0,0,0,0,0,0,0,0,0,0,0,0,0,0,0,0],"id":20,"left_children":[1,3,5,7,9,11,13,15,17,19,21,23,25,27,29,31,33,-1,35,37,39,41,43,45,47,49,51,53,55,57,59,-1,-1,-1,-1,-1,-1,-1,-1,-1,-1,-1,-1,-1,-1,-1,-1,-1,-1,-1,-1,-1,-1,-1,-1,-1,-1,-1,-1,-1,-1],"loss_changes":[3.5061157E3,1.01881445E3,5.355862E2,7.4829834E1,6.522866E2,1.1411049E2,1.3476343E2,3.7944702E1,3.5160046E1,2.0317798E2,2.4648593E2,4.8993217E1,4.410309E1,7.32251E1,1.9696167E1,5.4633057E1,3.2112885E0,0E0,4.3127823E0,4.729474E1,1.0395764E2,6.3241547E1,1.1061534E2,2.3332226E1,1.8444435E1,1.5958908E1,8.630814E0,4.1266663E1,1.441095E1,1.223761E1,5.015625E0,0E0,0E0,0E0,0E0,0E0,0E0,0E0,0E0,0E0,0E0,0E0,0E0,0E0,0E0,0E0,0E0,0E0,0E0,0E0,0E0,0E0,0E0,0E0,0E0,0E0,0E0,0E0,0E0,0E0,0E0],"parents":[2147483647,0,0,1,1,2,2,3,3,4,4,5,5,6,6,7,7,8,8,9,9,10,10,11,11,12,12,13,13,14,14,15,15,16,16,18,18,19,19,20,20,21,21,22,22,23,23,24,24,25,25,26,26,27,27,28,28,29,29,30,30],"right_children":[2,4,6,8,10,12,14,16,18,20,22,24,26,28,30,32,34,-1,36,38,40,42,44,46,48,50,52,54,56,58,60,-1,-1,-1,-1,-1,-1,-1,-1,-1,-1,-1,-1,-1,-1,-1,-1,-1,-1,-1,-1,-1,-1,-1,-1,-1,-1,-1,-1,-1,-1],"split_conditions":[1.979E1,8.2E0,2.035E1,2.324E1,1.818E1,2.006E1,2.61E1,1.961E1,1.756E1,1.667E1,1.906E1,1.915E1,2.546E1,2.56E1,2.22E1,1.822E1,8E0,-1.5729764E-1,8E0,1.791E1,2.116E1,1.835E1,2.018E1,1.489E1,1.875E1,2.12E1,2.126E1,2.146E1,2.61E1,2.181E1,2.633E1,-1.558426E-1,-2.6626694E-1,-2.2929406E-2,7.084425E-2,-7.206678E-4,1.1465665E-1,-5.4823738E-2,-2.4898691E-2,-3.1013673E-2,-1.682814E-2,-1.6870063E-2,-7.458693E-3,-9.2399167E-4,1.624215E-2,-8.2793824E-2,-2.0226452E-3,-2.6257855E-3,1.1907862E-2,1.3012287E-2,2.670275E-2,2.4918055E-2,3.838887E-2,1.85245E-2,3.1849843E-2,3.1808477E-2,4.271845E-2,3.439535E-2,4.465156E-2,4.3678373E-2,5.2459497E-2],"split_indices":[14,1,4,28,2,3,16,14,12,1,12,2,24,17,14,12,3,0,7,3,26,7,7,1,12,1,14,7,28,12,22,0,0,0,0,0,0,0,0,0,0,0,0,0,0,0,0,0,0,0,0,0,0,0,0,0,0,0,0,0,0],"split_type":[0,0,0,0,0,0,0,0,0,0,0,0,0,0,0,0,0,0,0,0,0,0,0,0,0,0,0,0,0,0,0,0,0,0,0,0,0,0,0,0,0,0,0,0,0,0,0,0,0,0,0,0,0,0,0,0,0,0,0,0,0],"sum_hessian":[3.152E4,2.0151E4,1.1369E4,1.14E2,2.0037E4,5.219E3,6.15E3,1.09E2,5E0,6.907E3,1.313E4,3.222E3,1.997E3,4.096E3,2.054E3,1.07E2,2E0,1E0,4E0,7.78E2,6.129E3,7.502E3,5.628E3,1.393E3,1.829E3,1.493E3,5.04E2,2.835E3,1.261E3,1.261E3,7.93E2,9.2E1,1.5E1,1E0,1E0,1E0,3E0,6.06E2,1.72E2,1.854E3,4.275E3,2.931E3,4.571E3,4.439E3,1.189E3,8E0,1.385E3,2.53E2,1.576E3,1.235E3,2.58E2,2.22E2,2.82E2,2.014E3,8.21E2,6.76E2,5.85E2,7.47E2,5.14E2,3.32E2,4.61E2],"tree_param":{"num_deleted":"0","num_feature":"30","num_nodes":"61","size_leaf_vector":"1"}},{"base_weights":[-4.9020476E-3,-2.5696442E-1,4.0757743E-1,-4.060916E0,-2.331277E-1,2.0328118E-1,6.459109E-1,-4.2178965E0,-8.7939316E-1,-4.5077702E-1,-1.0369839E-1,4.9766604E-2,3.667553E-1,5.279222E-1,8.047759E-1,-3.6717513E0,-4.969166E0,1.8485563E-1,-1.8162215E-1,-8.854233E-1,-3.9025933E-1,-2.1817161E-1,5.7387404E-2,-3.1483328E0,5.938734E-2,3.010696E-1,6.8192667E-1,4.2335638E-1,6.9249046E-1,7.127545E-1,9.3396926E-1,-1.9516489E-1,1.4388677E-1,6.711359E-2,-2.5696242E-1,-1.6764058E-2,4.0837638E-2,-4.3204058E-2,-3.443106E-1,-2.6781503E-2,-1.4532886E-2,-1.8172543E-2,-7.637141E-3,-8.629363E-4,1.4578017E-2,9.1757916E-2,-2.7731404E-1,-6.4527313E-3,6.340069E-3,1.2902192E-2,2.6818186E-2,2.7845783E-2,4.3651238E-2,1.791361E-2,3.1421684E-2,3.0684683E-2,4.454445E-2,3.0224336E-2,4.0367365E-2,4.5093246E-2,5.7463974E-2],"categories":[],"categories_nodes":[],"categories_segments":[],"categories_sizes":[],"default_left":[1,0,0,1,1,0,0,1,0,1,1,0,0,1,0,1,0,0,0,1,1,1,0,0,0,0,0,0,0,1,0,0,0,0,0,0,0,0,0,0,0,0,0,0,0,0,0,0,0,0,0,0,0,0,0,0,0,0,0,0,0],"id":21,"left_children":[1,3,5,7,9,11,13,15,17,19,21,23,25,27,29,31,33,35,-1,37,39,41,43,45,47,49,51,53,55,57,59,-1,-1,-1,-1,-1,-1,-1,-1,-1,-1,-1,-1,-1,-1,-1,-1,-1,-1,-1,-1,-1,-1,-1,-1,-1,-1,-1,-1,-1,-1],"loss_changes":[3.2832866E3,1.7763479E3,5.830852E2,5.7222168E1,5.4870886E2,1.6187384E2,1.0319336E2,2.934961E1,2.1180988E1,1.9072522E2,2.2529411E2,1.0258313E2,6.446854E1,5.4342896E1,2.7319946E1,1.1890497E2,5.627771E1,2.2458797E0,0E0,1.0764752E2,9.219238E1,6.783237E1,8.873405E1,1.2967981E2,4.2179733E1,2.6051636E1,1.2366287E1,2.5721954E1,1.8713379E1,1.3634827E1,5.710022E0,0E0,0E0,0E0,0E0,0E0,0E0,0E0,0E0,0E0,0E0,0E0,0E0,0E0,0E0,0E0,0E0,0E0,0E0,0E0,0E0,0E0,0E0,0E0,0E0,0E0,0E0,0E0,0E0,0E0,0E0],"parents":[2147483647,0,0,1,1,2,2,3,3,4,4,5,5,6,6,7,7,8,8,9,9,10,10,11,11,12,12,13,13,14,14,15,15,16,16,17,17,19,19,20,20,21,21,22,22,23,23,24,24,25,25,26,26,27,27,28,28,29,29,30,30],"right_children":[2,4,6,8,10,12,14,16,18,20,22,24,26,28,30,32,34,36,-1,38,40,42,44,46,48,50,52,54,56,58,60,-1,-1,-1,-1,-1,-1,-1,-1,-1,-1,-1,-1,-1,-1,-1,-1,-1,-1,-1,-1,-1,-1,-1,-1,-1,-1,-1,-1,-1,-1],"split_conditions":[1.97E1,8.2E0,2.053E1,1.887E1,1.821E1,1.975E1,2.58E1,8.33E0,1.963E1,1.683E1,1.91E1,1.486E1,2.59E1,2.136E1,2.65E1,8E0,1.03E1,8.2E0,-1.8162215E-1,2.221E1,1.799E1,1.808E1,2.007E1,1.805E1,2.197E1,2.54E1,2.149E1,2.151E1,2.68E1,2.145E1,2.387E1,-1.9516489E-1,1.4388677E-1,6.711359E-2,-2.5696242E-1,-1.6764058E-2,4.0837638E-2,-4.3204058E-2,-3.443106E-1,-2.6781503E-2,-1.4532886E-2,-1.8172543E-2,-7.637141E-3,-8.629363E-4,1.4578017E-2,9.1757916E-2,-2.7731404E-1,-6.4527313E-3,6.340069E-3,1.2902192E-2,2.6818186E-2,2.7845783E-2,4.3651238E-2,1.791361E-2,3.1421684E-2,3.0684683E-2,4.454445E-2,3.0224336E-2,4.0367365E-2,4.5093246E-2,5.7463974E-2],"split_indices":[14,0,1,12,3,0,25,9,9,0,9,0,19,8,15,8,24,1,0,15,11,14,8,6,15,17,6,2,17,11,0,0,0,0,0,0,0,0,0,0,0,0,0,0,0,0,0,0,0,0,0,0,0,0,0,0,0,0,0,0,0],"split_type":[0,0,0,0,0,0,0,0,0,0,0,0,0,0,0,0,0,0,0,0,0,0,0,0,0,0,0,0,0,0,0,0,0,0,0,0,0,0,0,0,0,0,0,0,0,0,0,0,0,0,0,0,0,0,0,0,0,0,0,0,0],"sum_hessian":[3.1577E4,1.96E4,1.1977E4,1.21E2,1.9479E4,6.45E3,5.527E3,1.15E2,6E0,7.263E3,1.2216E4,3.327E3,3.123E3,3.174E3,2.353E3,7E1,4.5E1,5E0,1E0,8.86E2,6.377E3,7.141E3,5.075E3,9E0,3.318E3,2.586E3,5.37E2,1.943E3,1.231E3,1.378E3,9.75E2,6.8E1,2E0,1E0,4.4E1,3E0,2E0,8.84E2,2E0,2.591E3,3.786E3,2.216E3,4.925E3,3.849E3,1.226E3,3E0,6E0,8.74E2,2.444E3,2.188E3,3.98E2,3.27E2,2.1E2,1.477E3,4.66E2,8.84E2,3.47E2,6.46E2,7.32E2,8.53E2,1.22E2],"tree_param":{"num_deleted":"0","num_feature":"30","num_nodes":"61","size_leaf_vector":"1"}},{"base_weights":[-3.8328557E-4,-2.2145778E-1,4.1581264E-1,-2.8466022E0,-1.9191054E-1,2.3148464E-1,6.3301045E-1,-3.596907E0,-1.8697795E0,-3.668111E-1,-4.3366134E-2,1.3743407E-1,4.6915436E-1,5.3622454E-1,8.0587846E-1,-3.7386026E0,6.6486627E-1,-7.3269004E-1,-3.476748E0,-5.083085E-1,-2.3226243E-1,-1.1960171E-1,1.7287014E-1,-2.6718998E-2,2.3235828E-1,3.6807355E-1,6.511602E-1,4.5959675E-1,7.362798E-1,7.131896E-1,9.143664E-1,-1.9081078E-1,3.4486756E-2,-2.9362617E-2,8.476814E-2,-2.9822076E-2,-1.5840074E-1,-2.6473072E-1,-7.917389E-2,-3.9481845E-2,-2.2455573E-2,-1.707354E-2,-7.522513E-3,-1.1119727E-2,-1.5495722E-3,6.092468E-3,2.7021253E-2,-3.346121E-2,-2.0674219E-4,1.0103329E-2,2.8716324E-2,-1.3004534E-1,1.8660592E-2,2.9164424E-2,4.484401E-2,1.9896714E-2,3.0481566E-2,3.198118E-2,4.3266833E-2,2.8925711E-2,4.0183745E-2,4.0163133E-2,4.9238853E-2],"categories":[],"categories_nodes":[],"categories_segments":[],"categories_sizes":[],"default_left":[1,0,0,1,1,0,0,0,0,0,1,0,0,0,0,0,1,0,1,0,1,1,0,0,0,0,1,0,1,0,0,0,0,0,0,0,0,0,0,0,0,0,0,0,0,0,0,0,0,0,0,0,0,0,0,0,0,0,0,0,0,0,0],"id":22,"left_children":[1,3,5,7,9,11,13,15,17,19,21,23,25,27,29,31,33,35,37,39,41,43,45,47,49,51,53,55,57,59,61,-1,-1,-1,-1,-1,-1,-1,-1,-1,-1,-1,-1,-1,-1,-1,-1,-1,-1,-1,-1,-1,-1,-1,-1,-1,-1,-1,-1,-1,-1,-1,-1],"loss_changes":[2.912218E3,1.6028159E3,4.3944495E2,1.6184497E2,5.3107745E2,1.3273453E2,8.389307E1,8.038562E1,1.8383383E2,1.7861328E2,1.8226123E2,6.635479E1,3.0741364E1,4.92381E1,1.7518433E1,4.559424E1,7.4471245E0,1.8350842E1,1.36168E2,7.583655E1,4.2959686E1,7.4445984E1,5.3980118E1,2.2648022E1,2.783197E1,1.7522842E1,9.483307E0,2.1415192E1,1.0598389E1,1.1465271E1,5.694153E0,0E0,0E0,0E0,0E0,0E0,0E0,0E0,0E0,0E0,0E0,0E0,0E0,0E0,0E0,0E0,0E0,0E0,0E0,0E0,0E0,0E0,0E0,0E0,0E0,0E0,0E0,0E0,0E0,0E0,0E0,0E0,0E0],"parents":[2147483647,0,0,1,1,2,2,3,3,4,4,5,5,6,6,7,7,8,8,9,9,10,10,11,11,12,12,13,13,14,14,15,15,16,16,17,17,18,18,19,19,20,20,21,21,22,22,23,23,24,24,25,25,26,26,27,27,28,28,29,29,30,30],"right_children":[2,4,6,8,10,12,14,16,18,20,22,24,26,28,30,32,34,36,38,40,42,44,46,48,50,52,54,56,58,60,62,-1,-1,-1,-1,-1,-1,-1,-1,-1,-1,-1,-1,-1,-1,-1,-1,-1,-1,-1,-1,-1,-1,-1,-1,-1,-1,-1,-1,-1,-1,-1,-1],"split_conditions":[1.975E1,1.772E1,2.08E1,8.2E0,1.85E1,2.088E1,2.633E1,1.878E1,1.733E1,2.17E1,1.975E1,1.925E1,2.56E1,2.64E1,2.184E1,1.488E1,1.908E1,1.894E1,1.831E1,1.684E1,1.834E1,1.87E1,2.558E1,2.056E1,2.65E1,1.911E1,2.238E1,2.177E1,2.188E1,2.135E1,2.625E1,-1.9081078E-1,3.4486756E-2,-2.9362617E-2,8.476814E-2,-2.9822076E-2,-1.5840074E-1,-2.6473072E-1,-7.917389E-2,-3.9481845E-2,-2.2455573E-2,-1.707354E-2,-7.522513E-3,-1.1119727E-2,-1.5495722E-3,6.092468E-3,2.7021253E-2,-3.346121E-2,-2.0674219E-4,1.0103329E-2,2.8716324E-2,-1.3004534E-1,1.8660592E-2,2.9164424E-2,4.484401E-2,1.9896714E-2,3.0481566E-2,3.198118E-2,4.3266833E-2,2.8925711E-2,4.0183745E-2,4.0163133E-2,4.9238853E-2],"split_indices":[5,15,8,1,2,13,22,7,9,15,13,2,27,26,4,2,7,7,9,2,9,9,27,16,26,15,1,12,9,5,27,0,0,0,0,0,0,0,0,0,0,0,0,0,0,0,0,0,0,0,0,0,0,0,0,0,0,0,0,0,0,0,0],"split_type":[0,0,0,0,0,0,0,0,0,0,0,0,0,0,0,0,0,0,0,0,0,0,0,0,0,0,0,0,0,0,0,0,0,0,0,0,0,0,0,0,0,0,0,0,0,0,0,0,0,0,0,0,0,0,0,0,0,0,0,0,0,0,0],"sum_hessian":[3.1649E4,2.067E4,1.0979E4,2.29E2,2.0441E4,5.94E3,5.039E3,1.28E2,1.01E2,9.387E3,1.1054E4,4.257E3,1.683E3,3.233E3,1.806E3,1.24E2,4E0,6E1,4.1E1,4.574E3,4.813E3,8.173E3,2.881E3,1.56E3,2.697E3,1.084E3,5.99E2,2.34E3,8.93E2,9.78E2,8.28E2,1.22E2,2E0,2E0,2E0,5.8E1,2E0,2E1,2.1E1,7.93E2,3.781E3,2.06E3,2.753E3,3.783E3,4.39E3,2.531E3,3.5E2,5.2E1,1.508E3,2.479E3,2.18E2,1E0,1.083E3,4.72E2,1.27E2,1.661E3,6.79E2,5.14E2,3.79E2,3.96E2,5.82E2,3.26E2,5.02E2],"tree_param":{"num_deleted":"0","num_feature":"30","num_nodes":"63","size_leaf_vector":"1"}},{"base_weights":[-1.5861721E-3,-2.4562797E-1,3.4293047E-1,-3.3529603E0,-2.227134E-1,1.4868368E-1,5.63122E-1,-3.549585E0,-1.8397062E-1,-4.1296157E-1,-9.724691E-2,3.271299E-2,3.3268127E-1,4.5015714E-1,7.263887E-1,-3.250689E0,-5.9436116E0,-1.491658E-1,5.38862E-1,-8.349465E-1,-3.4611985E-1,-1.9367176E-1,6.353074E-2,-8.244167E-2,1.19618565E-1,2.662423E-1,5.5521363E-1,3.648526E-1,6.2729704E-1,6.5779054E-1,8.49287E-1,-1.698145E-1,8.376037E-2,-3.273241E-1,-8.7594256E-2,6.544357E-2,-5.903886E-2,-7.7730164E-2,-3.6341235E-2,-2.5177417E-2,-1.3463291E-2,-1.4645377E-2,-5.425767E-3,1.3189988E-3,1.7254423E-2,-7.5851916E-3,3.0144036E-4,3.5039E-3,1.4458303E-2,1.0379302E-2,1.954527E-2,2.2758478E-2,3.7583526E-2,1.4490108E-2,2.4929913E-2,2.7850736E-2,4.0052444E-2,2.8383512E-2,3.793119E-2,4.106634E-2,5.6473203E-2],"categories":[],"categories_nodes":[],"categories_segments":[],"categories_sizes":[],"default_left":[0,0,0,1,1,1,0,1,0,0,1,0,0,0,1,0,0,0,0,0,1,1,0,0,0,0,0,0,0,1,0,0,0,0,0,0,0,0,0,0,0,0,0,0,0,0,0,0,0,0,0,0,0,0,0,0,0,0,0,0,0],"id":23,"left_children":[1,3,5,7,9,11,13,15,17,19,21,23,25,27,29,31,33,-1,35,37,39,41,43,45,47,49,51,53,55,57,59,-1,-1,-1,-1,-1,-1,-1,-1,-1,-1,-1,-1,-1,-1,-1,-1,-1,-1,-1,-1,-1,-1,-1,-1,-1,-1,-1,-1,-1,-1],"loss_changes":[2.6698484E3,1.322779E3,5.630885E2,8.4088745E1,4.4042877E2,1.4929343E2,1.1348718E2,7.2271484E1,1.9818714E1,2.0654712E2,1.7242075E2,4.2972416E1,3.9845123E1,5.492572E1,2.0703247E1,8.888623E1,2.1383148E1,0E0,1.2138591E1,7.683624E1,7.647528E1,5.8716522E1,4.360945E1,1.1318695E1,2.053326E1,1.5164932E1,1.1863205E1,2.4608368E1,1.4024628E1,1.4317749E1,6.1228027E0,0E0,0E0,0E0,0E0,0E0,0E0,0E0,0E0,0E0,0E0,0E0,0E0,0E0,0E0,0E0,0E0,0E0,0E0,0E0,0E0,0E0,0E0,0E0,0E0,0E0,0E0,0E0,0E0,0E0,0E0],"parents":[2147483647,0,0,1,1,2,2,3,3,4,4,5,5,6,6,7,7,8,8,9,9,10,10,11,11,12,12,13,13,14,14,15,15,16,16,18,18,19,19,20,20,21,21,22,22,23,23,24,24,25,25,26,26,27,27,28,28,29,29,30,30],"right_children":[2,4,6,8,10,12,14,16,18,20,22,24,26,28,30,32,34,-1,36,38,40,42,44,46,48,50,52,54,56,58,60,-1,-1,-1,-1,-1,-1,-1,-1,-1,-1,-1,-1,-1,-1,-1,-1,-1,-1,-1,-1,-1,-1,-1,-1,-1,-1,-1,-1,-1,-1],"split_conditions":[1.941E1,8.2E0,2.053E1,2.299E1,1.824E1,2E1,2.55E1,1.786E1,1.784E1,1.683E1,1.922E1,1.909E1,2.128E1,2.56E1,2.218E1,2.34E1,2.248E1,-1.491658E-1,2.06E1,1.486E1,1.777E1,1.85E1,2.068E1,2.269E1,2.029E1,2.089E1,2.219E1,2.13E1,2.72E1,2.181E1,2.394E1,-1.698145E-1,8.376037E-2,-3.273241E-1,-8.7594256E-2,6.544357E-2,-5.903886E-2,-7.7730164E-2,-3.6341235E-2,-2.5177417E-2,-1.3463291E-2,-1.4645377E-2,-5.425767E-3,1.3189988E-3,1.7254423E-2,-7.5851916E-3,3.0144036E-4,3.5039E-3,1.4458303E-2,1.0379302E-2,1.954527E-2,2.2758478E-2,3.7583526E-2,1.4490108E-2,2.4929913E-2,2.7850736E-2,4.0052444E-2,2.8383512E-2,3.793119E-2,4.106634E-2,5.6473203E-2],"split_indices":[0,0,8,25,1,7,16,8,13,0,14,1,0,20,13,29,20,0,14,0,7,7,7,25,3,14,0,14,18,8,2,0,0,0,0,0,0,0,0,0,0,0,0,0,0,0,0,0,0,0,0,0,0,0,0,0,0,0,0,0,0],"split_type":[0,0,0,0,0,0,0,0,0,0,0,0,0,0,0,0,0,0,0,0,0,0,0,0,0,0,0,0,0,0,0,0,0,0,0,0,0,0,0,0,0,0,0,0,0,0,0,0,0,0,0,0,0,0,0,0,0,0,0,0,0],"sum_hessian":[3.1753E4,1.8587E4,1.3166E4,1.35E2,1.8452E4,6.996E3,6.17E3,1.27E2,8E0,7.332E3,1.112E4,4.292E3,2.704E3,3.649E3,2.521E3,1.15E2,1.2E1,1E0,7E0,1.001E3,6.331E3,6.951E3,4.169E3,1.846E3,2.446E3,2.084E3,6.2E2,2.465E3,1.184E3,1.622E3,8.99E2,1.12E2,3E0,1E1,2E0,5E0,2E0,1.29E2,8.72E2,2.075E3,4.256E3,3.209E3,3.742E3,3.684E3,4.85E2,1.035E3,8.11E2,1.894E3,5.52E2,1.419E3,6.65E2,4.13E2,2.07E2,1.581E3,8.84E2,8.46E2,3.38E2,8.6E2,7.62E2,8.21E2,7.8E1],"tree_param":{"num_deleted":"0","num_feature":"30","num_nodes":"61","size_leaf_vector":"1"}},{"base_weights":[2.0096487E-4,-1.8964924E-1,3.913858E-1,-3.158271E0,-1.742719E-1,2.4483544E-1,5.9445554E-1,-3.5233517E0,-6.1120296E-1,-3.194031E-1,-4.0587764E-3,-2.5968146E-1,2.4840896E-1,5.128525E-1,7.4867576E-1,-3.0292525E0,-4.8054233E0,1.2160407E0,-2.2544491E-1,-4.8999727E-1,-2.2227712E-1,-9.609362E-2,1.552878E-1,1.2528494E-1,3.984996E-1,4.4439897E-1,6.7563397E-1,6.656586E-1,8.382813E-1,-1.6148566E-1,5.930051E-2,-2.662622E-1,3.9083734E-2,-5.364834E-2,1.338663E-1,-3.4468E-2,-2.0235518E-2,-1.6193233E-2,-7.0954026E-3,-1.4126434E-2,-2.338303E-3,5.967964E-3,2.8053988E-2,-2.389982E-2,7.3875263E-3,1.705729E-2,3.392711E-2,1.9881083E-2,3.1326048E-2,2.9537136E-2,4.0284544E-2,3.0220821E-2,4.0482603E-2,4.5181435E-2,3.8127888E-2],"categories":[],"categories_nodes":[],"categories_segments":[],"categories_sizes":[],"default_left":[1,0,0,1,1,0,0,0,1,1,0,0,0,0,0,0,0,0,0,1,1,1,0,0,0,0,0,0,1,0,0,0,0,0,0,0,0,0,0,0,0,0,0,0,0,0,0,0,0,0,0,0,0,0,0],"id":24,"left_children":[1,3,5,7,9,11,13,15,17,19,21,-1,23,25,27,29,31,33,-1,35,37,39,41,43,45,47,49,51,53,-1,-1,-1,-1,-1,-1,-1,-1,-1,-1,-1,-1,-1,-1,-1,-1,-1,-1,-1,-1,-1,-1,-1,-1,-1,-1],"loss_changes":[2.3558826E3,9.74387E2,3.0831628E2,1.0013403E2,5.248931E2,1.18324524E2,5.4284424E1,4.6256226E1,1.1231359E2,1.8992236E2,1.4344289E2,0E0,1.1117975E2,3.139038E1,1.0607605E1,6.4670105E1,7.676984E1,3.9666504E1,0E0,7.0453735E1,5.9636536E1,5.700438E1,5.2142242E1,4.490416E1,4.332733E1,1.6831848E1,8.798218E0,6.424286E0,2.8638306E0,0E0,0E0,0E0,0E0,0E0,0E0,0E0,0E0,0E0,0E0,0E0,0E0,0E0,0E0,0E0,0E0,0E0,0E0,0E0,0E0,0E0,0E0,0E0,0E0,0E0,0E0],"parents":[2147483647,0,0,1,1,2,2,3,3,4,4,5,5,6,6,7,7,8,8,9,9,10,10,12,12,13,13,14,14,15,15,16,16,17,17,19,19,20,20,21,21,22,22,23,23,24,24,25,25,26,26,27,27,28,28],"right_children":[2,4,6,8,10,12,14,16,18,20,22,-1,24,26,28,30,32,34,-1,36,38,40,42,44,46,48,50,52,54,-1,-1,-1,-1,-1,-1,-1,-1,-1,-1,-1,-1,-1,-1,-1,-1,-1,-1,-1,-1,-1,-1,-1,-1,-1,-1],"split_conditions":[1.998E1,8.2E0,2.091E1,1.739E1,1.877E1,8.32E0,2.68E1,8E0,8.32E0,1.794E1,1.943E1,-2.5968146E-1,2.02E1,2.2E1,2.194E1,8.32E0,1.775E1,1.738E1,-2.2544491E-1,1.729E1,1.832E1,1.813E1,2.61E1,1.758E1,2.698E1,2.68E1,2.69E1,2.241E1,2.347E1,-1.6148566E-1,5.930051E-2,-2.662622E-1,3.9083734E-2,-5.364834E-2,1.338663E-1,-3.4468E-2,-2.0235518E-2,-1.6193233E-2,-7.0954026E-3,-1.4126434E-2,-2.338303E-3,5.967964E-3,2.8053988E-2,-2.389982E-2,7.3875263E-3,1.705729E-2,3.392711E-2,1.9881083E-2,3.1326048E-2,2.9537136E-2,4.0284544E-2,3.0220821E-2,4.0482603E-2,4.5181435E-2,3.8127888E-2],"split_indices":[14,1,1,10,10,2,21,8,2,1,3,0,2,13,10,2,17,13,0,3,14,13,26,1,20,17,24,2,26,0,0,0,0,0,0,0,0,0,0,0,0,0,0,0,0,0,0,0,0,0,0,0,0,0,0],"split_type":[0,0,0,0,0,0,0,0,0,0,0,0,0,0,0,0,0,0,0,0,0,0,0,0,0,0,0,0,0,0,0,0,0,0,0,0,0,0,0,0,0,0,0,0,0,0,0,0,0,0,0,0,0,0,0],"sum_hessian":[3.172E4,2.1356E4,1.0364E4,1.09E2,2.1247E4,6.021E3,4.343E3,9.5E1,1.4E1,1.1468E4,9.779E3,3E0,6.018E3,2.843E3,1.5E3,7.1E1,2.4E1,1E1,4E0,4.159E3,7.309E3,6.199E3,3.58E3,3.307E3,2.711E3,2.004E3,8.39E2,7.83E2,7.17E2,6.8E1,3E0,2.2E1,2E0,4E0,6E0,1.244E3,2.915E3,3.227E3,4.082E3,1.296E3,4.903E3,3.29E3,2.9E2,1.18E2,3.189E3,2.252E3,4.59E2,1.597E3,4.07E2,5.11E2,3.28E2,5.53E2,2.3E2,3.79E2,3.38E2],"tree_param":{"num_deleted":"0","num_feature":"30","num_nodes":"55","size_leaf_vector":"1"}},{"base_weights":[3.4308487E-3,-1.9496523E-1,3.5995898E-1,-3.1966498E0,-1.7646344E-1,2.2555393E-1,5.944662E-1,-3.4122553E0,8.9450675E-1,-3.2819793E-1,-3.790712E-2,1.3387631E-1,4.374992E-1,5.183444E-1,7.424547E-1,-2.6169167E0,-4.3713984E0,-2.936566E-1,9.295217E-2,-5.1806754E-1,-2.4410427E-1,-1.4507066E-1,8.4001005E-2,-3.759388E0,1.3774358E-1,3.6387432E-1,6.5275925E-1,4.5758262E-1,6.8790466E-1,6.2863576E-1,7.99608E-1,-1.4586921E-1,4.620324E-2,-2.4933086E-1,-1.5202032E-1,-2.1469276E-2,2.838254E-3,-3.3025473E-2,-1.9605584E-2,-1.7571298E-2,-8.994734E-3,-3.0631065E-2,-6.4670476E-3,2.1877845E-3,2.0065395E-2,3.0549932E-2,-2.5023672E-1,7.1079907E-4,1.0612983E-2,-1.1282664E-1,1.8507738E-2,2.9594181E-2,4.8496313E-2,2.0353174E-2,3.0421346E-2,3.0416412E-2,3.9338514E-2,2.6164657E-2,3.885578E-2,3.584644E-2,4.269391E-2],"categories":[],"categories_nodes":[],"categories_segments":[],"categories_sizes":[],"default_left":[1,0,0,1,1,0,0,1,0,1,0,0,0,0,0,0,0,0,0,1,1,1,0,0,1,0,0,0,0,0,0,0,0,0,0,0,0,0,0,0,0,0,0,0,0,0,0,0,0,0,0,0,0,0,0,0,0,0,0,0,0],"id":25,"left_children":[1,3,5,7,9,11,13,15,17,19,21,23,25,27,29,31,33,35,-1,37,39,41,43,45,47,49,51,53,55,57,59,-1,-1,-1,-1,-1,-1,-1,-1,-1,-1,-1,-1,-1,-1,-1,-1,-1,-1,-1,-1,-1,-1,-1,-1,-1,-1,-1,-1,-1,-1],"loss_changes":[2.229528E3,1.1241058E3,3.5505298E2,1.1242969E2,4.231541E2,1.3916193E2,4.5858643E1,7.857593E1,8.5681095E0,1.5326685E2,1.374727E2,7.5844376E1,3.4042786E1,2.7646973E1,8.55249E0,7.398044E1,2.7418945E1,2.1462354E-1,0E0,5.2632324E1,4.583136E1,4.1105606E1,6.2849728E1,3.0271103E1,4.601175E1,2.7397263E1,1.0045181E1,1.5001007E1,5.1387024E0,6.944748E0,3.529358E0,0E0,0E0,0E0,0E0,0E0,0E0,0E0,0E0,0E0,0E0,0E0,0E0,0E0,0E0,0E0,0E0,0E0,0E0,0E0,0E0,0E0,0E0,0E0,0E0,0E0,0E0,0E0,0E0,0E0,0E0],"parents":[2147483647,0,0,1,1,2,2,3,3,4,4,5,5,6,6,7,7,8,8,9,9,10,10,11,11,12,12,13,13,14,14,15,15,16,16,17,17,19,19,20,20,21,21,22,22,23,23,24,24,25,25,26,26,27,27,28,28,29,29,30,30],"right_children":[2,4,6,8,10,12,14,16,18,20,22,24,26,28,30,32,34,36,-1,38,40,42,44,46,48,50,52,54,56,58,60,-1,-1,-1,-1,-1,-1,-1,-1,-1,-1,-1,-1,-1,-1,-1,-1,-1,-1,-1,-1,-1,-1,-1,-1,-1,-1,-1,-1,-1,-1],"split_conditions":[1.979E1,8.2E0,2.103E1,1.887E1,1.855E1,2.074E1,2.68E1,8.38E0,1.821E1,1.767E1,1.905E1,1.027E1,2.637E1,2.684E1,2.123E1,1.03E1,1.713E1,1.491E1,9.295217E-2,1.761E1,1.811E1,1.684E1,2.087E1,8E0,1.926E1,1.724E1,2.291E1,2.19E1,2.186E1,2.189E1,2.627E1,-1.4586921E-1,4.620324E-2,-2.4933086E-1,-1.5202032E-1,-2.1469276E-2,2.838254E-3,-3.3025473E-2,-1.9605584E-2,-1.7571298E-2,-8.994734E-3,-3.0631065E-2,-6.4670476E-3,2.1877845E-3,2.0065395E-2,3.0549932E-2,-2.5023672E-1,7.1079907E-4,1.0612983E-2,-1.1282664E-1,1.8507738E-2,2.9594181E-2,4.8496313E-2,2.0353174E-2,3.0421346E-2,3.0416412E-2,3.9338514E-2,2.6164657E-2,3.885578E-2,3.584644E-2,4.269391E-2],"split_indices":[12,1,2,11,8,5,19,11,13,2,4,16,24,20,5,24,10,5,0,4,14,2,7,5,1,1,10,7,11,13,20,0,0,0,0,0,0,0,0,0,0,0,0,0,0,0,0,0,0,0,0,0,0,0,0,0,0,0,0,0,0],"split_type":[0,0,0,0,0,0,0,0,0,0,0,0,0,0,0,0,0,0,0,0,0,0,0,0,0,0,0,0,0,0,0,0,0,0,0,0,0,0,0,0,0,0,0,0,0,0,0,0,0,0,0,0,0,0,0,0,0,0,0,0,0],"sum_hessian":[3.1518E4,2.025E4,1.1268E4,1.23E2,2.0127E4,7.164E3,4.104E3,1.17E2,6E0,9.606E3,1.0521E4,5.002E3,2.162E3,2.713E3,1.391E3,6.6E1,5.1E1,3E0,3E0,2.947E3,6.659E3,5.599E3,4.922E3,4E0,4.998E3,1.613E3,5.49E2,2E3,7.13E2,4.69E2,9.22E2,6.1E1,5E0,3.3E1,1.8E1,2E0,1E0,1.381E3,1.566E3,2.491E3,4.168E3,1.81E2,5.418E3,4.369E3,5.53E2,1E0,3E0,1.881E3,3.117E3,3E0,1.61E3,4.63E2,8.6E1,1.501E3,4.99E2,3.99E2,3.14E2,2.77E2,1.92E2,3.71E2,5.51E2],"tree_param":{"num_deleted":"0","num_feature":"30","num_nodes":"61","size_leaf_vector":"1"}},{"base_weights":[2.7561372E-3,-1.9536054E-1,3.3268112E-1,-2.3963091E0,-1.6599992E-1,1.7480549E-1,5.0939983E-1,-3.1310945E0,-1.6712029E0,-3.062583E-1,-3.8458303E-2,6.2108327E-2,3.2786545E-1,4.2982155E-1,6.741757E-1,-2.700944E0,-4.778071E0,-7.833107E-1,-3.2602992E0,-4.5212477E-1,-2.2771052E-1,-1.5789305E-1,4.541726E-2,-7.098323E-2,1.3353565E-1,2.5995138E-1,5.531144E-1,3.7310725E-1,6.1019343E-1,5.851821E-1,7.580259E-1,-1.5658437E-1,-1.6883649E-2,-2.568058E-1,-2.2018433E-2,-5.756039E-2,2.873002E-2,-2.1236311E-1,1.7793825E-2,-3.3953693E-2,-1.9110505E-2,-1.6743086E-2,-8.312032E-3,-1.3187349E-2,-5.273856E-3,-4.4347113E-4,9.772452E-3,-9.124806E-3,1.4498252E-3,5.7574967E-3,2.555396E-2,1.1305912E-2,2.6708504E-2,2.5333459E-2,4.4656333E-2,1.5908869E-2,2.5566382E-2,2.64452E-2,3.6617752E-2,2.5187453E-2,3.4946185E-2,3.4763124E-2,4.1164737E-2],"categories":[],"categories_nodes":[],"categories_segments":[],"categories_sizes":[],"default_left":[0,0,1,0,1,1,0,0,1,0,1,1,0,0,0,1,0,0,0,1,1,0,0,1,0,0,0,0,0,0,0,0,0,0,0,0,0,0,0,0,0,0,0,0,0,0,0,0,0,0,0,0,0,0,0,0,0,0,0,0,0,0,0],"id":26,"left_children":[1,3,5,7,9,11,13,15,17,19,21,23,25,27,29,31,33,35,37,39,41,43,45,47,49,51,53,55,57,59,61,-1,-1,-1,-1,-1,-1,-1,-1,-1,-1,-1,-1,-1,-1,-1,-1,-1,-1,-1,-1,-1,-1,-1,-1,-1,-1,-1,-1,-1,-1,-1,-1],"loss_changes":[2.0508494E3,1.266437E3,3.2834485E2,1.3222913E2,3.4608246E2,1.07253784E2,7.2537476E1,7.706738E1,1.8369104E2,1.0546637E2,1.0152609E2,3.407082E1,4.0195923E1,3.81131E1,1.3040588E1,1.03792786E2,3.656555E1,4.3624634E1,1.6925601E2,5.0895874E1,3.940448E1,2.3170174E1,4.8495438E1,1.3963877E1,1.6128521E1,1.8694351E1,9.1805725E0,2.1506104E1,8.500366E0,7.808014E0,3.2250366E0,0E0,0E0,0E0,0E0,0E0,0E0,0E0,0E0,0E0,0E0,0E0,0E0,0E0,0E0,0E0,0E0,0E0,0E0,0E0,0E0,0E0,0E0,0E0,0E0,0E0,0E0,0E0,0E0,0E0,0E0,0E0,0E0],"parents":[2147483647,0,0,1,1,2,2,3,3,4,4,5,5,6,6,7,7,8,8,9,9,10,10,11,11,12,12,13,13,14,14,15,15,16,16,17,17,18,18,19,19,20,20,21,21,22,22,23,23,24,24,25,25,26,26,27,27,28,28,29,29,30,30],"right_children":[2,4,6,8,10,12,14,16,18,20,22,24,26,28,30,32,34,36,38,40,42,44,46,48,50,52,54,56,58,60,62,-1,-1,-1,-1,-1,-1,-1,-1,-1,-1,-1,-1,-1,-1,-1,-1,-1,-1,-1,-1,-1,-1,-1,-1,-1,-1,-1,-1,-1,-1,-1,-1],"split_conditions":[1.963E1,1.772E1,2.057E1,1.032E1,1.855E1,2.017E1,2.19E1,1.494E1,1.992E1,1.778E1,1.88E1,1.902E1,2.58E1,2.207E1,2.623E1,2.059E1,1.563E1,1.993E1,1.844E1,2.041E1,1.807E1,1.82E1,2.357E1,1.877E1,2.835E1,2.61E1,2.285E1,2.165E1,2.665E1,2.64E1,2.678E1,-1.5658437E-1,-1.6883649E-2,-2.568058E-1,-2.2018433E-2,-5.756039E-2,2.873002E-2,-2.1236311E-1,1.7793825E-2,-3.3953693E-2,-1.9110505E-2,-1.6743086E-2,-8.312032E-3,-1.3187349E-2,-5.273856E-3,-4.4347113E-4,9.772452E-3,-9.124806E-3,1.4498252E-3,5.7574967E-3,2.555396E-2,1.1305912E-2,2.6708504E-2,2.5333459E-2,4.4656333E-2,1.5908869E-2,2.5566382E-2,2.64452E-2,3.6617752E-2,2.5187453E-2,3.4946185E-2,3.4763124E-2,4.1164737E-2],"split_indices":[4,15,2,15,8,11,4,6,23,4,13,13,25,14,25,25,2,28,5,15,13,6,16,11,29,15,6,13,22,29,15,0,0,0,0,0,0,0,0,0,0,0,0,0,0,0,0,0,0,0,0,0,0,0,0,0,0,0,0,0,0,0,0],"split_type":[0,0,0,0,0,0,0,0,0,0,0,0,0,0,0,0,0,0,0,0,0,0,0,0,0,0,0,0,0,0,0,0,0,0,0,0,0,0,0,0,0,0,0,0,0,0,0,0,0,0,0,0,0,0,0,0,0,0,0,0,0,0,0],"sum_hessian":[3.1374E4,1.9603E4,1.1771E4,2.57E2,1.9346E4,6.218E3,5.553E3,1.26E2,1.31E2,9.213E3,1.0133E4,3.582E3,2.636E3,3.747E3,1.806E3,1.02E2,2.4E1,8.5E1,4.6E1,3.223E3,5.99E3,4.18E3,5.953E3,1.251E3,2.331E3,2.027E3,6.09E2,2.853E3,8.94E2,8.8E2,9.26E2,8.6E1,1.6E1,2.2E1,2E0,6.7E1,1.8E1,3.6E1,1E1,7.57E2,2.466E3,2.182E3,3.808E3,1.383E3,2.797E3,4.372E3,1.581E3,5.91E2,6.6E2,2.224E3,1.07E2,1.806E3,2.21E2,5.38E2,7.1E1,2.044E3,8.09E2,5.4E2,3.54E2,5.16E2,3.64E2,4.78E2,4.48E2],"tree_param":{"num_deleted":"0","num_feature":"30","num_nodes":"63","size_leaf_vector":"1"}},{"base_weights":[-1.054131E-3,-2.2246398E-1,2.647982E-1,-3.503948E0,-2.0060126E-1,1.1638535E-1,4.72522E-1,-3.6629684E0,6.952896E-1,-3.75054E-1,-9.999135E-2,1.9867294E-2,2.698289E-1,3.874294E-1,6.322784E-1,-3.803192E0,4.236393E-2,-1.1223889E-2,4.9067546E-2,-7.3700505E-1,-3.2281533E-1,-2.220621E-1,-2.4636494E-2,-5.891859E-2,1.1338986E-1,2.1554294E-1,5.1776856E-1,3.3779472E-1,5.760775E-1,5.6361383E-1,7.445726E-1,-1.9567195E-1,6.43219E-2,-7.030111E-2,7.383143E-2,-4.1678887E-2,-1.18225245E-2,-2.0684948E-2,-1.1244095E-2,-1.4538424E-1,-1.0808294E-2,-2.172424E-3,1.6251003E-2,-9.6554775E-3,-8.839403E-4,1.9674068E-3,9.335431E-3,8.559734E-3,1.8536739E-2,2.0529082E-2,3.4013327E-2,1.4564501E-2,2.422764E-2,2.5761707E-2,3.6822706E-2,2.5028018E-2,3.6127694E-2,3.484453E-2,4.0530827E-2],"categories":[],"categories_nodes":[],"categories_segments":[],"categories_sizes":[],"default_left":[0,0,0,0,0,0,0,0,0,0,1,0,0,0,1,0,0,0,0,0,1,0,0,0,0,0,1,0,0,1,0,0,0,0,0,0,0,0,0,0,0,0,0,0,0,0,0,0,0,0,0,0,0,0,0,0,0,0,0],"id":27,"left_children":[1,3,5,7,9,11,13,15,17,19,21,23,25,27,29,31,33,-1,-1,35,37,39,41,43,45,47,49,51,53,55,57,-1,-1,-1,-1,-1,-1,-1,-1,-1,-1,-1,-1,-1,-1,-1,-1,-1,-1,-1,-1,-1,-1,-1,-1,-1,-1,-1,-1],"loss_changes":[1.8592842E3,1.2357017E3,4.4243195E2,7.8672E1,3.0046472E2,1.2399937E2,8.106116E1,5.731433E1,1.5358405E0,1.18162964E2,9.989158E1,3.7886894E1,4.3403397E1,3.6369873E1,1.5595337E1,6.4512695E1,1.2463017E1,0E0,0E0,3.7943054E1,4.862854E1,6.5007645E1,4.4190178E1,1.5441998E1,1.2755405E1,1.820266E1,9.822937E0,2.097522E1,7.5439453E0,1.2596405E1,1.907135E0,0E0,0E0,0E0,0E0,0E0,0E0,0E0,0E0,0E0,0E0,0E0,0E0,0E0,