{"learner":{"attributes":{"scikit_learn":"{\"_estimator_type\": \"regressor\"}"},"feature_names":["SENSOR_751_FLOW_lag_1","SENSOR_751_FLOW_lag_2","SENSOR_751_FLOW_lag_3","SENSOR_751_FLOW_lag_4","SENSOR_751_FLOW_lag_5","SENSOR_751_FLOW_lag_6","SENSOR_751_FLOW_lag_7","SENSOR_751_FLOW_lag_8","SENSOR_751_FLOW_lag_9","SENSOR_751_FLOW_lag_10","SENSOR_751_FLOW_lag_11","SENSOR_751_FLOW_lag_12","SENSOR_751_FLOW_lag_13","SENSOR_751_FLOW_lag_14","SENSOR_751_FLOW_lag_15","SENSOR_1254_FLOW_lag_1","SENSOR_1254_FLOW_lag_2","SENSOR_1254_FLOW_lag_3","SENSOR_1254_FLOW_lag_4","SENSOR_1254_FLOW_lag_5","SENSOR_1254_FLOW_lag_6","SENSOR_1254_FLOW_lag_7","SENSOR_1254_FLOW_lag_8","SENSOR_1254_FLOW_lag_9","SENSOR_1254_FLOW_lag_10","SENSOR_1254_FLOW_lag_11","SENSOR_1254_FLOW_lag_12","SENSOR_1254_FLOW_lag_13","SENSOR_1254_FLOW_lag_14","SENSOR_1254_FLOW_lag_15"],"feature_types":["float","float","float","float","float","float","float","float","float","float","float","float","float","float","float","float","float","float","float","float","float","float","float","float","float","float","float","float","float","float"],"gradient_booster":{"model":{"gbtree_model_param":{"num_parallel_tree":"1","num_trees":"200"},"iteration_indptr":[0,1,2,3,4,5,6,7,8,9,10,11,12,13,14,15,16,17,18,19,20,21,22,23,24,25,26,27,28,29,30,31,32,33,34,35,36,37,38,39,40,41,42,43,44,45,46,47,48,49,50,51,52,53,54,55,56,57,58,59,60,61,62,63,64,65,66,67,68,69,70,71,72,73,74,75,76,77,78,79,80,81,82,83,84,85,86,87,88,89,90,91,92,93,94,95,96,97,98,99,100,101,102,103,104,105,106,107,108,109,110,111,112,113,114,115,116,117,118,119,120,121,122,123,124,125,126,127,128,129,130,131,132,133,134,135,136,137,138,139,140,141,142,143,144,145,146,147,148,149,150,151,152,153,154,155,156,157,158,159,160,161,162,163,164,165,166,167,168,169,170,171,172,173,174,175,176,177,178,179,180,181,182,183,184,185,186,187,188,189,190,191,192,193,194,195,196,197,198,199,200],"tree_info":[0,0,0,0,0,0,0,0,0,0,0,0,0,0,0,0,0,0,0,0,0,0,0,0,0,0,0,0,0,0,0,0,0,0,0,0,0,0,0,0,0,0,0,0,0,0,0,0,0,0,0,0,0,0,0,0,0,0,0,0,0,0,0,0,0,0,0,0,0,0,0,0,0,0,0,0,0,0,0,0,0,0,0,0,0,0,0,0,0,0,0,0,0,0,0,0,0,0,0,0,0,0,0,0,0,0,0,0,0,0,0,0,0,0,0,0,0,0,0,0,0,0,0,0,0,0,0,0,0,0,0,0,0,0,0,0,0,0,0,0,0,0,0,0,0,0,0,0,0,0,0,0,0,0,0,0,0,0,0,0,0,0,0,0,0,0,0,0,0,0,0,0,0,0,0,0,0,0,0,0,0,0,0,0,0,0,0,0,0,0,0,0,0,0,0,0,0,0,0,0],"trees":[{"base_weights":[-4.1036446E-6,-1.0918355E2,3.0120232E1,-1.3210512E2,-4.560626E1,-1.4472887E1,3.9323135E1,-1.4448929E2,-1.002679E2,-6.774303E1,-3.3554957E0,-4.7375103E1,1.1149909E1,2.1224764E1,4.396141E1,-1.5222626E2,-1.2825087E2,-1.1606222E2,-7.880237E1,-8.583285E1,-4.4779392E1,-2.4152966E1,2.424239E1,-6.508933E1,-1.6214565E1,-1.2775153E1,2.7487219E1,-9.746902E0,2.9686707E1,3.322466E1,4.737538E1,-1.5797754E2,-1.4144728E2,-1.3891078E2,-1.16767136E2,-1.2341567E2,-9.4617455E1,-9.088023E1,-5.440999E1,-9.751657E1,-6.304197E1,-5.5423107E1,-2.0334436E1,-4.1915745E1,-3.875299E0,4.0327153E0,4.3811092E1,-8.597043E1,-4.75337E1,-2.9768064E1,1.0118832E1,-3.3812702E1,3.7385595E0,9.333075E0,3.8255726E1,-3.1655983E1,7.201426E0,1.3756709E1,3.707394E1,1.6240807E1,3.9028233E1,4.108037E1,5.0217857E1,-1.6365936E2,-1.5271756E2,-1.4679565E2,-1.3052174E2,-1.42101E2,-1.1798974E2,-1.2246632E2,-9.623682E1,-1.2974348E2,-1.0551047E2,-9.926943E1,-6.794559E1,-9.985007E1,-7.249079E1,-5.8826485E1,5.8828938E1,-1.04479E2,-7.566206E1,-7.5724785E1,-4.8819653E1,-6.9456314E1,-4.448333E1,-2.566441E1,4.677395E1,-4.5406918E1,1.2023948E1,-2.6782024E1,1.2692369E1,-1.565022E1,2.166242E1,3.586717E1,6.92144E1,-1.03619774E2,-6.964024E1,-6.3653564E1,-3.6654705E1,-3.8099117E1,-4.156983E0,-3.8276405E0,2.7533419E1,-4.715268E1,-1.6089941E1,-1.4445573E1,1.6422909E1,-2.9539063E0,2.7684895E1,2.6781254E1,4.4112114E1,-4.730536E1,-1.1850196E1,-5.0565376E0,2.9298738E1,-1.2791301E1,2.264982E1,2.6403942E1,4.1820156E1,-3.850147E0,2.8781916E1,3.1391228E1,4.3651737E1,3.269391E1,4.415351E1,4.5584732E1,5.303091E1,-8.192486E0,1.895367E0,-7.8058977E0,-7.2669716E0,-7.3469276E0,-2.7963296E-1,-6.932277E0,-6.0305247E0,-7.440651E0,-6.7426553E0,-6.1961193E0,-4.5606704E0,-6.4836335E0,-5.652816E0,-5.1647983E0,-3.5790806E0,-7.0660834E0,-6.1803107E0,-5.3254576E0,8.938228E-1,-5.448562E0,-4.490174E0,-3.5921102E0,1.1771561E0,-5.253146E0,-3.826804E0,-4.348913E0,-3.1691997E0,-3.6623917E0,-2.3633583E0,3.0873396E0,5.953671E-1,-5.684483E0,-4.6425624E0,-3.8377056E0,2.995367E0,-3.9474666E0,-1.7055619E0,-2.8190355E0,-1.5236429E0,-3.7578342E0,-2.1720808E0,-2.688308E0,-1.5084742E0,-1.7630404E0,6.663207E-2,4.8422785E0,1.1813519E0,-2.5550401E0,-1.3281496E0,-6.783393E-1,1.7097582E0,-1.5591793E0,9.233947E-1,-3.4108165E-1,1.3996271E0,-1.3913808E0,7.86043E-1,1.781653E-1,1.6669209E0,-1.6672958E-2,2.0009842E0,1.0430506E0,3.5849195E0,-5.8305697E0,-4.289216E0,-4.2067323E0,-2.929602E0,-3.882846E0,-2.7380702E0,-2.3532736E0,-1.1989602E0,-2.0396628E0,6.272605E-1,-8.4018105E-1,1.0099288E0,-4.850392E-1,1.4847736E0,8.702237E-1,2.5091817E0,-3.3188686E0,-1.9250692E0,-1.7200783E0,-1.7970708E-1,-1.14232E0,4.1607338E-1,-3.93221E-2,1.297904E0,-7.503476E-1,7.400765E-1,5.9429294E-1,1.7585553E0,6.8225545E-1,1.8555357E0,1.7404346E0,2.410541E0,-3.5848832E0,-2.0890684E0,-1.1527992E0,4.206309E-1,-1.0809492E0,4.1708928E-1,4.108499E-1,1.8365157E0,-1.6851491E0,3.8064072E-1,1.7866743E-1,1.3933824E0,6.810714E-2,1.5540906E0,1.5629529E0,2.2218862E0,-1.3262843E0,5.61892E-1,7.612544E-1,1.8362868E0,6.7466366E-1,1.7777823E0,1.9057335E0,2.3363166E0,1.3450785E-1,1.7525303E0,1.748524E0,2.2962427E0,2.160804E0,2.6195495E0,2.4366362E0,2.7674866E0],"categories":[],"categories_nodes":[],"categories_segments":[],"categories_sizes":[],"default_left":[1,1,1,0,0,0,0,1,0,1,0,1,1,1,0,1,1,1,0,1,1,1,0,0,0,0,0,0,0,1,1,0,1,0,1,1,0,0,0,1,0,1,0,1,1,0,0,0,0,0,0,0,1,0,0,0,0,1,0,0,0,0,0,1,1,1,1,1,1,0,1,0,1,1,0,1,1,1,1,0,1,1,1,0,1,0,0,0,0,1,0,0,0,0,0,0,1,0,1,1,1,0,0,0,0,0,1,0,0,1,0,0,0,0,0,0,0,1,0,0,0,0,0,0,0,0,0,0,0,0,0,0,0,0,0,0,0,0,0,0,0,0,0,0,0,0,0,0,0,0,0,0,0,0,0,0,0,0,0,0,0,0,0,0,0,0,0,0,0,0,0,0,0,0,0,0,0,0,0,0,0,0,0,0,0,0,0,0,0,0,0,0,0,0,0,0,0,0,0,0,0,0,0,0,0,0,0,0,0,0,0,0,0,0,0,0,0,0,0,0,0,0,0,0,0,0,0,0,0,0,0,0,0,0,0,0,0,0,0,0,0,0,0,0,0,0,0,0,0,0,0,0,0,0,0],"id":0,"left_children":[1,3,5,7,9,11,13,15,17,19,21,23,25,27,29,31,33,35,37,39,41,43,45,47,49,51,53,55,57,59,61,63,65,67,69,71,73,75,77,79,81,83,85,87,89,91,93,95,97,99,101,103,105,107,109,111,113,115,117,119,121,123,125,127,129,131,133,135,137,139,141,143,145,147,149,151,153,155,157,159,161,163,165,167,169,171,173,175,177,179,181,183,185,187,189,191,193,195,197,199,201,203,205,207,209,211,213,215,217,219,221,223,225,227,229,231,233,235,237,239,241,243,245,247,249,251,253,-1,-1,-1,-1,-1,-1,-1,-1,-1,-1,-1,-1,-1,-1,-1,-1,-1,-1,-1,-1,-1,-1,-1,-1,-1,-1,-1,-1,-1,-1,-1,-1,-1,-1,-1,-1,-1,-1,-1,-1,-1,-1,-1,-1,-1,-1,-1,-1,-1,-1,-1,-1,-1,-1,-1,-1,-1,-1,-1,-1,-1,-1,-1,-1,-1,-1,-1,-1,-1,-1,-1,-1,-1,-1,-1,-1,-1,-1,-1,-1,-1,-1,-1,-1,-1,-1,-1,-1,-1,-1,-1,-1,-1,-1,-1,-1,-1,-1,-1,-1,-1,-1,-1,-1,-1,-1,-1,-1,-1,-1,-1,-1,-1,-1,-1,-1,-1,-1,-1,-1,-1,-1,-1,-1,-1,-1,-1,-1],"loss_changes":[1.7319262E8,1.658816E7,1.694008E7,3.285216E6,2.8234285E6,5.9541245E6,2.871336E6,7.37176E5,7.86564E5,8.1908E5,5.9693644E5,1.705682E6,1.5525005E6,1.830135E6,9.96724E5,2.30224E5,2.2249E5,2.01208E5,2.89074E5,2.886275E5,2.26535E5,2.1342888E5,1.766016E5,7.184445E5,4.0075388E5,5.601481E5,4.610065E5,5.5684E5,6.448395E5,6.473455E5,3.67652E5,5.4144E4,6.4224E4,5.0378E4,9.8784E4,9.9837E4,3.655825E4,1.026185E5,1.7000056E5,1.03171E5,6.4486375E4,9.0404125E4,9.6702555E4,6.005275E4,1.05844E5,7.702698E4,4.332653E4,2.518905E5,1.858365E5,1.5794675E5,9.288252E4,1.66864E5,2.0874836E5,1.9851162E5,9.834025E4,2.0214556E5,2.2930252E5,4.1085788E5,1.886015E5,4.2240053E5,1.716125E5,1.64353E5,1.83044E5,5.452E4,1.2184E4,1.8348E4,2.1765E4,2.2158E4,1.07775E4,3.5249E4,2.9155375E4,3.4831E4,3.480475E4,1.730575E4,2.1298672E4,4.6041E4,2.3776375E4,5.004875E4,1.0445938E3,4.8456E4,3.1246812E4,2.3875625E4,2.3390438E4,3.6032625E4,4.4219062E4,6.4297453E4,2.0891895E4,3.0509312E4,1.1811475E4,2.387882E4,4.855891E4,4.0549367E4,2.4606258E4,2.6319969E4,4.8700625E3,8.96325E4,7.033475E4,4.9415625E4,8.3722875E4,7.678325E4,5.670633E4,4.2224797E4,3.812843E4,6.4637E4,6.989479E4,7.133958E4,8.748256E4,1.1321786E5,4.1333E4,6.774534E4,3.5653125E4,4.61855E4,6.604159E4,1.2112075E5,4.701267E4,1.8671761E5,1.2959819E5,1.3537419E5,7.02375E4,2.2097078E5,1.1058006E5,1.3748375E5,5.0126E4,1.2216275E5,7.4927E4,8.4519E4,8.5486E4,0E0,0E0,0E0,0E0,0E0,0E0,0E0,0E0,0E0,0E0,0E0,0E0,0E0,0E0,0E0,0E0,0E0,0E0,0E0,0E0,0E0,0E0,0E0,0E0,0E0,0E0,0E0,0E0,0E0,0E0,0E0,0E0,0E0,0E0,0E0,0E0,0E0,0E0,0E0,0E0,0E0,0E0,0E0,0E0,0E0,0E0,0E0,0E0,0E0,0E0,0E0,0E0,0E0,0E0,0E0,0E0,0E0,0E0,0E0,0E0,0E0,0E0,0E0,0E0,0E0,0E0,0E0,0E0,0E0,0E0,0E0,0E0,0E0,0E0,0E0,0E0,0E0,0E0,0E0,0E0,0E0,0E0,0E0,0E0,0E0,0E0,0E0,0E0,0E0,0E0,0E0,0E0,0E0,0E0,0E0,0E0,0E0,0E0,0E0,0E0,0E0,0E0,0E0,0E0,0E0,0E0,0E0,0E0,0E0,0E0,0E0,0E0,0E0,0E0,0E0,0E0,0E0,0E0,0E0,0E0,0E0,0E0,0E0,0E0,0E0,0E0,0E0,0E0],"parents":[2147483647,0,0,1,1,2,2,3,3,4,4,5,5,6,6,7,7,8,8,9,9,10,10,11,11,12,12,13,13,14,14,15,15,16,16,17,17,18,18,19,19,20,20,21,21,22,22,23,23,24,24,25,25,26,26,27,27,28,28,29,29,30,30,31,31,32,32,33,33,34,34,35,35,36,36,37,37,38,38,39,39,40,40,41,41,42,42,43,43,44,44,45,45,46,46,47,47,48,48,49,49,50,50,51,51,52,52,53,53,54,54,55,55,56,56,57,57,58,58,59,59,60,60,61,61,62,62,63,63,64,64,65,65,66,66,67,67,68,68,69,69,70,70,71,71,72,72,73,73,74,74,75,75,76,76,77,77,78,78,79,79,80,80,81,81,82,82,83,83,84,84,85,85,86,86,87,87,88,88,89,89,90,90,91,91,92,92,93,93,94,94,95,95,96,96,97,97,98,98,99,99,100,100,101,101,102,102,103,103,104,104,105,105,106,106,107,107,108,108,109,109,110,110,111,111,112,112,113,113,114,114,115,115,116,116,117,117,118,118,119,119,120,120,121,121,122,122,123,123,124,124,125,125,126,126],"right_children":[2,4,6,8,10,12,14,16,18,20,22,24,26,28,30,32,34,36,38,40,42,44,46,48,50,52,54,56,58,60,62,64,66,68,70,72,74,76,78,80,82,84,86,88,90,92,94,96,98,100,102,104,106,108,110,112,114,116,118,120,122,124,126,128,130,132,134,136,138,140,142,144,146,148,150,152,154,156,158,160,162,164,166,168,170,172,174,176,178,180,182,184,186,188,190,192,194,196,198,200,202,204,206,208,210,212,214,216,218,220,222,224,226,228,230,232,234,236,238,240,242,244,246,248,250,252,254,-1,-1,-1,-1,-1,-1,-1,-1,-1,-1,-1,-1,-1,-1,-1,-1,-1,-1,-1,-1,-1,-1,-1,-1,-1,-1,-1,-1,-1,-1,-1,-1,-1,-1,-1,-1,-1,-1,-1,-1,-1,-1,-1,-1,-1,-1,-1,-1,-1,-1,-1,-1,-1,-1,-1,-1,-1,-1,-1,-1,-1,-1,-1,-1,-1,-1,-1,-1,-1,-1,-1,-1,-1,-1,-1,-1,-1,-1,-1,-1,-1,-1,-1,-1,-1,-1,-1,-1,-1,-1,-1,-1,-1,-1,-1,-1,-1,-1,-1,-1,-1,-1,-1,-1,-1,-1,-1,-1,-1,-1,-1,-1,-1,-1,-1,-1,-1,-1,-1,-1,-1,-1,-1,-1,-1,-1,-1,-1],"split_conditions":[5E0,1.4E1,8E0,1.1E1,1.7E1,1.7E1,1.8E1,9E0,1.2E1,1.5E1,2E1,9E0,1E1,9E0,1.9E1,8E0,9E0,4E0,1.5E1,5E0,8E0,8E0,1.1E1,1.4E1,2E1,1.8E1,1.9E1,1.8E1,1.9E1,1.1E1,2E1,6E0,9E0,1.3E1,4E0,1.1E1,8E0,1.4E1,2.5E1,5E0,1.4E1,5E0,1.9E1,1.4E1,8E0,2E1,2.8E1,1.3E1,1.5E1,1.9E1,2E1,1.8E1,8E0,2E1,1.1E1,1.8E1,2.1E1,1E1,1.9E1,1.9E1,2E1,1.9E1,2.1E1,1.6E1,8E0,2E1,9E0,8E0,1.2E1,1E1,5E0,7E0,1E1,3E0,2.5E1,6E0,4E0,1.4E1,1.3E1,1.2E1,1.7E1,1E1,8E0,1.8E1,1.6E1,1.9E1,6E0,1.9E1,2E1,2.2E1,9E0,2.1E1,2E1,7E0,6E0,1.2E1,5E0,1.4E1,7E0,1.9E1,1.1E1,2.1E1,1.7E1,1.4E1,1.7E1,2.1E1,9E0,1.3E1,1.9E1,1.1E1,2E1,1.4E1,2E1,1.8E1,8E0,1.8E1,1.7E1,9E0,1.8E1,1.8E1,2E1,1.7E1,2E1,7E0,1.8E1,2.4E1,2.1E1,-8.192486E0,1.895367E0,-7.8058977E0,-7.2669716E0,-7.3469276E0,-2.7963296E-1,-6.932277E0,-6.0305247E0,-7.440651E0,-6.7426553E0,-6.1961193E0,-4.5606704E0,-6.4836335E0,-5.652816E0,-5.1647983E0,-3.5790806E0,-7.0660834E0,-6.1803107E0,-5.3254576E0,8.938228E-1,-5.448562E0,-4.490174E0,-3.5921102E0,1.1771561E0,-5.253146E0,-3.826804E0,-4.348913E0,-3.1691997E0,-3.6623917E0,-2.3633583E0,3.0873396E0,5.953671E-1,-5.684483E0,-4.6425624E0,-3.8377056E0,2.995367E0,-3.9474666E0,-1.7055619E0,-2.8190355E0,-1.5236429E0,-3.7578342E0,-2.1720808E0,-2.688308E0,-1.5084742E0,-1.7630404E0,6.663207E-2,4.8422785E0,1.1813519E0,-2.5550401E0,-1.3281496E0,-6.783393E-1,1.7097582E0,-1.5591793E0,9.233947E-1,-3.4108165E-1,1.3996271E0,-1.3913808E0,7.86043E-1,1.781653E-1,1.6669209E0,-1.6672958E-2,2.0009842E0,1.0430506E0,3.5849195E0,-5.8305697E0,-4.289216E0,-4.2067323E0,-2.929602E0,-3.882846E0,-2.7380702E0,-2.3532736E0,-1.1989602E0,-2.0396628E0,6.272605E-1,-8.4018105E-1,1.0099288E0,-4.850392E-1,1.4847736E0,8.702237E-1,2.5091817E0,-3.3188686E0,-1.9250692E0,-1.7200783E0,-1.7970708E-1,-1.14232E0,4.1607338E-1,-3.93221E-2,1.297904E0,-7.503476E-1,7.400765E-1,5.9429294E-1,1.7585553E0,6.8225545E-1,1.8555357E0,1.7404346E0,2.410541E0,-3.5848832E0,-2.0890684E0,-1.1527992E0,4.206309E-1,-1.0809492E0,4.1708928E-1,4.108499E-1,1.8365157E0,-1.6851491E0,3.8064072E-1,1.7866743E-1,1.3933824E0,6.810714E-2,1.5540906E0,1.5629529E0,2.2218862E0,-1.3262843E0,5.61892E-1,7.612544E-1,1.8362868E0,6.7466366E-1,1.7777823E0,1.9057335E0,2.3363166E0,1.3450785E-1,1.7525303E0,1.748524E0,2.2962427E0,2.160804E0,2.6195495E0,2.4366362E0,2.7674866E0],"split_indices":[23,0,29,1,14,9,13,3,4,1,9,15,15,24,3,0,5,18,9,20,20,16,25,3,1,1,12,0,0,15,11,1,4,3,22,11,18,5,14,21,6,18,18,18,22,3,12,4,5,11,6,6,27,11,23,1,3,16,12,5,1,12,1,6,4,8,5,4,4,6,15,4,22,15,9,18,22,6,0,3,15,18,22,6,12,11,24,4,12,13,21,1,5,16,15,6,16,1,26,18,25,15,16,12,11,5,18,16,6,20,4,14,14,6,25,12,5,25,11,4,1,9,12,24,14,12,0,0,0,0,0,0,0,0,0,0,0,0,0,0,0,0,0,0,0,0,0,0,0,0,0,0,0,0,0,0,0,0,0,0,0,0,0,0,0,0,0,0,0,0,0,0,0,0,0,0,0,0,0,0,0,0,0,0,0,0,0,0,0,0,0,0,0,0,0,0,0,0,0,0,0,0,0,0,0,0,0,0,0,0,0,0,0,0,0,0,0,0,0,0,0,0,0,0,0,0,0,0,0,0,0,0,0,0,0,0,0,0,0,0,0,0,0,0,0,0,0,0,0,0,0,0,0,0,0],"split_type":[0,0,0,0,0,0,0,0,0,0,0,0,0,0,0,0,0,0,0,0,0,0,0,0,0,0,0,0,0,0,0,0,0,0,0,0,0,0,0,0,0,0,0,0,0,0,0,0,0,0,0,0,0,0,0,0,0,0,0,0,0,0,0,0,0,0,0,0,0,0,0,0,0,0,0,0,0,0,0,0,0,0,0,0,0,0,0,0,0,0,0,0,0,0,0,0,0,0,0,0,0,0,0,0,0,0,0,0,0,0,0,0,0,0,0,0,0,0,0,0,0,0,0,0,0,0,0,0,0,0,0,0,0,0,0,0,0,0,0,0,0,0,0,0,0,0,0,0,0,0,0,0,0,0,0,0,0,0,0,0,0,0,0,0,0,0,0,0,0,0,0,0,0,0,0,0,0,0,0,0,0,0,0,0,0,0,0,0,0,0,0,0,0,0,0,0,0,0,0,0,0,0,0,0,0,0,0,0,0,0,0,0,0,0,0,0,0,0,0,0,0,0,0,0,0,0,0,0,0,0,0,0,0,0,0,0,0,0,0,0,0,0,0,0,0,0,0,0,0,0,0,0,0,0,0],"sum_hessian":[5.2662E4,1.1386E4,4.1276E4,8.368E3,3.018E3,7.061E3,3.4215E4,6.022E3,2.346E3,1.98E3,1.038E3,3.091E3,3.97E3,6.981E3,2.7234E4,4.073E3,1.949E3,1.349E3,9.97E2,1.106E3,8.74E2,5.92E2,4.46E2,1.97E3,1.121E3,1.611E3,2.359E3,1.498E3,5.483E3,6.573E3,2.0661E4,2.647E3,1.426E3,1.005E3,9.44E2,1.001E3,3.48E2,6.65E2,3.32E2,7.29E2,3.77E2,6.08E2,2.66E2,3.15E2,2.77E2,2.2E2,2.26E2,8.98E2,1.072E3,7.4E2,3.81E2,7.08E2,9.03E2,8.79E2,1.48E3,6.53E2,8.45E2,1.738E3,3.745E3,1.675E3,4.898E3,6.432E3,1.4229E4,1.258E3,1.389E3,9.49E2,4.77E2,8.67E2,1.38E2,7.35E2,2.09E2,7.35E2,2.66E2,2.94E2,5.4E1,4.44E2,2.21E2,3.2E2,1.2E1,5.5E2,1.79E2,1.97E2,1.8E2,2.64E2,3.44E2,2.47E2,1.9E1,2.96E2,1.9E1,1.16E2,1.61E2,1.04E2,1.16E2,1.74E2,5.2E1,4.29E2,4.69E2,4.3E2,6.42E2,5.58E2,1.82E2,2.12E2,1.69E2,4.03E2,3.05E2,3.71E2,5.32E2,5.27E2,3.52E2,5.02E2,9.78E2,3.64E2,2.89E2,5.44E2,3.01E2,4.36E2,1.302E3,1.155E3,2.59E3,6.44E2,1.031E3,1.85E3,3.048E3,1.728E3,4.704E3,5.382E3,8.847E3,1.257E3,1E0,9.37E2,4.52E2,9.48E2,1E0,2.55E2,2.22E2,4.4E2,4.27E2,1.1E2,2.8E1,4.09E2,3.26E2,1.6E2,4.9E1,2.47E2,4.88E2,2.64E2,2E0,1.4E2,1.54E2,5.2E1,2E0,3.6E2,8.4E1,8.2E1,1.39E2,1.4E2,1.8E2,1.1E1,1E0,3.02E2,2.48E2,1.78E2,1E0,1.82E2,1.5E1,1.26E2,5.4E1,2.15E2,4.9E1,2.07E2,1.37E2,1.82E2,6.5E1,5E0,1.4E1,2.26E2,7E1,9E0,1E1,1.06E2,1E1,7.1E1,9E1,7.5E1,2.9E1,4.6E1,7E1,1.8E1,1.56E2,3E0,4.9E1,2.45E2,1.84E2,2E2,2.69E2,1.64E2,2.66E2,3.51E2,2.91E2,5.3E2,2.8E1,1.2E2,6.2E1,1.81E2,3.1E1,1.18E2,5.1E1,1.23E2,2.8E2,1.23E2,1.82E2,2.71E2,1E2,1.9E2,3.42E2,3.14E2,2.13E2,1.14E2,2.38E2,2.22E2,2.8E2,3.02E2,6.76E2,6.5E1,2.99E2,1.86E2,1.03E2,2.43E2,3.01E2,7.9E1,2.22E2,2.15E2,2.21E2,2.8E2,1.022E3,1.82E2,9.73E2,5.17E2,2.073E3,2.57E2,3.87E2,3.82E2,6.49E2,3.5E2,1.5E3,1.093E3,1.955E3,1.26E2,1.602E3,7.64E2,3.94E3,3.998E3,1.384E3,3.108E3,5.739E3],"tree_param":{"num_deleted":"0","num_feature":"30","num_nodes":"255","size_leaf_vector":"1"}},{"base_weights":[-2.9452967E-3,-1.0174336E2,2.9247673E1,-1.2822858E2,-4.8353065E1,-1.293574E1,3.7413933E1,-1.3874641E2,-9.868407E1,-6.8742485E1,-6.255937E0,-4.2945366E1,1.1648057E1,1.4681208E1,4.085321E1,-1.4573532E2,-1.2277515E2,-1.086211E2,-6.81339E1,-8.808836E1,-4.789178E1,-2.7997133E1,1.9724522E1,-7.243983E1,-2.4451857E1,-1.0444288E1,2.5994825E1,-1.1907309E1,2.8010443E1,3.233399E1,4.518502E1,-1.5015953E2,-1.3623892E2,-1.3233624E2,-1.12199905E2,-1.1842474E2,-9.1420364E1,-7.340093E1,7.763385E0,-1.0108782E2,-7.049273E1,-5.860124E1,-2.2739443E1,-3.9631607E1,1.4268756E-1,6.915258E-1,4.090054E1,-8.9234856E1,-5.449369E1,-4.161604E1,-5.0118856E0,-2.4988724E1,7.3034735E0,7.2086816E0,3.384185E1,-3.297942E1,8.7923E0,1.3124965E1,3.3470387E1,1.4401328E1,3.6991474E1,3.874014E1,4.803992E1,-1.5467436E2,-1.4374144E2,-1.3857446E2,-5.7615337E0,-1.38533E2,-1.2305982E2,-1.1825482E2,-1.0052925E2,-1.3070349E2,-1.1143444E2,-9.537551E1,-6.030375E1,-8.5856575E1,-5.8460217E1,-1.910139E1,2.9303627E0,-1.0924069E2,-8.452072E1,-7.7041145E1,-4.2933937E1,-6.876111E1,-4.7320713E1,-3.7654785E1,4.6080685E0,-5.8985443E1,-2.956477E1,-1.6359581E1,2.9354235E1,-8.785215E0,2.9112768E1,2.4902603E1,5.5071777E1,-1.0484539E2,-7.577119E1,-5.9085377E1,-2.3601074E1,-6.1240047E1,-3.3633335E1,-1.4804368E1,2.5128258E1,-3.3565174E1,-1.8955919E0,-1.1798919E1,1.7492214E1,-2.2508273E0,3.475103E1,2.3857561E1,3.979161E1,-4.0705307E1,-4.4289494E0,-1.1073519E1,2.5159327E1,-2.019759E0,2.5326576E1,2.6967657E1,3.9721928E1,-9.3809595E0,2.2837809E1,2.7304419E1,4.0606052E1,3.1756739E1,4.265641E1,4.4321865E1,5.1478706E1,-7.8320084E0,-7.2650833E0,-7.351514E0,-6.791421E0,-7.0303903E0,-6.1654067E0,-7.0825534E0,-6.3077154E0,-6.592771E0,-5.794295E0,-6.0802455E0,-5.0848656E0,-5.120199E0,-2.5920243E0,-6.563064E0,1.6409382E0,-5.674062E0,-3.8570294E0,-5.0659595E0,-4.1811213E0,-3.1288602E0,2.243607E0,-4.69801E0,-3.3494332E0,-3.2925794E0,-2.1493683E0,-1.9271106E0,9.6560605E-2,-5.6985087E0,-4.579683E0,-4.5653987E0,-3.210638E0,-4.2673287E0,-3.130017E0,-2.3122005E0,7.134594E-1,-3.992204E0,-3.0266273E0,-2.6878574E0,-1.1917261E0,-2.5073504E0,-1.2479821E0,-2.3086913E-1,3.0587447E0,-3.6423154E0,-2.3009613E0,-1.901866E0,-4.0099692E-1,-2.1359844E0,-3.880375E-1,8.5246843E-1,2.3930042E0,-1.0231794E0,2.2368638E-1,-1.14772476E-1,2.1266427E0,-1.4029153E-1,1.6580305E0,2.3093324E0,3.3620083E0,-5.49346E0,-3.853077E0,-4.4873567E0,-3.2332578E0,-3.215121E0,-2.104101E0,-2.1761122E0,-1.791532E-1,-3.974634E0,-2.6459396E0,-1.9871994E0,-5.4667664E-1,-1.5365937E0,-1.1759295E-1,-2.2373836E-2,1.6828158E0,-2.0445573E0,-9.686352E-1,-3.8936192E-1,1.9708071E0,-1.6450275E0,-1.5376376E-1,1.0928484E-2,1.216627E0,-6.1123973E-1,9.395714E-1,1.5778022E-1,1.9887804E0,2.023257E-1,1.4322001E0,1.6768467E0,2.3092453E0,-2.3438466E0,-8.399046E-1,-1.0846668E0,6.9994557E-1,-1.977759E0,1.0640345E-1,5.5069065E-1,1.772198E0,-1.062322E0,5.8745956E-1,4.3035656E-1,1.5648527E0,-2.7150467E-1,1.4423484E0,1.8159688E0,2.3288207E0,-1.1005356E0,5.069333E-1,3.6631948E-1,1.5435605E0,7.6215464E-1,1.6714696E0,1.6935428E0,2.2181432E0,1.0391889E0,1.8528699E0,1.831975E0,2.2774274E0,1.9153441E0,2.3493314E0,2.3303545E0,2.6814992E0],"categories":[],"categories_nodes":[],"categories_segments":[],"categories_sizes":[],"default_left":[1,1,1,0,0,0,0,1,0,1,0,0,1,1,0,1,1,1,0,1,1,1,0,1,1,0,0,0,0,1,0,1,0,1,0,1,1,0,0,1,1,0,0,0,0,0,0,1,0,1,1,0,1,0,0,0,1,0,0,0,0,0,0,1,1,0,0,0,0,1,0,1,1,1,0,1,0,0,0,1,0,1,1,1,0,1,0,0,0,0,0,0,1,0,0,1,1,0,0,0,0,0,0,1,0,0,0,0,0,1,0,1,0,0,0,0,0,0,0,1,1,0,0,0,0,0,0,0,0,0,0,0,0,0,0,0,0,0,0,0,0,0,0,0,0,0,0,0,0,0,0,0,0,0,0,0,0,0,0,0,0,0,0,0,0,0,0,0,0,0,0,0,0,0,0,0,0,0,0,0,0,0,0,0,0,0,0,0,0,0,0,0,0,0,0,0,0,0,0,0,0,0,0,0,0,0,0,0,0,0,0,0,0,0,0,0,0,0,0,0,0,0,0,0,0,0,0,0,0,0,0,0,0,0,0,0,0,0,0,0,0,0,0,0,0,0,0,0,0,0,0],"id":1,"left_children":[1,3,5,7,9,11,13,15,17,19,21,23,25,27,29,31,33,35,37,39,41,43,45,47,49,51,53,55,57,59,61,63,65,67,69,71,73,75,77,79,81,83,85,87,89,91,93,95,97,99,101,103,105,107,109,111,113,115,117,119,121,123,125,127,129,131,-1,133,135,137,139,141,143,145,147,149,151,153,-1,155,157,159,161,163,165,167,169,171,173,175,177,179,181,183,185,187,189,191,193,195,197,199,201,203,205,207,209,211,213,215,217,219,221,223,225,227,229,231,233,235,237,239,241,243,245,247,249,-1,-1,-1,-1,-1,-1,-1,-1,-1,-1,-1,-1,-1,-1,-1,-1,-1,-1,-1,-1,-1,-1,-1,-1,-1,-1,-1,-1,-1,-1,-1,-1,-1,-1,-1,-1,-1,-1,-1,-1,-1,-1,-1,-1,-1,-1,-1,-1,-1,-1,-1,-1,-1,-1,-1,-1,-1,-1,-1,-1,-1,-1,-1,-1,-1,-1,-1,-1,-1,-1,-1,-1,-1,-1,-1,-1,-1,-1,-1,-1,-1,-1,-1,-1,-1,-1,-1,-1,-1,-1,-1,-1,-1,-1,-1,-1,-1,-1,-1,-1,-1,-1,-1,-1,-1,-1,-1,-1,-1,-1,-1,-1,-1,-1,-1,-1,-1,-1,-1,-1,-1,-1,-1,-1],"loss_changes":[1.567265E8,1.6623072E7,1.409112E7,2.428768E6,3.347938E6,4.8954755E6,2.678772E6,6.2884E5,6.20094E5,1.055851E6,7.2016644E5,1.628051E6,1.1565189E6,1.5969265E6,1.097008E6,1.48648E5,1.64118E5,2.51898E5,2.0444425E5,3.0441E5,3.3995675E5,2.2721562E5,2.3413973E5,3.42056E5,6.130791E5,3.71117E5,3.2583875E5,6.567476E5,2.4346325E5,8.3777E5,3.61164E5,5.7044E4,4.7324E4,3.6067E4,4.7966E4,7.0323E4,6.4399E4,8.374875E4,4.756039E4,9.62555E4,1.0172375E5,9.85185E4,1.5517458E5,9.3918625E4,9.88198E4,8.2943375E4,6.097397E4,1.166895E5,7.7899125E4,1.5083325E5,2.550837E5,1.5640153E5,1.2632618E5,1.7020894E5,9.1721125E4,1.6437069E5,2.4738833E5,1.4917673E5,8.816025E4,4.1573728E5,2.77853E5,1.64435E5,1.72484E5,6.592E3,9.802E3,1.8548E4,0E0,3.204E3,8.634E3,1.8252E4,2.170975E4,3.6505E4,3.59585E4,2.6735E4,1.8828531E4,3.3153625E4,2.2329625E4,9.478928E3,0E0,3.2961E4,3.024975E4,5.0908E4,2.224536E4,3.75735E4,6.2813625E4,3.7761625E4,7.073282E4,2.6661438E4,5.9020344E4,2.9361727E4,1.6034695E4,3.5860246E4,3.25532E4,3.0068E4,1.25715E4,2.949925E4,4.417625E4,4.0405875E4,2.9353945E4,3.8473E4,9.6108E4,1.292437E5,4.625467E4,5.9096625E4,5.263668E4,4.1501598E4,4.997525E4,1.02438734E5,2.6386344E4,5.5356375E4,3.74795E4,8.582231E4,5.1207E4,1.29429266E5,6.0275375E4,9.581759E4,4.4351562E4,6.5852E4,2.436E4,1.3408788E5,1.9030169E5,1.59652E5,1.45254E5,1.261435E5,6.5867E4,1.03589E5,7.1858E4,0E0,0E0,0E0,0E0,0E0,0E0,0E0,0E0,0E0,0E0,0E0,0E0,0E0,0E0,0E0,0E0,0E0,0E0,0E0,0E0,0E0,0E0,0E0,0E0,0E0,0E0,0E0,0E0,0E0,0E0,0E0,0E0,0E0,0E0,0E0,0E0,0E0,0E0,0E0,0E0,0E0,0E0,0E0,0E0,0E0,0E0,0E0,0E0,0E0,0E0,0E0,0E0,0E0,0E0,0E0,0E0,0E0,0E0,0E0,0E0,0E0,0E0,0E0,0E0,0E0,0E0,0E0,0E0,0E0,0E0,0E0,0E0,0E0,0E0,0E0,0E0,0E0,0E0,0E0,0E0,0E0,0E0,0E0,0E0,0E0,0E0,0E0,0E0,0E0,0E0,0E0,0E0,0E0,0E0,0E0,0E0,0E0,0E0,0E0,0E0,0E0,0E0,0E0,0E0,0E0,0E0,0E0,0E0,0E0,0E0,0E0,0E0,0E0,0E0,0E0,0E0,0E0,0E0,0E0,0E0,0E0,0E0,0E0,0E0],"parents":[2147483647,0,0,1,1,2,2,3,3,4,4,5,5,6,6,7,7,8,8,9,9,10,10,11,11,12,12,13,13,14,14,15,15,16,16,17,17,18,18,19,19,20,20,21,21,22,22,23,23,24,24,25,25,26,26,27,27,28,28,29,29,30,30,31,31,32,32,33,33,34,34,35,35,36,36,37,37,38,38,39,39,40,40,41,41,42,42,43,43,44,44,45,45,46,46,47,47,48,48,49,49,50,50,51,51,52,52,53,53,54,54,55,55,56,56,57,57,58,58,59,59,60,60,61,61,62,62,63,63,64,64,65,65,67,67,68,68,69,69,70,70,71,71,72,72,73,73,74,74,75,75,76,76,77,77,79,79,80,80,81,81,82,82,83,83,84,84,85,85,86,86,87,87,88,88,89,89,90,90,91,91,92,92,93,93,94,94,95,95,96,96,97,97,98,98,99,99,100,100,101,101,102,102,103,103,104,104,105,105,106,106,107,107,108,108,109,109,110,110,111,111,112,112,113,113,114,114,115,115,116,116,117,117,118,118,119,119,120,120,121,121,122,122,123,123,124,124,125,125,126,126],"right_children":[2,4,6,8,10,12,14,16,18,20,22,24,26,28,30,32,34,36,38,40,42,44,46,48,50,52,54,56,58,60,62,64,66,68,70,72,74,76,78,80,82,84,86,88,90,92,94,96,98,100,102,104,106,108,110,112,114,116,118,120,122,124,126,128,130,132,-1,134,136,138,140,142,144,146,148,150,152,154,-1,156,158,160,162,164,166,168,170,172,174,176,178,180,182,184,186,188,190,192,194,196,198,200,202,204,206,208,210,212,214,216,218,220,222,224,226,228,230,232,234,236,238,240,242,244,246,248,250,-1,-1,-1,-1,-1,-1,-1,-1,-1,-1,-1,-1,-1,-1,-1,-1,-1,-1,-1,-1,-1,-1,-1,-1,-1,-1,-1,-1,-1,-1,-1,-1,-1,-1,-1,-1,-1,-1,-1,-1,-1,-1,-1,-1,-1,-1,-1,-1,-1,-1,-1,-1,-1,-1,-1,-1,-1,-1,-1,-1,-1,-1,-1,-1,-1,-1,-1,-1,-1,-1,-1,-1,-1,-1,-1,-1,-1,-1,-1,-1,-1,-1,-1,-1,-1,-1,-1,-1,-1,-1,-1,-1,-1,-1,-1,-1,-1,-1,-1,-1,-1,-1,-1,-1,-1,-1,-1,-1,-1,-1,-1,-1,-1,-1,-1,-1,-1,-1,-1,-1,-1,-1,-1,-1],"split_conditions":[5E0,1.3E1,8E0,1.1E1,1.7E1,1.8E1,1.7E1,9E0,1.4E1,5E0,1.9E1,1.5E1,9E0,1.1E1,2E1,8E0,9E0,1.2E1,2.2E1,1.3E1,9E0,1E1,1.1E1,5E0,1.8E1,1.9E1,1.8E1,1.8E1,1.8E1,1E1,2E1,7E0,1.2E1,2E0,1.1E1,8E0,8E0,1.4E1,1.8E1,4E0,7E0,1.4E1,1.9E1,1.5E1,1.2E1,2.3E1,1.3E1,1.2E1,2E1,5E0,1.2E1,2E1,8E0,2.2E1,1.1E1,2E1,1E1,1.9E1,2.1E1,1.7E1,1.9E1,2E1,2.2E1,8E0,8E0,1.1E1,-5.7615337E0,1.2E1,8E0,4E0,1.9E1,1.6E1,6E0,4E0,2.2E1,5E0,1.6E1,9E0,2.9303627E0,1.3E1,7E0,5E0,1.2E1,4E0,2E1,6E0,2.1E1,1.5E1,2E1,1.5E1,1.5E1,9E0,8E0,8E0,2.7E1,5E0,4E0,1.8E1,1.7E1,1.3E1,2E1,1.7E1,1.8E1,9E0,1.7E1,1.6E1,1.8E1,2E1,7E0,8E0,2.2E1,1.2E1,1.9E1,1.7E1,2.1E1,1.1E1,1.1E1,7E0,2.3E1,1.2E1,1E1,1.9E1,2E1,1.2E1,2E1,2E1,2.1E1,-7.8320084E0,-7.2650833E0,-7.351514E0,-6.791421E0,-7.0303903E0,-6.1654067E0,-7.0825534E0,-6.3077154E0,-6.592771E0,-5.794295E0,-6.0802455E0,-5.0848656E0,-5.120199E0,-2.5920243E0,-6.563064E0,1.6409382E0,-5.674062E0,-3.8570294E0,-5.0659595E0,-4.1811213E0,-3.1288602E0,2.243607E0,-4.69801E0,-3.3494332E0,-3.2925794E0,-2.1493683E0,-1.9271106E0,9.6560605E-2,-5.6985087E0,-4.579683E0,-4.5653987E0,-3.210638E0,-4.2673287E0,-3.130017E0,-2.3122005E0,7.134594E-1,-3.992204E0,-3.0266273E0,-2.6878574E0,-1.1917261E0,-2.5073504E0,-1.2479821E0,-2.3086913E-1,3.0587447E0,-3.6423154E0,-2.3009613E0,-1.901866E0,-4.0099692E-1,-2.1359844E0,-3.880375E-1,8.5246843E-1,2.3930042E0,-1.0231794E0,2.2368638E-1,-1.14772476E-1,2.1266427E0,-1.4029153E-1,1.6580305E0,2.3093324E0,3.3620083E0,-5.49346E0,-3.853077E0,-4.4873567E0,-3.2332578E0,-3.215121E0,-2.104101E0,-2.1761122E0,-1.791532E-1,-3.974634E0,-2.6459396E0,-1.9871994E0,-5.4667664E-1,-1.5365937E0,-1.1759295E-1,-2.2373836E-2,1.6828158E0,-2.0445573E0,-9.686352E-1,-3.8936192E-1,1.9708071E0,-1.6450275E0,-1.5376376E-1,1.0928484E-2,1.216627E0,-6.1123973E-1,9.395714E-1,1.5778022E-1,1.9887804E0,2.023257E-1,1.4322001E0,1.6768467E0,2.3092453E0,-2.3438466E0,-8.399046E-1,-1.0846668E0,6.9994557E-1,-1.977759E0,1.0640345E-1,5.5069065E-1,1.772198E0,-1.062322E0,5.8745956E-1,4.3035656E-1,1.5648527E0,-2.7150467E-1,1.4423484E0,1.8159688E0,2.3288207E0,-1.1005356E0,5.069333E-1,3.6631948E-1,1.5435605E0,7.6215464E-1,1.6714696E0,1.6935428E0,2.2181432E0,1.0391889E0,1.8528699E0,1.831975E0,2.2774274E0,1.9153441E0,2.3493314E0,2.3303545E0,2.6814992E0],"split_indices":[27,0,28,1,13,0,2,2,3,17,10,1,24,16,6,5,4,2,4,4,16,18,24,20,3,8,10,4,10,29,5,0,3,16,8,4,17,5,18,16,25,10,2,5,28,13,23,3,3,20,29,1,29,5,23,3,29,0,3,10,0,12,3,8,6,8,0,2,3,22,2,20,15,22,4,24,4,25,0,6,16,18,24,16,0,29,15,8,2,4,29,18,21,29,13,16,15,12,6,6,6,10,4,21,15,5,3,12,23,17,5,15,10,0,4,22,27,24,0,16,24,8,13,29,0,1,2,0,0,0,0,0,0,0,0,0,0,0,0,0,0,0,0,0,0,0,0,0,0,0,0,0,0,0,0,0,0,0,0,0,0,0,0,0,0,0,0,0,0,0,0,0,0,0,0,0,0,0,0,0,0,0,0,0,0,0,0,0,0,0,0,0,0,0,0,0,0,0,0,0,0,0,0,0,0,0,0,0,0,0,0,0,0,0,0,0,0,0,0,0,0,0,0,0,0,0,0,0,0,0,0,0,0,0,0,0,0,0,0,0,0,0,0,0,0,0,0,0,0,0,0],"split_type":[0,0,0,0,0,0,0,0,0,0,0,0,0,0,0,0,0,0,0,0,0,0,0,0,0,0,0,0,0,0,0,0,0,0,0,0,0,0,0,0,0,0,0,0,0,0,0,0,0,0,0,0,0,0,0,0,0,0,0,0,0,0,0,0,0,0,0,0,0,0,0,0,0,0,0,0,0,0,0,0,0,0,0,0,0,0,0,0,0,0,0,0,0,0,0,0,0,0,0,0,0,0,0,0,0,0,0,0,0,0,0,0,0,0,0,0,0,0,0,0,0,0,0,0,0,0,0,0,0,0,0,0,0,0,0,0,0,0,0,0,0,0,0,0,0,0,0,0,0,0,0,0,0,0,0,0,0,0,0,0,0,0,0,0,0,0,0,0,0,0,0,0,0,0,0,0,0,0,0,0,0,0,0,0,0,0,0,0,0,0,0,0,0,0,0,0,0,0,0,0,0,0,0,0,0,0,0,0,0,0,0,0,0,0,0,0,0,0,0,0,0,0,0,0,0,0,0,0,0,0,0,0,0,0,0,0,0,0,0,0,0,0,0,0,0,0,0,0,0,0,0],"sum_hessian":[5.2662E4,1.1759E4,4.0903E4,7.859E3,3.9E3,6.634E3,3.4269E4,5.793E3,2.066E3,2.627E3,1.273E3,2.987E3,3.647E3,4.504E3,2.9765E4,4.024E3,1.769E3,1.557E3,5.09E2,1.361E3,1.266E3,6.93E2,5.8E2,1.15E3,1.837E3,1.436E3,2.211E3,1.504E3,3E3,1.0036E4,1.9729E4,2.735E3,1.289E3,9.23E2,8.46E2,9.88E2,5.69E2,4.76E2,3.3E1,7.8E2,5.81E2,8.87E2,3.79E2,4.9E2,2.03E2,3.06E2,2.74E2,5.92E2,5.58E2,9.75E2,8.62E2,7.89E2,6.47E2,6.52E2,1.559E3,7.45E2,7.59E2,8.06E2,2.194E3,2.07E3,7.966E3,6.061E3,1.3668E4,1.592E3,1.143E3,1.155E3,1.34E2,5.45E2,3.78E2,5.51E2,2.95E2,3.52E2,6.36E2,5.03E2,6.6E1,2.57E2,2.19E2,2.2E1,1.1E1,5.19E2,2.61E2,4.68E2,1.13E2,4.64E2,4.23E2,2.45E2,1.34E2,1.66E2,3.24E2,1.3E2,7.3E1,2.3E2,7.6E1,1.3E2,1.44E2,2.71E2,3.21E2,4.85E2,7.3E1,2.8E2,6.95E2,6.51E2,2.11E2,5.75E2,2.14E2,2.25E2,4.22E2,4.86E2,1.66E2,5.84E2,9.75E2,5.86E2,1.59E2,3.43E2,4.16E2,3.6E2,4.46E2,1.078E3,1.116E3,5.42E2,1.528E3,2.167E3,5.799E3,2.181E3,3.88E3,6.574E3,7.094E3,1.303E3,2.89E2,7.95E2,3.48E2,1.012E3,1.43E2,4.27E2,1.18E2,1.62E2,2.16E2,4.53E2,9.8E1,2.83E2,1.2E1,3.51E2,1E0,5.98E2,3.8E1,3.29E2,1.74E2,6.5E1,1E0,1.77E2,8E1,1.46E2,7.3E1,1.1E1,1.1E1,4.05E2,1.14E2,1.93E2,6.8E1,2.94E2,1.74E2,1.07E2,6E0,1.94E2,2.7E2,3.31E2,9.2E1,1.22E2,1.23E2,1.16E2,1.8E1,7.8E1,8.8E1,2.32E2,9.2E1,3.1E1,9.9E1,4.5E1,2.8E1,1.22E2,1.08E2,2.3E1,5.3E1,3E1,1E2,8.6E1,5.8E1,2.27E2,4.4E1,1.39E2,1.82E2,3.69E2,1.16E2,3.6E1,3.7E1,8.5E1,1.95E2,5.47E2,1.48E2,2.85E2,3.66E2,5.3E1,1.58E2,3.78E2,1.97E2,1.88E2,2.6E1,6.5E1,1.6E2,1.2E2,3.02E2,3.3E2,1.56E2,2.3E1,1.43E2,1.14E2,4.7E2,4.96E2,4.79E2,4.65E2,1.21E2,8.2E1,7.7E1,1.08E2,2.35E2,1.76E2,2.4E2,1.5E2,2.1E2,1.18E2,3.28E2,5.9E1,1.019E3,7.5E2,3.66E2,3.29E2,2.13E2,5.22E2,1.006E3,7.31E2,1.436E3,2.08E3,3.719E3,7.12E2,1.469E3,1.264E3,2.616E3,2.023E3,4.551E3,2.18E3,4.914E3],"tree_param":{"num_deleted":"0","num_feature":"30","num_nodes":"251","size_leaf_vector":"1"}},{"base_weights":[-5.987848E-3,-1.0202959E2,2.6372152E1,-1.2309917E2,-5.130978E1,-1.6188602E1,3.5248867E1,-1.3201462E2,-9.617585E1,-7.3042244E1,-1.3866664E1,-4.4275497E1,1.1616467E1,1.8044811E1,3.992781E1,-1.3995943E2,-1.2048936E2,-1.1019336E2,-7.704929E1,-8.520972E1,-4.625443E1,-3.3844177E1,1.2336812E1,-6.536309E1,-2.365072E1,-6.574121E0,2.9651007E1,-1.2170696E1,2.5556164E1,3.2326218E1,4.387941E1,-1.4510306E2,-1.3240475E2,-1.2539013E2,-1.03139084E2,-1.190546E2,-9.8973305E1,-8.412933E1,-3.445514E1,-9.655786E1,-6.908688E1,-5.5011543E1,-1.9063192E1,-4.302261E1,-3.7384946E0,-2.0120636E1,2.292541E1,-8.3925476E1,-4.898814E1,-3.8665665E1,-7.637477E0,-2.6519358E1,8.722349E0,7.643415E0,3.643896E1,-2.9745255E1,8.645601E0,9.304979E0,3.220269E1,1.610236E1,3.6151844E1,3.7881588E1,4.6444084E1,-1.486187E2,-1.3838501E2,-1.338663E2,-1.0817472E2,-1.3277136E2,-1.17871704E2,-1.07192184E2,-7.444271E1,-1.1982387E2,-3.5889763E1,-1.0700795E2,-8.8110825E1,-9.1148224E1,-6.5339676E1,-4.550187E1,5.0067375E1,-1.0499939E2,-8.214212E1,-7.533302E1,-4.628048E1,-6.609926E1,-4.383321E1,-2.7809425E1,1.6818819E1,-5.411913E1,-2.7524961E1,-1.3786929E1,4.7033943E1,-3.507265E1,-4.5311555E-1,3.4548237E0,3.367559E1,-9.745006E1,-7.0713326E1,-5.710918E1,-2.823003E1,-5.2032345E1,-2.7585789E1,-1.878647E1,1.44603195E1,-4.1218884E1,-1.2625435E1,-5.4289656E0,2.1667063E1,-1.5324306E1,1.761394E1,2.8805212E1,4.555878E1,-3.606099E1,5.6492443E0,-1.14441395E1,2.1626684E1,-6.788372E0,2.1142778E1,2.1013262E1,3.6407406E1,2.6370528E0,2.9074299E1,2.723125E1,3.9495964E1,2.9802671E1,4.0863117E1,4.127124E1,4.8374916E1,-7.436078E0,-2.721839E0,-6.927677E0,-4.9768487E-1,-6.950393E0,-6.4342813E0,-5.5781503E0,-2.7483022E0,-6.8486605E0,-6.2788234E0,-6.1308265E0,-5.340156E0,-5.5669217E0,-4.7113547E0,-3.9663112E0,1.4774339E-1,-6.3194213E0,-5.5351424E0,1.1592705E0,-2.4799929E0,-5.4435053E0,-4.0237627E0,-4.5004973E0,-2.018387E0,-4.8928995E0,-3.9995592E0,-3.4273682E0,-9.829988E-1,-2.8049161E0,-1.458254E0,2.8079622E0,-7.281715E-1,-5.637824E0,-4.73652E0,-4.3748813E0,-3.079262E0,-4.005508E0,-2.5972521E0,-2.487681E0,1.5737275E0,-3.6290548E0,-2.7044709E0,-2.2664204E0,2.785774E0,-1.7968409E0,-4.483014E-1,-1.6922998E0,1.5166107E0,-3.3966653E0,-2.1922715E0,-1.4940891E0,1.1771166E0,-1.0901052E0,6.962114E-1,-9.604994E-1,2.8254838E0,-1.9773673E0,5.744227E-1,-4.709564E-1,1.623001E0,-8.941054E-1,8.158026E-1,9.606196E-1,2.180873E0,-5.183006E0,-3.7496572E0,-3.9084451E0,-2.8768098E0,-3.1801794E0,-2.1905103E0,-2.006109E0,-7.152217E-1,-3.179511E0,-2.1786783E0,-1.8821758E0,-7.7209634E-1,-1.2511431E0,1.3771057E0,-7.2360563E-1,1.0199863E0,-2.4855447E0,-1.1714784E0,-1.1012009E0,3.7127998E-1,-7.4407303E-1,6.9006395E-1,3.5448077E-1,1.439696E0,-1.8143082E0,-4.2316338E-1,-1.8894224E-1,1.2365018E0,8.2574236E-1,1.8253626E0,2.0756862E0,2.702305E0,-2.1271036E0,-7.120728E-1,-3.307043E-1,1.3390073E0,-1.7598647E0,-1.3906468E-1,-9.430371E-2,1.4302436E0,-1.2101525E0,3.2651412E-1,3.54672E-1,1.4272797E0,2.2566314E-1,1.3330923E0,1.3418063E0,1.9904784E0,-4.5906544E-1,8.801093E-1,9.223958E-1,1.8737873E0,8.8874686E-1,1.7112223E0,1.7197901E0,2.110459E0,7.830145E-1,1.7142105E0,1.6971855E0,2.1546724E0,1.8402855E0,2.2317674E0,2.1926801E0,2.4989607E0],"categories":[],"categories_nodes":[],"categories_segments":[],"categories_sizes":[],"default_left":[1,1,1,0,0,0,0,1,0,1,1,0,1,1,0,1,1,0,0,1,0,0,0,0,1,0,0,0,0,0,0,0,1,1,0,1,1,1,0,0,1,1,0,1,0,0,0,1,0,0,0,0,1,0,0,0,0,1,0,0,0,0,0,1,1,0,1,1,1,1,1,1,0,0,1,1,0,1,1,1,1,0,0,1,1,0,0,0,0,1,0,0,0,0,0,1,0,1,0,1,0,1,0,0,1,0,0,0,1,0,0,0,0,0,0,1,0,0,0,0,0,0,0,0,0,0,0,0,0,0,0,0,0,0,0,0,0,0,0,0,0,0,0,0,0,0,0,0,0,0,0,0,0,0,0,0,0,0,0,0,0,0,0,0,0,0,0,0,0,0,0,0,0,0,0,0,0,0,0,0,0,0,0,0,0,0,0,0,0,0,0,0,0,0,0,0,0,0,0,0,0,0,0,0,0,0,0,0,0,0,0,0,0,0,0,0,0,0,0,0,0,0,0,0,0,0,0,0,0,0,0,0,0,0,0,0,0,0,0,0,0,0,0,0,0,0,0,0,0,0,0,0,0,0,0],"id":2,"left_children":[1,3,5,7,9,11,13,15,17,19,21,23,25,27,29,31,33,35,37,39,41,43,45,47,49,51,53,55,57,59,61,63,65,67,69,71,73,75,77,79,81,83,85,87,89,91,93,95,97,99,101,103,105,107,109,111,113,115,117,119,121,123,125,127,129,131,133,135,137,139,141,143,145,147,149,151,153,155,157,159,161,163,165,167,169,171,173,175,177,179,181,183,185,187,189,191,193,195,197,199,201,203,205,207,209,211,213,215,217,219,221,223,225,227,229,231,233,235,237,239,241,243,245,247,249,251,253,-1,-1,-1,-1,-1,-1,-1,-1,-1,-1,-1,-1,-1,-1,-1,-1,-1,-1,-1,-1,-1,-1,-1,-1,-1,-1,-1,-1,-1,-1,-1,-1,-1,-1,-1,-1,-1,-1,-1,-1,-1,-1,-1,-1,-1,-1,-1,-1,-1,-1,-1,-1,-1,-1,-1,-1,-1,-1,-1,-1,-1,-1,-1,-1,-1,-1,-1,-1,-1,-1,-1,-1,-1,-1,-1,-1,-1,-1,-1,-1,-1,-1,-1,-1,-1,-1,-1,-1,-1,-1,-1,-1,-1,-1,-1,-1,-1,-1,-1,-1,-1,-1,-1,-1,-1,-1,-1,-1,-1,-1,-1,-1,-1,-1,-1,-1,-1,-1,-1,-1,-1,-1,-1,-1,-1,-1,-1,-1],"loss_changes":[1.4172898E8,1.1555352E7,1.5809602E7,1.821872E6,2.5842115E6,5.640594E6,2.7864E6,5.0864E5,5.02254E5,6.51197E5,6.118425E5,1.561147E6,1.1910488E6,1.6809445E6,8.16228E5,1.12556E5,1.868E5,9.7284E4,2.4107E5,2.46003E5,1.48965E5,1.8304125E5,1.7436278E5,5.357175E5,4.3682088E5,5.518372E5,2.7205312E5,5.398671E5,6.40331E5,5.77505E5,2.73692E5,2.6832E4,3.4564E4,8.574E4,5.28505E4,3.4597E4,3.3337E4,8.5439E4,1.11520766E5,8.9701E4,7.8281E4,5.6099125E4,4.9111754E4,8.5871125E4,8.023708E4,3.674274E4,7.9840984E4,1.415995E5,1.57862E5,1.374835E5,2.1732203E5,1.5980331E5,1.8769878E5,9.8969016E4,9.5666125E4,1.7903744E5,1.7653925E5,3.28392E5,1.97262E5,3.1066325E5,2.23734E5,1.28108E5,1.23242E5,4.538E3,1.3858E4,1.6794E4,9.011875E3,1.0432E4,3.4907E4,1.4022E4,2.5936531E4,2.2053E4,6.8194766E3,4.9245E3,1.576975E4,2.97525E4,2.6785375E4,1.6367547E4,6.3299805E3,2.9625E4,2.7969625E4,4.600425E4,3.559275E4,1.45235E4,3.824822E4,1.882125E4,2.2250887E4,3.8888688E4,2.645975E4,2.9399953E4,1.7406E4,1.5246945E4,1.653622E4,3.788718E4,3.4534656E4,4.91255E4,3.71575E4,5.5858E4,4.380828E4,3.8681625E4,6.2320656E4,1.6999816E5,5.1160297E4,5.6391812E4,7.6486336E4,8.927454E4,5.5377766E4,1.8533336E4,4.5915617E4,7.143406E4,1.9488375E4,9.5414375E4,3.1791621E4,5.4636906E4,6.748936E4,1.6970627E5,1.0307416E5,1.0724797E5,9.85095E4,1.5474017E5,8.019356E4,1.3548688E5,7.4366E4,9.1427E4,5.90175E4,4.9659E4,6.3998E4,0E0,0E0,0E0,0E0,0E0,0E0,0E0,0E0,0E0,0E0,0E0,0E0,0E0,0E0,0E0,0E0,0E0,0E0,0E0,0E0,0E0,0E0,0E0,0E0,0E0,0E0,0E0,0E0,0E0,0E0,0E0,0E0,0E0,0E0,0E0,0E0,0E0,0E0,0E0,0E0,0E0,0E0,0E0,0E0,0E0,0E0,0E0,0E0,0E0,0E0,0E0,0E0,0E0,0E0,0E0,0E0,0E0,0E0,0E0,0E0,0E0,0E0,0E0,0E0,0E0,0E0,0E0,0E0,0E0,0E0,0E0,0E0,0E0,0E0,0E0,0E0,0E0,0E0,0E0,0E0,0E0,0E0,0E0,0E0,0E0,0E0,0E0,0E0,0E0,0E0,0E0,0E0,0E0,0E0,0E0,0E0,0E0,0E0,0E0,0E0,0E0,0E0,0E0,0E0,0E0,0E0,0E0,0E0,0E0,0E0,0E0,0E0,0E0,0E0,0E0,0E0,0E0,0E0,0E0,0E0,0E0,0E0,0E0,0E0,0E0,0E0,0E0,0E0],"parents":[2147483647,0,0,1,1,2,2,3,3,4,4,5,5,6,6,7,7,8,8,9,9,10,10,11,11,12,12,13,13,14,14,15,15,16,16,17,17,18,18,19,19,20,20,21,21,22,22,23,23,24,24,25,25,26,26,27,27,28,28,29,29,30,30,31,31,32,32,33,33,34,34,35,35,36,36,37,37,38,38,39,39,40,40,41,41,42,42,43,43,44,44,45,45,46,46,47,47,48,48,49,49,50,50,51,51,52,52,53,53,54,54,55,55,56,56,57,57,58,58,59,59,60,60,61,61,62,62,63,63,64,64,65,65,66,66,67,67,68,68,69,69,70,70,71,71,72,72,73,73,74,74,75,75,76,76,77,77,78,78,79,79,80,80,81,81,82,82,83,83,84,84,85,85,86,86,87,87,88,88,89,89,90,90,91,91,92,92,93,93,94,94,95,95,96,96,97,97,98,98,99,99,100,100,101,101,102,102,103,103,104,104,105,105,106,106,107,107,108,108,109,109,110,110,111,111,112,112,113,113,114,114,115,115,116,116,117,117,118,118,119,119,120,120,121,121,122,122,123,123,124,124,125,125,126,126],"right_children":[2,4,6,8,10,12,14,16,18,20,22,24,26,28,30,32,34,36,38,40,42,44,46,48,50,52,54,56,58,60,62,64,66,68,70,72,74,76,78,80,82,84,86,88,90,92,94,96,98,100,102,104,106,108,110,112,114,116,118,120,122,124,126,128,130,132,134,136,138,140,142,144,146,148,150,152,154,156,158,160,162,164,166,168,170,172,174,176,178,180,182,184,186,188,190,192,194,196,198,200,202,204,206,208,210,212,214,216,218,220,222,224,226,228,230,232,234,236,238,240,242,244,246,248,250,252,254,-1,-1,-1,-1,-1,-1,-1,-1,-1,-1,-1,-1,-1,-1,-1,-1,-1,-1,-1,-1,-1,-1,-1,-1,-1,-1,-1,-1,-1,-1,-1,-1,-1,-1,-1,-1,-1,-1,-1,-1,-1,-1,-1,-1,-1,-1,-1,-1,-1,-1,-1,-1,-1,-1,-1,-1,-1,-1,-1,-1,-1,-1,-1,-1,-1,-1,-1,-1,-1,-1,-1,-1,-1,-1,-1,-1,-1,-1,-1,-1,-1,-1,-1,-1,-1,-1,-1,-1,-1,-1,-1,-1,-1,-1,-1,-1,-1,-1,-1,-1,-1,-1,-1,-1,-1,-1,-1,-1,-1,-1,-1,-1,-1,-1,-1,-1,-1,-1,-1,-1,-1,-1,-1,-1,-1,-1,-1,-1],"split_conditions":[5E0,1.3E1,8E0,1.1E1,1.6E1,1.7E1,1.8E1,8E0,1.1E1,6E0,9E0,1.6E1,1.1E1,9E0,2E1,7E0,1.1E1,1E1,1.7E1,4E0,1.8E1,2E1,7E0,1.4E1,9E0,1.8E1,1.8E1,1.9E1,1.8E1,1E1,2E1,7E0,1.2E1,8E0,1.5E1,8E0,4E0,1.4E1,2.5E1,1.2E1,7E0,5E0,1.2E1,1.7E1,2.4E1,1.9E1,9E0,4E0,1.7E1,1.5E1,1.9E1,1.6E1,1E1,1.7E1,2.2E1,2.1E1,1.8E1,1.1E1,1.9E1,2E1,1.9E1,1.9E1,2E1,1.6E1,1.5E1,7E0,6E0,8E0,3E0,1.2E1,1E1,9E0,4E0,1.5E1,9E0,4E0,2E1,7E0,2.1E1,1.1E1,6E0,1.7E1,1.5E1,5E0,2.6E1,1.9E1,1.7E1,1.4E1,1.5E1,1.1E1,8E0,2.3E1,1.4E1,9E0,2E1,5E0,1.4E1,8E0,1.7E1,5E0,1.7E1,1.9E1,7E0,1.8E1,1E1,1.1E1,9E0,1.6E1,8E0,2E1,1.7E1,2E1,2.1E1,1.5E1,8E0,9E0,1.9E1,1.8E1,1.9E1,2E1,1.2E1,2E1,2E1,1.8E1,1.2E1,2.1E1,2E1,-7.436078E0,-2.721839E0,-6.927677E0,-4.9768487E-1,-6.950393E0,-6.4342813E0,-5.5781503E0,-2.7483022E0,-6.8486605E0,-6.2788234E0,-6.1308265E0,-5.340156E0,-5.5669217E0,-4.7113547E0,-3.9663112E0,1.4774339E-1,-6.3194213E0,-5.5351424E0,1.1592705E0,-2.4799929E0,-5.4435053E0,-4.0237627E0,-4.5004973E0,-2.018387E0,-4.8928995E0,-3.9995592E0,-3.4273682E0,-9.829988E-1,-2.8049161E0,-1.458254E0,2.8079622E0,-7.281715E-1,-5.637824E0,-4.73652E0,-4.3748813E0,-3.079262E0,-4.005508E0,-2.5972521E0,-2.487681E0,1.5737275E0,-3.6290548E0,-2.7044709E0,-2.2664204E0,2.785774E0,-1.7968409E0,-4.483014E-1,-1.6922998E0,1.5166107E0,-3.3966653E0,-2.1922715E0,-1.4940891E0,1.1771166E0,-1.0901052E0,6.962114E-1,-9.604994E-1,2.8254838E0,-1.9773673E0,5.744227E-1,-4.709564E-1,1.623001E0,-8.941054E-1,8.158026E-1,9.606196E-1,2.180873E0,-5.183006E0,-3.7496572E0,-3.9084451E0,-2.8768098E0,-3.1801794E0,-2.1905103E0,-2.006109E0,-7.152217E-1,-3.179511E0,-2.1786783E0,-1.8821758E0,-7.7209634E-1,-1.2511431E0,1.3771057E0,-7.2360563E-1,1.0199863E0,-2.4855447E0,-1.1714784E0,-1.1012009E0,3.7127998E-1,-7.4407303E-1,6.9006395E-1,3.5448077E-1,1.439696E0,-1.8143082E0,-4.2316338E-1,-1.8894224E-1,1.2365018E0,8.2574236E-1,1.8253626E0,2.0756862E0,2.702305E0,-2.1271036E0,-7.120728E-1,-3.307043E-1,1.3390073E0,-1.7598647E0,-1.3906468E-1,-9.430371E-2,1.4302436E0,-1.2101525E0,3.2651412E-1,3.54672E-1,1.4272797E0,2.2566314E-1,1.3330923E0,1.3418063E0,1.9904784E0,-4.5906544E-1,8.801093E-1,9.223958E-1,1.8737873E0,8.8874686E-1,1.7112223E0,1.7197901E0,2.110459E0,7.830145E-1,1.7142105E0,1.6971855E0,2.1546724E0,1.8402855E0,2.2317674E0,2.1926801E0,2.4989607E0],"split_indices":[18,0,26,1,14,14,14,4,11,17,16,0,16,17,13,7,7,4,12,19,6,4,23,1,16,12,7,0,13,27,4,1,10,0,4,15,16,13,14,10,20,26,25,11,10,13,25,17,10,13,13,11,17,13,12,12,12,27,1,10,0,1,0,10,14,6,17,6,17,11,20,7,12,13,17,17,10,19,1,1,16,6,15,21,15,13,7,7,27,24,20,7,26,20,6,20,12,17,4,20,12,17,17,1,25,15,25,0,20,6,15,1,7,10,22,25,0,4,11,6,16,1,11,7,17,6,8,0,0,0,0,0,0,0,0,0,0,0,0,0,0,0,0,0,0,0,0,0,0,0,0,0,0,0,0,0,0,0,0,0,0,0,0,0,0,0,0,0,0,0,0,0,0,0,0,0,0,0,0,0,0,0,0,0,0,0,0,0,0,0,0,0,0,0,0,0,0,0,0,0,0,0,0,0,0,0,0,0,0,0,0,0,0,0,0,0,0,0,0,0,0,0,0,0,0,0,0,0,0,0,0,0,0,0,0,0,0,0,0,0,0,0,0,0,0,0,0,0,0,0,0,0,0,0,0],"split_type":[0,0,0,0,0,0,0,0,0,0,0,0,0,0,0,0,0,0,0,0,0,0,0,0,0,0,0,0,0,0,0,0,0,0,0,0,0,0,0,0,0,0,0,0,0,0,0,0,0,0,0,0,0,0,0,0,0,0,0,0,0,0,0,0,0,0,0,0,0,0,0,0,0,0,0,0,0,0,0,0,0,0,0,0,0,0,0,0,0,0,0,0,0,0,0,0,0,0,0,0,0,0,0,0,0,0,0,0,0,0,0,0,0,0,0,0,0,0,0,0,0,0,0,0,0,0,0,0,0,0,0,0,0,0,0,0,0,0,0,0,0,0,0,0,0,0,0,0,0,0,0,0,0,0,0,0,0,0,0,0,0,0,0,0,0,0,0,0,0,0,0,0,0,0,0,0,0,0,0,0,0,0,0,0,0,0,0,0,0,0,0,0,0,0,0,0,0,0,0,0,0,0,0,0,0,0,0,0,0,0,0,0,0,0,0,0,0,0,0,0,0,0,0,0,0,0,0,0,0,0,0,0,0,0,0,0,0,0,0,0,0,0,0,0,0,0,0,0,0,0,0,0,0,0,0],"sum_hessian":[5.2662E4,1.0818E4,4.1844E4,7.642E3,3.176E3,7.221E3,3.4623E4,5.738E3,1.904E3,2.009E3,1.167E3,3.592E3,3.629E3,7.404E3,2.7219E4,3.39E3,2.348E3,1.096E3,8.08E2,1.38E3,6.29E2,6.62E2,5.05E2,1.775E3,1.817E3,1.807E3,1.822E3,1.474E3,5.93E3,9.313E3,1.7906E4,2.006E3,1.384E3,1.826E3,5.22E2,6.07E2,4.89E2,6.92E2,1.16E2,8.07E2,5.73E2,4.75E2,1.54E2,5.07E2,1.55E2,1.24E2,3.81E2,8.3E2,9.45E2,9.37E2,8.8E2,7.84E2,1.023E3,4.3E2,1.392E3,7.99E2,6.75E2,1.722E3,4.208E3,1.778E3,7.535E3,5.368E3,1.2538E4,1.303E3,7.03E2,1.301E3,8.3E1,9.13E2,9.13E2,4.55E2,6.7E1,6.01E2,6E0,2.76E2,2.13E2,5.01E2,1.91E2,1.03E2,1.3E1,5.05E2,3.02E2,4.48E2,1.25E2,2.36E2,2.39E2,1.24E2,3E1,2.94E2,2.13E2,1.3E2,2.5E1,7E1,5.4E1,1.36E2,2.45E2,4.07E2,4.23E2,6.78E2,2.67E2,4.23E2,5.14E2,5.85E2,2.95E2,3.8E2,4.04E2,4.89E2,5.34E2,1.3E2,3E2,7.6E2,6.32E2,6.78E2,1.21E2,2.65E2,4.1E2,7.3E2,9.92E2,1.151E3,3.057E3,8.73E2,9.05E2,2.057E3,5.478E3,1.45E3,3.918E3,3.414E3,9.124E3,1.301E3,2E0,7.02E2,1E0,6.4E2,6.61E2,7.7E1,6E0,5.65E2,3.48E2,6.32E2,2.81E2,3.39E2,1.16E2,6.3E1,4E0,3.42E2,2.59E2,1E0,5E0,2.55E2,2.1E1,2.04E2,9E0,3.08E2,1.93E2,1.78E2,1.3E1,6.1E1,4.2E1,1.2E1,1E0,2.82E2,2.23E2,2.37E2,6.5E1,3.7E2,7.8E1,1.2E2,5E0,1.5E2,8.6E1,2.36E2,3E0,8.6E1,3.8E1,6E0,2.4E1,1.23E2,1.71E2,2.04E2,9E0,1.01E2,2.9E1,3E0,2.2E1,6.4E1,6E0,4.3E1,1.1E1,5.1E1,8.5E1,1.01E2,1.44E2,3.16E2,9.1E1,2.67E2,1.56E2,4.53E2,2.25E2,1.43E2,1.24E2,1.76E2,2.47E2,2.8E2,2.34E2,5.16E2,6.9E1,5E1,2.45E2,2.56E2,1.24E2,2.75E2,1.29E2,3.28E2,1.61E2,1.76E2,3.58E2,3.1E1,9.9E1,7.5E1,2.25E2,2.94E2,4.66E2,4.32E2,2E2,5.22E2,1.56E2,7.7E1,4.4E1,7E1,1.95E2,9.4E1,3.16E2,3.16E2,4.14E2,3.43E2,6.49E2,2.94E2,8.57E2,8.04E2,2.253E3,4.88E2,3.85E2,4.01E2,5.04E2,8.76E2,1.181E3,1.907E3,3.571E3,3.5E2,1.1E3,9.59E2,2.959E3,1.472E3,1.942E3,2.397E3,6.727E3],"tree_param":{"num_deleted":"0","num_feature":"30","num_nodes":"255","size_leaf_vector":"1"}},{"base_weights":[-8.679261E-3,-9.569591E1,2.5440443E1,-1.1619825E2,-4.711023E1,-1.3763676E1,3.3905487E1,-1.24977936E2,-8.964963E1,-6.671368E1,-8.7945E0,-4.134848E1,9.636483E0,1.4106404E1,3.7194958E1,-1.3282329E2,-1.1384638E2,-9.713006E1,-5.6498516E1,-8.3132225E1,-4.762017E1,-3.286563E1,1.2521905E1,-6.13508E1,-2.2468082E1,-1.0214746E1,2.5000618E1,-8.253378E0,2.5080328E1,2.8947752E1,4.1277782E1,-1.3780067E2,-1.2558842E2,-1.1830344E2,-9.3089264E1,-1.07762375E2,-8.331058E1,-6.3163162E1,-1.4047734E1,-9.474788E1,-6.694704E1,-6.066285E1,-2.9395927E1,-4.651647E1,-1.2620687E1,-6.641996E0,3.0392342E1,-7.9999344E1,-4.606825E1,-3.4943947E1,-1.3780984E0,-2.8044992E1,3.993921E0,1.8758984E0,3.1190432E1,-2.5590937E1,1.0983485E1,1.5292999E1,3.322969E1,9.70709E0,3.2274506E1,3.531209E1,4.402264E1,-1.426262E2,-1.328386E2,-1.2582331E2,2.6205276E1,-1.2555772E2,-1.10856575E2,-1.02591934E2,-8.0740906E1,-1.1954657E2,-1.0194574E2,-9.013344E1,-6.2035595E1,-7.108271E1,-4.6071396E1,4.181488E1,-2.7330133E1,-1.0438911E2,-8.213574E1,-7.452494E1,-4.7415825E1,-7.0560196E1,-4.7894535E1,-3.392143E1,2.8778004E1,-5.494168E1,-2.6085691E1,-2.8057375E1,9.880961E0,-1.9395575E1,1.5527463E1,1.2964063E1,4.0529293E1,-9.61431E1,-6.60368E1,-5.2018745E1,-2.2078531E1,-4.339241E1,-1.9699387E1,-1.423707E1,1.3953397E1,-4.5477703E1,-1.823747E1,-1.3487872E1,1.5335502E1,-1.2916108E1,1.850035E1,1.7109867E1,3.6413982E1,-3.4457165E1,-2.2929778E0,-7.639143E0,2.3842192E1,5.7073766E-1,2.4151096E1,2.1020895E1,3.6366077E1,-8.841574E0,2.2061592E1,2.0166088E1,3.5392757E1,2.8754423E1,3.93226E1,4.0575504E1,4.7271347E1,-7.134308E0,-2.054711E0,-6.647556E0,-4.8524284E-1,-6.522004E0,-5.92197E0,-1.0467415E-1,2.07007E0,-6.288944E0,-5.0307184E-1,-5.8832192E0,-5.1637015E0,-5.2566905E0,-3.8212361E0,-4.101755E0,1.4285022E0,-6.152123E0,-5.1781073E0,-5.5128207E0,-4.790606E0,-4.713857E0,-3.7342281E0,-3.6417077E0,-2.3448238E0,-3.9746315E0,-2.8492806E0,-2.6124265E0,-7.342624E-1,-1.0491943E0,3.5863168E0,-1.9517788E0,6.430146E-1,-5.894539E0,-4.849016E0,-4.2290587E0,-2.3806086E0,-3.917281E0,-2.5746171E0,-2.5801597E0,-4.540449E-1,-3.6026676E0,1.0790681E0,-2.4483042E0,2.9933043E0,-1.9904622E0,-4.2524058E-1,2.2345875E-1,3.3447273E0,-3.1809423E0,-2.097099E0,-1.5326356E0,9.972836E-1,-2.252815E0,-1.0895593E0,-5.967036E-1,1.2756904E0,-1.2858362E0,6.7444056E-1,-4.40584E-1,1.2921335E0,-6.503277E-1,8.984519E-1,1.309235E0,2.4424257E0,-5.1895194E0,-4.000258E0,-3.6893728E0,-2.4397466E0,-3.1272457E0,-2.1544502E0,-1.5746915E0,-1.6737048E-1,-2.5457642E0,-1.4705554E0,-1.7242941E0,-4.698781E-1,-1.4371523E0,8.162949E-2,-3.961279E-1,1.0822996E0,-2.414282E0,-2.3298721E-1,-1.5960569E0,-3.973369E-1,-9.739682E-1,6.111149E-1,-2.770834E-1,1.0800831E0,-9.9715275E-1,9.1535836E-1,1.7369948E-1,1.5927991E0,-6.6804886E-2,1.2474631E0,1.3951166E0,2.0304053E0,-2.2514737E0,-1.0033352E0,-5.7437724E-1,1.2586873E0,-1.0209081E0,6.771733E-1,6.6631186E-1,1.6314894E0,-5.085723E-1,1.0286201E0,7.784387E-1,1.5071392E0,5.1805174E-1,1.4935037E0,1.6124973E0,2.1189919E0,-1.3818449E0,3.683417E-1,-5.741368E-1,1.2227008E0,-4.5933615E-2,1.2868017E0,1.5150889E0,1.9900532E0,7.764377E-1,1.610878E0,1.7700071E0,2.1145475E0,1.8549385E0,2.216045E0,2.2841353E0,2.6077535E0],"categories":[],"categories_nodes":[],"categories_segments":[],"categories_sizes":[],"default_left":[1,0,1,1,0,0,0,1,1,1,0,1,1,1,0,1,1,1,0,1,1,0,0,0,0,0,0,0,0,0,0,1,1,0,1,0,0,1,1,1,1,0,1,0,0,0,0,1,0,0,0,0,0,0,0,1,0,0,0,1,0,0,0,1,1,1,0,1,1,1,1,1,1,0,0,1,0,0,0,1,1,1,1,1,1,1,0,0,0,1,0,1,0,0,0,0,0,0,0,1,0,0,0,1,1,0,0,0,0,0,0,0,0,0,0,0,0,0,0,0,0,1,0,0,0,0,0,0,0,0,0,0,0,0,0,0,0,0,0,0,0,0,0,0,0,0,0,0,0,0,0,0,0,0,0,0,0,0,0,0,0,0,0,0,0,0,0,0,0,0,0,0,0,0,0,0,0,0,0,0,0,0,0,0,0,0,0,0,0,0,0,0,0,0,0,0,0,0,0,0,0,0,0,0,0,0,0,0,0,0,0,0,0,0,0,0,0,0,0,0,0,0,0,0,0,0,0,0,0,0,0,0,0,0,0,0,0,0,0,0,0,0,0,0,0,0,0,0,0,0,0,0,0,0,0],"id":3,"left_children":[1,3,5,7,9,11,13,15,17,19,21,23,25,27,29,31,33,35,37,39,41,43,45,47,49,51,53,55,57,59,61,63,65,67,69,71,73,75,77,79,81,83,85,87,89,91,93,95,97,99,101,103,105,107,109,111,113,115,117,119,121,123,125,127,129,131,133,135,137,139,141,143,145,147,149,151,153,155,157,159,161,163,165,167,169,171,173,175,177,179,181,183,185,187,189,191,193,195,197,199,201,203,205,207,209,211,213,215,217,219,221,223,225,227,229,231,233,235,237,239,241,243,245,247,249,251,253,-1,-1,-1,-1,-1,-1,-1,-1,-1,-1,-1,-1,-1,-1,-1,-1,-1,-1,-1,-1,-1,-1,-1,-1,-1,-1,-1,-1,-1,-1,-1,-1,-1,-1,-1,-1,-1,-1,-1,-1,-1,-1,-1,-1,-1,-1,-1,-1,-1,-1,-1,-1,-1,-1,-1,-1,-1,-1,-1,-1,-1,-1,-1,-1,-1,-1,-1,-1,-1,-1,-1,-1,-1,-1,-1,-1,-1,-1,-1,-1,-1,-1,-1,-1,-1,-1,-1,-1,-1,-1,-1,-1,-1,-1,-1,-1,-1,-1,-1,-1,-1,-1,-1,-1,-1,-1,-1,-1,-1,-1,-1,-1,-1,-1,-1,-1,-1,-1,-1,-1,-1,-1,-1,-1,-1,-1,-1,-1],"loss_changes":[1.2824505E8,1.1015608E7,1.3806032E7,1.802224E6,2.4668435E6,4.769269E6,2.22772E6,4.95232E5,4.74859E5,6.7725E5,5.7150294E5,1.279239E6,1.2196332E6,1.1966532E6,9.86668E5,1.05924E5,2.13154E5,2.23029E5,1.0068075E5,2.130545E5,2.3757375E5,1.4394956E5,2.0260002E5,4.654205E5,4.5935206E5,4.4219738E5,3.2257388E5,5.359146E5,2.6038838E5,6.217245E5,3.19738E5,2.9348E4,5.343E4,9.364E4,4.252575E4,4.8748E4,9.47115E4,3.8686625E4,3.8242285E4,7.3747E4,6.9137E4,7.0675E4,1.120745E5,5.2272438E4,7.391564E4,8.116478E4,5.35355E4,1.60453E5,1.28326375E5,1.4043125E5,1.28344375E5,1.3150269E5,1.9292642E5,1.1753754E5,1.3014975E5,1.7446844E5,1.8265284E5,1.9403816E5,6.75475E4,3.2880975E5,3.12105E5,1.61611E5,1.48524E5,2.8E2,1.2688E4,3.2412E4,1.3767671E3,2.4302E4,3.9004E4,7.995E3,2.96475E4,3.35075E3,2.01235E4,2.6311E4,2.45395E4,2.0366625E4,1.8814234E4,2.0289121E4,1.979032E4,2.65785E4,2.1131625E4,2.6941875E4,2.2004531E4,4.668175E4,3.283825E4,5.8323562E4,2.8424666E4,2.2147812E4,2.0162418E4,1.2439492E4,2.9974191E4,3.8178703E4,2.6589361E4,1.5051695E4,2.1752719E4,3.37795E4,4.9854E4,6.5546125E4,3.199193E4,7.2654E4,5.954078E4,8.153945E4,5.015151E4,3.163775E4,6.9731375E4,5.923629E4,7.730333E4,5.5874383E4,4.5043812E4,6.987766E4,4.513275E4,9.220631E4,5.938462E4,8.4732734E4,4.1242062E4,1.2053173E5,4.7302312E4,3.4309984E4,3.373375E4,1.7506827E5,6.937803E4,1.9955588E5,1.466225E5,1.07226625E5,4.3178E4,8.3323E4,5.123E4,0E0,0E0,0E0,0E0,0E0,0E0,0E0,0E0,0E0,0E0,0E0,0E0,0E0,0E0,0E0,0E0,0E0,0E0,0E0,0E0,0E0,0E0,0E0,0E0,0E0,0E0,0E0,0E0,0E0,0E0,0E0,0E0,0E0,0E0,0E0,0E0,0E0,0E0,0E0,0E0,0E0,0E0,0E0,0E0,0E0,0E0,0E0,0E0,0E0,0E0,0E0,0E0,0E0,0E0,0E0,0E0,0E0,0E0,0E0,0E0,0E0,0E0,0E0,0E0,0E0,0E0,0E0,0E0,0E0,0E0,0E0,0E0,0E0,0E0,0E0,0E0,0E0,0E0,0E0,0E0,0E0,0E0,0E0,0E0,0E0,0E0,0E0,0E0,0E0,0E0,0E0,0E0,0E0,0E0,0E0,0E0,0E0,0E0,0E0,0E0,0E0,0E0,0E0,0E0,0E0,0E0,0E0,0E0,0E0,0E0,0E0,0E0,0E0,0E0,0E0,0E0,0E0,0E0,0E0,0E0,0E0,0E0,0E0,0E0,0E0,0E0,0E0,0E0],"parents":[2147483647,0,0,1,1,2,2,3,3,4,4,5,5,6,6,7,7,8,8,9,9,10,10,11,11,12,12,13,13,14,14,15,15,16,16,17,17,18,18,19,19,20,20,21,21,22,22,23,23,24,24,25,25,26,26,27,27,28,28,29,29,30,30,31,31,32,32,33,33,34,34,35,35,36,36,37,37,38,38,39,39,40,40,41,41,42,42,43,43,44,44,45,45,46,46,47,47,48,48,49,49,50,50,51,51,52,52,53,53,54,54,55,55,56,56,57,57,58,58,59,59,60,60,61,61,62,62,63,63,64,64,65,65,66,66,67,67,68,68,69,69,70,70,71,71,72,72,73,73,74,74,75,75,76,76,77,77,78,78,79,79,80,80,81,81,82,82,83,83,84,84,85,85,86,86,87,87,88,88,89,89,90,90,91,91,92,92,93,93,94,94,95,95,96,96,97,97,98,98,99,99,100,100,101,101,102,102,103,103,104,104,105,105,106,106,107,107,108,108,109,109,110,110,111,111,112,112,113,113,114,114,115,115,116,116,117,117,118,118,119,119,120,120,121,121,122,122,123,123,124,124,125,125,126,126],"right_children":[2,4,6,8,10,12,14,16,18,20,22,24,26,28,30,32,34,36,38,40,42,44,46,48,50,52,54,56,58,60,62,64,66,68,70,72,74,76,78,80,82,84,86,88,90,92,94,96,98,100,102,104,106,108,110,112,114,116,118,120,122,124,126,128,130,132,134,136,138,140,142,144,146,148,150,152,154,156,158,160,162,164,166,168,170,172,174,176,178,180,182,184,186,188,190,192,194,196,198,200,202,204,206,208,210,212,214,216,218,220,222,224,226,228,230,232,234,236,238,240,242,244,246,248,250,252,254,-1,-1,-1,-1,-1,-1,-1,-1,-1,-1,-1,-1,-1,-1,-1,-1,-1,-1,-1,-1,-1,-1,-1,-1,-1,-1,-1,-1,-1,-1,-1,-1,-1,-1,-1,-1,-1,-1,-1,-1,-1,-1,-1,-1,-1,-1,-1,-1,-1,-1,-1,-1,-1,-1,-1,-1,-1,-1,-1,-1,-1,-1,-1,-1,-1,-1,-1,-1,-1,-1,-1,-1,-1,-1,-1,-1,-1,-1,-1,-1,-1,-1,-1,-1,-1,-1,-1,-1,-1,-1,-1,-1,-1,-1,-1,-1,-1,-1,-1,-1,-1,-1,-1,-1,-1,-1,-1,-1,-1,-1,-1,-1,-1,-1,-1,-1,-1,-1,-1,-1,-1,-1,-1,-1,-1,-1,-1,-1],"split_conditions":[5E0,1.3E1,8E0,1.1E1,1.7E1,1.7E1,1.7E1,8E0,6E0,1.4E1,1.8E1,7E0,1E1,1.1E1,2E1,7E0,4E0,1.1E1,1.9E1,4E0,6E0,1.8E1,2E1,1.4E1,1.9E1,1.8E1,1.7E1,1.9E1,2E1,1.7E1,2E1,6E0,1.1E1,8E0,3E0,8E0,1.5E1,6E0,1E1,1.1E1,6E0,1.4E1,1.6E1,1.8E1,1.9E1,2.1E1,2E1,1.2E1,1.9E1,1.8E1,1.3E1,1.6E1,1.8E1,2E1,1E1,1.2E1,1.9E1,1.2E1,1.8E1,1.2E1,1.8E1,2E1,2.2E1,1.8E1,1.5E1,8E0,2E0,1.9E1,9E0,6E0,1.3E1,1.1E1,9E0,1.4E1,1.4E1,5E0,2E1,1.3E1,1.2E1,8E0,8E0,8E0,1.1E1,1.8E1,2.4E1,2E1,1.5E1,1.5E1,2.3E1,4E0,9E0,1.3E1,8E0,1.7E1,1.2E1,1.2E1,1.5E1,1.4E1,1.9E1,8E0,1.4E1,1.8E1,9E0,1.3E1,7E0,2.2E1,7E0,1.4E1,1.2E1,1.8E1,2E1,1.8E1,1.5E1,2E1,1.2E1,2.1E1,1.9E1,2E1,2.2E1,1.8E1,7E0,9E0,2.1E1,1.8E1,2.1E1,2.2E1,2.5E1,-7.134308E0,-2.054711E0,-6.647556E0,-4.8524284E-1,-6.522004E0,-5.92197E0,-1.0467415E-1,2.07007E0,-6.288944E0,-5.0307184E-1,-5.8832192E0,-5.1637015E0,-5.2566905E0,-3.8212361E0,-4.101755E0,1.4285022E0,-6.152123E0,-5.1781073E0,-5.5128207E0,-4.790606E0,-4.713857E0,-3.7342281E0,-3.6417077E0,-2.3448238E0,-3.9746315E0,-2.8492806E0,-2.6124265E0,-7.342624E-1,-1.0491943E0,3.5863168E0,-1.9517788E0,6.430146E-1,-5.894539E0,-4.849016E0,-4.2290587E0,-2.3806086E0,-3.917281E0,-2.5746171E0,-2.5801597E0,-4.540449E-1,-3.6026676E0,1.0790681E0,-2.4483042E0,2.9933043E0,-1.9904622E0,-4.2524058E-1,2.2345875E-1,3.3447273E0,-3.1809423E0,-2.097099E0,-1.5326356E0,9.972836E-1,-2.252815E0,-1.0895593E0,-5.967036E-1,1.2756904E0,-1.2858362E0,6.7444056E-1,-4.40584E-1,1.2921335E0,-6.503277E-1,8.984519E-1,1.309235E0,2.4424257E0,-5.1895194E0,-4.000258E0,-3.6893728E0,-2.4397466E0,-3.1272457E0,-2.1544502E0,-1.5746915E0,-1.6737048E-1,-2.5457642E0,-1.4705554E0,-1.7242941E0,-4.698781E-1,-1.4371523E0,8.162949E-2,-3.961279E-1,1.0822996E0,-2.414282E0,-2.3298721E-1,-1.5960569E0,-3.973369E-1,-9.739682E-1,6.111149E-1,-2.770834E-1,1.0800831E0,-9.9715275E-1,9.1535836E-1,1.7369948E-1,1.5927991E0,-6.6804886E-2,1.2474631E0,1.3951166E0,2.0304053E0,-2.2514737E0,-1.0033352E0,-5.7437724E-1,1.2586873E0,-1.0209081E0,6.771733E-1,6.6631186E-1,1.6314894E0,-5.085723E-1,1.0286201E0,7.784387E-1,1.5071392E0,5.1805174E-1,1.4935037E0,1.6124973E0,2.1189919E0,-1.3818449E0,3.683417E-1,-5.741368E-1,1.2227008E0,-4.5933615E-2,1.2868017E0,1.5150889E0,1.9900532E0,7.764377E-1,1.610878E0,1.7700071E0,2.1145475E0,1.8549385E0,2.216045E0,2.2841353E0,2.6077535E0],"split_indices":[20,2,29,1,7,10,12,4,15,1,8,15,19,17,2,7,15,4,12,19,19,1,12,1,1,1,11,3,11,3,11,1,26,2,17,3,3,18,4,8,26,10,15,9,11,2,13,3,7,3,15,2,11,1,24,15,11,23,4,21,13,13,3,10,14,3,1,9,7,18,21,9,8,7,8,19,1,8,26,3,15,15,17,17,15,13,17,13,11,26,15,15,24,3,17,4,13,11,13,22,14,8,19,15,26,8,21,27,23,12,2,1,21,14,21,1,9,1,14,1,15,26,8,14,14,1,1,0,0,0,0,0,0,0,0,0,0,0,0,0,0,0,0,0,0,0,0,0,0,0,0,0,0,0,0,0,0,0,0,0,0,0,0,0,0,0,0,0,0,0,0,0,0,0,0,0,0,0,0,0,0,0,0,0,0,0,0,0,0,0,0,0,0,0,0,0,0,0,0,0,0,0,0,0,0,0,0,0,0,0,0,0,0,0,0,0,0,0,0,0,0,0,0,0,0,0,0,0,0,0,0,0,0,0,0,0,0,0,0,0,0,0,0,0,0,0,0,0,0,0,0,0,0,0,0],"split_type":[0,0,0,0,0,0,0,0,0,0,0,0,0,0,0,0,0,0,0,0,0,0,0,0,0,0,0,0,0,0,0,0,0,0,0,0,0,0,0,0,0,0,0,0,0,0,0,0,0,0,0,0,0,0,0,0,0,0,0,0,0,0,0,0,0,0,0,0,0,0,0,0,0,0,0,0,0,0,0,0,0,0,0,0,0,0,0,0,0,0,0,0,0,0,0,0,0,0,0,0,0,0,0,0,0,0,0,0,0,0,0,0,0,0,0,0,0,0,0,0,0,0,0,0,0,0,0,0,0,0,0,0,0,0,0,0,0,0,0,0,0,0,0,0,0,0,0,0,0,0,0,0,0,0,0,0,0,0,0,0,0,0,0,0,0,0,0,0,0,0,0,0,0,0,0,0,0,0,0,0,0,0,0,0,0,0,0,0,0,0,0,0,0,0,0,0,0,0,0,0,0,0,0,0,0,0,0,0,0,0,0,0,0,0,0,0,0,0,0,0,0,0,0,0,0,0,0,0,0,0,0,0,0,0,0,0,0,0,0,0,0,0,0,0,0,0,0,0,0,0,0,0,0,0,0],"sum_hessian":[5.2662E4,1.1063E4,4.1599E4,7.779E3,3.284E3,7.387E3,3.4212E4,5.843E3,1.936E3,2.172E3,1.112E3,3.39E3,3.997E3,4.875E3,2.9337E4,3.421E3,2.422E3,1.578E3,3.58E2,1.166E3,1.006E3,5.22E2,5.9E2,1.645E3,1.745E3,1.744E3,2.253E3,1.605E3,3.27E3,9.717E3,1.962E4,2.016E3,1.405E3,1.99E3,4.32E2,8.88E2,6.9E2,3.09E2,4.9E1,6.76E2,4.9E2,5.85E2,4.21E2,3.11E2,2.11E2,2.85E2,3.05E2,7.39E2,9.06E2,1.096E3,6.49E2,7.73E2,9.71E2,4.76E2,1.777E3,8.44E2,7.61E2,1.487E3,1.783E3,1.433E3,8.284E3,6.187E3,1.3433E4,1.008E3,1.008E3,1.403E3,2E0,1E3,9.9E2,2.4E2,1.92E2,2.87E2,6.01E2,5.2E2,1.7E2,2.09E2,1E2,9E0,4E1,3.79E2,2.97E2,3.51E2,1.39E2,3.27E2,2.58E2,3.91E2,3E1,2.19E2,9.2E1,1.25E2,8.6E1,1.81E2,1.04E2,1.13E2,1.92E2,3.4E2,3.99E2,7.25E2,1.81E2,7.04E2,3.92E2,3.53E2,2.96E2,2.77E2,4.96E2,3.82E2,5.89E2,2.52E2,2.24E2,4.82E2,1.295E3,6.11E2,2.33E2,3.11E2,4.5E2,5.59E2,9.28E2,3.66E2,1.417E3,5.73E2,8.6E2,1.698E3,6.586E3,2.351E3,3.836E3,6.524E3,6.909E3,1.007E3,1E0,1.007E3,1E0,8.53E2,5.5E2,1E0,1E0,9.98E2,2E0,5.14E2,4.76E2,2.16E2,2.4E1,1.9E2,2E0,2.3E2,5.7E1,2.48E2,3.53E2,4.06E2,1.14E2,9.7E1,7.3E1,1.28E2,8.1E1,8.3E1,1.7E1,3E0,6E0,3.1E1,9E0,1.29E2,2.5E2,2.76E2,2.1E1,2.99E2,5.2E1,1.25E2,1.4E1,3.22E2,5E0,2.56E2,2E0,3.17E2,7.4E1,1.9E1,1.1E1,1.29E2,9E1,8.4E1,8E0,3.2E1,9.3E1,3.6E1,5E1,1.52E2,2.9E1,3.1E1,7.3E1,1.8E1,9.5E1,7.2E1,1.2E2,2.27E2,1.13E2,2.73E2,1.26E2,3.3E2,3.95E2,1.2E2,6.1E1,4.56E2,2.48E2,1.6E2,2.32E2,1.84E2,1.69E2,7.7E1,2.19E2,2.59E2,1.8E1,2.12E2,2.84E2,3.1E2,7.2E1,1.36E2,4.53E2,2.06E2,4.6E1,1.06E2,1.18E2,1.44E2,3.38E2,4.3E2,8.65E2,3.51E2,2.6E2,1.75E2,5.8E1,1.94E2,1.17E2,2.06E2,2.44E2,3.64E2,1.95E2,3.83E2,5.45E2,1.67E2,1.99E2,8.45E2,5.72E2,2.65E2,3.08E2,5.7E1,8.03E2,3.55E2,1.343E3,3.06E3,3.526E3,4.89E2,1.862E3,1.658E3,2.178E3,3.389E3,3.135E3,5.221E3,1.688E3],"tree_param":{"num_deleted":"0","num_feature":"30","num_nodes":"255","size_leaf_vector":"1"}},{"base_weights":[-1.0769982E-2,-8.70093E1,2.5347624E1,-1.1010903E2,-4.147498E1,-1.1077253E1,3.2191936E1,-1.19184235E2,-8.387528E1,-6.6758896E1,-1.727063E1,-4.0169075E1,8.272604E0,1.5821284E1,3.605372E1,-1.2718515E2,-1.08542076E2,-9.6812325E1,-6.6409775E1,-8.007245E1,-4.88482E1,-3.3768597E1,8.947727E0,-5.9848804E1,-2.1441458E1,-1.3519514E1,1.9420414E1,-5.8623104E0,2.582557E1,2.8831257E1,3.9750473E1,-1.3168243E2,-1.2038458E2,-1.1354903E2,-9.254068E1,-1.028879E2,-8.003804E1,-7.537311E1,-4.1108555E1,-9.035845E1,-6.578981E1,-5.5154934E1,-2.2229683E1,-4.149304E1,-4.8637557E0,-6.713615E0,2.9957495E1,-7.710101E1,-4.464448E1,-3.5522095E1,-6.785383E0,-2.5068296E1,5.6545186E0,3.3107963E0,2.9303087E1,-2.8000566E1,1.0597238E1,1.2132645E1,3.0632383E1,1.43104E1,3.2206547E1,3.409922E1,4.2175E1,-1.3587457E2,-1.2709957E2,-1.2195595E2,-5.075971E0,-1.1814764E2,-1.0478763E2,-9.807654E1,-7.941273E1,-1.1146334E2,-9.510758E1,-8.065201E1,2.8033931E0,-8.0804E1,-5.901782E1,-4.7825493E1,2.7698542E1,-9.532766E1,-7.656864E1,-7.23732E1,-5.11311E1,-7.372324E1,-4.9535694E1,-3.0568226E1,1.8767923E1,-5.4149933E1,-2.9877998E1,-2.3833996E1,1.7052437E1,-1.9244785E1,1.0958367E1,1.9799639E1,5.0277817E1,-9.000242E1,-6.2731506E1,-5.412521E1,-3.0659222E1,-3.810216E1,1.7431154E1,-1.5393877E1,1.4405623E1,-3.6701576E1,-1.205117E1,-5.3938365E0,2.7517496E1,-6.944187E0,1.8412289E1,1.3757037E1,3.36194E1,-3.5392525E1,3.6699214E0,-1.3378702E1,1.9376234E1,-2.0387785E0,2.425707E1,2.1652714E1,3.422952E1,-3.772901E0,2.2511646E1,2.4044205E1,3.528242E1,2.7890358E1,3.740551E1,3.9568977E1,4.5991367E1,-6.9234886E0,-6.4553337E0,-6.35906E0,-1.2002224E0,-6.1065264E0,-4.8630294E-1,-5.976321E0,-5.0561967E0,-5.5073905E0,-4.805727E0,-5.178083E0,-4.255074E0,-4.1664453E0,-2.7736497E0,-6.093203E0,-5.284159E0,-4.9240823E0,-3.9996889E0,-4.494597E0,-3.5685136E0,-4.2230024E0,-3.3439674E0,-3.641246E0,-2.67317E0,-3.0532706E0,-1.7677214E0,-3.706192E-1,2.4937723E0,-5.464945E0,-4.529333E0,-3.8486047E0,-1.3905449E-1,-3.9710903E0,-2.9697468E0,-3.056574E0,-1.8738555E0,-4.070275E0,-2.8923542E0,-2.5079546E0,3.751592E0,-1.9107338E0,-6.052639E-1,-4.6928412E-1,2.0234869E0,-3.137143E0,-2.1683178E0,-1.6432428E0,1.0861443E0,-1.6165856E0,-1.9896613E-1,3.7286374E-1,2.2798686E0,-1.4887217E0,-1.6598268E-1,1.7367692E-1,1.8536282E0,-1.9088952E-1,1.4250665E0,3.0433648E0,2.0378091E0,-5.0534472E0,-3.9868333E0,-4.0957055E0,-2.8050861E0,-3.922629E0,-2.4658012E0,-1.6910168E0,1.2983307E0,-2.319378E0,-1.3351474E0,4.280084E-2,2.9847362E0,-1.2296029E0,-7.4426785E-2,3.311851E-4,1.3404329E0,-2.4196138E0,-1.3790474E0,-1.1711167E0,1.4895304E-1,-7.993118E-1,4.2477408E-1,6.8492943E-1,1.8137611E0,-1.1741321E0,2.003414E-2,1.521778E-1,1.4006565E0,-2.5336298E-1,1.0184461E0,1.2807603E0,1.977642E0,-2.277169E0,-1.0375835E0,-6.61993E-1,9.061846E-1,-1.4154074E0,2.3659305E-1,-1.2891042E-1,1.2493684E0,-7.8592104E-1,5.013692E-1,8.944961E-1,1.596441E0,6.6882807E-1,1.450689E0,1.2962105E0,1.8651863E0,-6.0157514E-1,8.5271466E-1,6.454286E-1,1.5073439E0,3.9946562E-1,1.3555831E0,1.5840122E0,1.988231E0,7.1917695E-1,1.5294744E0,1.5996159E0,2.0026429E0,1.7776974E0,2.119941E0,2.210548E0,2.552839E0],"categories":[],"categories_nodes":[],"categories_segments":[],"categories_sizes":[],"default_left":[1,1,1,0,0,1,0,1,0,0,0,0,0,1,0,1,1,1,0,1,0,0,0,1,0,0,1,0,0,0,0,0,1,1,1,1,0,1,0,1,1,1,1,1,0,1,0,1,0,1,0,0,0,1,0,0,0,0,0,0,0,0,0,1,1,1,0,1,0,1,0,0,0,1,0,0,1,0,0,0,0,1,0,0,1,0,0,1,0,0,0,0,0,0,1,0,0,1,1,0,0,1,0,0,0,0,0,1,0,0,0,0,0,0,0,0,0,0,0,0,1,0,0,1,0,0,0,0,0,0,0,0,0,0,0,0,0,0,0,0,0,0,0,0,0,0,0,0,0,0,0,0,0,0,0,0,0,0,0,0,0,0,0,0,0,0,0,0,0,0,0,0,0,0,0,0,0,0,0,0,0,0,0,0,0,0,0,0,0,0,0,0,0,0,0,0,0,0,0,0,0,0,0,0,0,0,0,0,0,0,0,0,0,0,0,0,0,0,0,0,0,0,0,0,0,0,0,0,0,0,0,0,0,0,0,0,0,0,0,0,0,0,0,0,0,0,0,0,0,0,0],"id":4,"left_children":[1,3,5,7,9,11,13,15,17,19,21,23,25,27,29,31,33,35,37,39,41,43,45,47,49,51,53,55,57,59,61,63,65,67,69,71,73,75,77,79,81,83,85,87,89,91,93,95,97,99,101,103,105,107,109,111,113,115,117,119,121,123,125,127,129,131,-1,133,135,137,139,141,143,145,-1,147,149,151,153,155,157,159,161,163,165,167,169,171,173,175,177,179,181,183,185,187,189,191,193,195,197,199,201,203,205,207,209,211,213,215,217,219,221,223,225,227,229,231,233,235,237,239,241,243,245,247,249,-1,-1,-1,-1,-1,-1,-1,-1,-1,-1,-1,-1,-1,-1,-1,-1,-1,-1,-1,-1,-1,-1,-1,-1,-1,-1,-1,-1,-1,-1,-1,-1,-1,-1,-1,-1,-1,-1,-1,-1,-1,-1,-1,-1,-1,-1,-1,-1,-1,-1,-1,-1,-1,-1,-1,-1,-1,-1,-1,-1,-1,-1,-1,-1,-1,-1,-1,-1,-1,-1,-1,-1,-1,-1,-1,-1,-1,-1,-1,-1,-1,-1,-1,-1,-1,-1,-1,-1,-1,-1,-1,-1,-1,-1,-1,-1,-1,-1,-1,-1,-1,-1,-1,-1,-1,-1,-1,-1,-1,-1,-1,-1,-1,-1,-1,-1,-1,-1,-1,-1,-1,-1,-1,-1],"loss_changes":[1.1618431E8,1.2497496E7,1.0166444E7,1.867232E6,2.447994E6,3.6317455E6,2.16964E6,4.84816E5,4.52254E5,4.62745E5,8.8529875E5,9.4848175E5,9.416334E5,1.4219031E6,7.40436E5,8.6208E4,1.91388E5,1.10393E5,1.9352275E5,1.587425E5,1.3928625E5,2.8022988E5,2.6047267E5,3.260165E5,2.7257594E5,2.9066675E5,4.0810744E5,7.545751E5,2.94828E5,4.60596E5,2.50248E5,2.1116E4,2.734E4,6.4776E4,3.62525E4,4.6178E4,3.07615E4,5.198925E4,1.0716231E5,3.71735E4,4.194575E4,6.688175E4,5.595508E4,1.4406925E5,1.10997375E5,1.0074947E5,6.877141E4,1.0317625E5,8.717625E4,9.274794E4,1.1861405E5,1.2358041E5,1.1947409E5,1.5127664E5,1.06161875E5,2.0684631E5,2.5031508E5,2.0056383E5,1.0646625E5,2.634757E5,1.90763E5,1.12272E5,1.2598E5,1.96E2,5.109E3,2.2952E4,0E0,1.7208E4,2.04675E4,2.122025E4,1.2721625E4,1.1108E4,1.52225E4,2.0428125E4,0E0,1.863525E4,8.6070625E3,3.2350281E4,1.672138E4,2.14295E4,5.055125E3,2.4921875E4,1.819075E4,1.41954375E4,4.42995E4,1.8596164E4,1.7487395E4,4.11085E4,8.070459E4,2.3998219E4,3.362273E4,4.4505656E4,3.681322E4,4.6759945E4,8.812125E3,2.68185E4,3.1141125E4,4.2695E4,4.974539E4,5.9490812E4,2.2365684E4,5.905496E4,3.3574984E4,4.4727938E4,6.638334E4,4.8538688E4,1.9592758E4,7.070658E4,5.819808E4,4.3292242E4,5.8019875E4,1.0546475E5,4.1300848E4,8.6385375E4,1.0723909E5,8.9125375E4,3.0153656E4,5.7609E4,5.94935E4,9.566713E4,8.921E4,1.02809625E5,8.8203E4,6.962975E4,5.02945E4,8.5332E4,4.4712E4,0E0,0E0,0E0,0E0,0E0,0E0,0E0,0E0,0E0,0E0,0E0,0E0,0E0,0E0,0E0,0E0,0E0,0E0,0E0,0E0,0E0,0E0,0E0,0E0,0E0,0E0,0E0,0E0,0E0,0E0,0E0,0E0,0E0,0E0,0E0,0E0,0E0,0E0,0E0,0E0,0E0,0E0,0E0,0E0,0E0,0E0,0E0,0E0,0E0,0E0,0E0,0E0,0E0,0E0,0E0,0E0,0E0,0E0,0E0,0E0,0E0,0E0,0E0,0E0,0E0,0E0,0E0,0E0,0E0,0E0,0E0,0E0,0E0,0E0,0E0,0E0,0E0,0E0,0E0,0E0,0E0,0E0,0E0,0E0,0E0,0E0,0E0,0E0,0E0,0E0,0E0,0E0,0E0,0E0,0E0,0E0,0E0,0E0,0E0,0E0,0E0,0E0,0E0,0E0,0E0,0E0,0E0,0E0,0E0,0E0,0E0,0E0,0E0,0E0,0E0,0E0,0E0,0E0,0E0,0E0,0E0,0E0,0E0,0E0],"parents":[2147483647,0,0,1,1,2,2,3,3,4,4,5,5,6,6,7,7,8,8,9,9,10,10,11,11,12,12,13,13,14,14,15,15,16,16,17,17,18,18,19,19,20,20,21,21,22,22,23,23,24,24,25,25,26,26,27,27,28,28,29,29,30,30,31,31,32,32,33,33,34,34,35,35,36,36,37,37,38,38,39,39,40,40,41,41,42,42,43,43,44,44,45,45,46,46,47,47,48,48,49,49,50,50,51,51,52,52,53,53,54,54,55,55,56,56,57,57,58,58,59,59,60,60,61,61,62,62,63,63,64,64,65,65,67,67,68,68,69,69,70,70,71,71,72,72,73,73,75,75,76,76,77,77,78,78,79,79,80,80,81,81,82,82,83,83,84,84,85,85,86,86,87,87,88,88,89,89,90,90,91,91,92,92,93,93,94,94,95,95,96,96,97,97,98,98,99,99,100,100,101,101,102,102,103,103,104,104,105,105,106,106,107,107,108,108,109,109,110,110,111,111,112,112,113,113,114,114,115,115,116,116,117,117,118,118,119,119,120,120,121,121,122,122,123,123,124,124,125,125,126,126],"right_children":[2,4,6,8,10,12,14,16,18,20,22,24,26,28,30,32,34,36,38,40,42,44,46,48,50,52,54,56,58,60,62,64,66,68,70,72,74,76,78,80,82,84,86,88,90,92,94,96,98,100,102,104,106,108,110,112,114,116,118,120,122,124,126,128,130,132,-1,134,136,138,140,142,144,146,-1,148,150,152,154,156,158,160,162,164,166,168,170,172,174,176,178,180,182,184,186,188,190,192,194,196,198,200,202,204,206,208,210,212,214,216,218,220,222,224,226,228,230,232,234,236,238,240,242,244,246,248,250,-1,-1,-1,-1,-1,-1,-1,-1,-1,-1,-1,-1,-1,-1,-1,-1,-1,-1,-1,-1,-1,-1,-1,-1,-1,-1,-1,-1,-1,-1,-1,-1,-1,-1,-1,-1,-1,-1,-1,-1,-1,-1,-1,-1,-1,-1,-1,-1,-1,-1,-1,-1,-1,-1,-1,-1,-1,-1,-1,-1,-1,-1,-1,-1,-1,-1,-1,-1,-1,-1,-1,-1,-1,-1,-1,-1,-1,-1,-1,-1,-1,-1,-1,-1,-1,-1,-1,-1,-1,-1,-1,-1,-1,-1,-1,-1,-1,-1,-1,-1,-1,-1,-1,-1,-1,-1,-1,-1,-1,-1,-1,-1,-1,-1,-1,-1,-1,-1,-1,-1,-1,-1,-1,-1],"split_conditions":[5E0,1.3E1,8E0,1.1E1,1.5E1,1.7E1,1.8E1,8E0,1.2E1,1.4E1,1.9E1,1.6E1,1.8E1,1.1E1,2E1,7E0,1.1E1,4E0,1.5E1,4E0,1.8E1,2E1,1.1E1,5E0,1.7E1,2E1,1E1,1.8E1,1.8E1,1E1,2E1,6E0,1.2E1,9E0,4E0,9E0,1.8E1,6E0,2.3E1,1.3E1,5E0,3E0,1.2E1,7E0,1E1,1E1,1.6E1,1.2E1,1.7E1,1.8E1,2.1E1,1.8E1,1.2E1,1.1E1,1.8E1,2.1E1,1.7E1,1.3E1,1.9E1,1.8E1,1.9E1,2E1,2.3E1,7E0,6E0,1.9E1,-5.075971E0,1.2E1,1E1,1.1E1,1.7E1,7E0,1.3E1,3E0,2.8033931E0,1.5E1,3E0,1.5E1,2.2E1,8E0,2.1E1,5E0,1.4E1,1.4E1,2.9E1,1.8E1,2.1E1,5E0,1.9E1,9E0,2.3E1,1.8E1,2.3E1,9E0,1.2E1,1.1E1,1.1E1,3E0,2E1,1.7E1,2.1E1,1E1,1E1,1.6E1,1E1,2E1,2E1,7E0,1.9E1,1.8E1,2.1E1,1.8E1,1.9E1,1.9E1,1.7E1,1.1E1,2.1E1,2E1,1.9E1,2.1E1,1.2E1,1E1,2.2E1,1E1,2E1,2.1E1,2.5E1,-6.9234886E0,-6.4553337E0,-6.35906E0,-1.2002224E0,-6.1065264E0,-4.8630294E-1,-5.976321E0,-5.0561967E0,-5.5073905E0,-4.805727E0,-5.178083E0,-4.255074E0,-4.1664453E0,-2.7736497E0,-6.093203E0,-5.284159E0,-4.9240823E0,-3.9996889E0,-4.494597E0,-3.5685136E0,-4.2230024E0,-3.3439674E0,-3.641246E0,-2.67317E0,-3.0532706E0,-1.7677214E0,-3.706192E-1,2.4937723E0,-5.464945E0,-4.529333E0,-3.8486047E0,-1.3905449E-1,-3.9710903E0,-2.9697468E0,-3.056574E0,-1.8738555E0,-4.070275E0,-2.8923542E0,-2.5079546E0,3.751592E0,-1.9107338E0,-6.052639E-1,-4.6928412E-1,2.0234869E0,-3.137143E0,-2.1683178E0,-1.6432428E0,1.0861443E0,-1.6165856E0,-1.9896613E-1,3.7286374E-1,2.2798686E0,-1.4887217E0,-1.6598268E-1,1.7367692E-1,1.8536282E0,-1.9088952E-1,1.4250665E0,3.0433648E0,2.0378091E0,-5.0534472E0,-3.9868333E0,-4.0957055E0,-2.8050861E0,-3.922629E0,-2.4658012E0,-1.6910168E0,1.2983307E0,-2.319378E0,-1.3351474E0,4.280084E-2,2.9847362E0,-1.2296029E0,-7.4426785E-2,3.311851E-4,1.3404329E0,-2.4196138E0,-1.3790474E0,-1.1711167E0,1.4895304E-1,-7.993118E-1,4.2477408E-1,6.8492943E-1,1.8137611E0,-1.1741321E0,2.003414E-2,1.521778E-1,1.4006565E0,-2.5336298E-1,1.0184461E0,1.2807603E0,1.977642E0,-2.277169E0,-1.0375835E0,-6.61993E-1,9.061846E-1,-1.4154074E0,2.3659305E-1,-1.2891042E-1,1.2493684E0,-7.8592104E-1,5.013692E-1,8.944961E-1,1.596441E0,6.6882807E-1,1.450689E0,1.2962105E0,1.8651863E0,-6.0157514E-1,8.5271466E-1,6.454286E-1,1.5073439E0,3.9946562E-1,1.3555831E0,1.5840122E0,1.988231E0,7.1917695E-1,1.5294744E0,1.5996159E0,2.0026429E0,1.7776974E0,2.119941E0,2.210548E0,2.552839E0],"split_indices":[28,0,27,2,5,4,3,1,5,2,8,1,7,15,11,7,3,16,12,16,11,7,22,18,8,0,21,1,13,28,7,2,4,6,16,4,16,16,1,6,22,19,16,15,15,19,25,11,0,16,2,1,25,18,8,2,7,25,2,8,2,5,6,4,15,8,0,4,5,7,1,0,7,15,0,4,18,6,7,3,4,18,6,1,16,1,11,25,15,16,1,7,12,19,12,2,0,22,15,7,15,15,24,2,28,2,1,15,13,5,13,13,6,5,8,23,4,1,11,5,16,19,4,24,13,8,0,0,0,0,0,0,0,0,0,0,0,0,0,0,0,0,0,0,0,0,0,0,0,0,0,0,0,0,0,0,0,0,0,0,0,0,0,0,0,0,0,0,0,0,0,0,0,0,0,0,0,0,0,0,0,0,0,0,0,0,0,0,0,0,0,0,0,0,0,0,0,0,0,0,0,0,0,0,0,0,0,0,0,0,0,0,0,0,0,0,0,0,0,0,0,0,0,0,0,0,0,0,0,0,0,0,0,0,0,0,0,0,0,0,0,0,0,0,0,0,0,0,0,0,0],"split_type":[0,0,0,0,0,0,0,0,0,0,0,0,0,0,0,0,0,0,0,0,0,0,0,0,0,0,0,0,0,0,0,0,0,0,0,0,0,0,0,0,0,0,0,0,0,0,0,0,0,0,0,0,0,0,0,0,0,0,0,0,0,0,0,0,0,0,0,0,0,0,0,0,0,0,0,0,0,0,0,0,0,0,0,0,0,0,0,0,0,0,0,0,0,0,0,0,0,0,0,0,0,0,0,0,0,0,0,0,0,0,0,0,0,0,0,0,0,0,0,0,0,0,0,0,0,0,0,0,0,0,0,0,0,0,0,0,0,0,0,0,0,0,0,0,0,0,0,0,0,0,0,0,0,0,0,0,0,0,0,0,0,0,0,0,0,0,0,0,0,0,0,0,0,0,0,0,0,0,0,0,0,0,0,0,0,0,0,0,0,0,0,0,0,0,0,0,0,0,0,0,0,0,0,0,0,0,0,0,0,0,0,0,0,0,0,0,0,0,0,0,0,0,0,0,0,0,0,0,0,0,0,0,0,0,0,0,0,0,0,0,0,0,0,0,0,0,0,0,0,0,0],"sum_hessian":[5.2662E4,1.1885E4,4.0777E4,7.884E3,4.001E3,6.45E3,3.4327E4,5.855E3,2.029E3,1.956E3,2.045E3,2.576E3,3.874E3,6.553E3,2.7774E4,3.336E3,2.519E3,1.163E3,8.66E2,1.12E3,8.36E2,1.255E3,7.9E2,1.255E3,1.321E3,1.311E3,2.563E3,2.069E3,4.484E3,9.406E3,1.8368E4,1.997E3,1.339E3,1.914E3,6.05E2,8.5E2,3.13E2,6.38E2,2.28E2,6.48E2,4.72E2,6.75E2,1.61E2,9.9E2,2.65E2,4.53E2,3.37E2,5.86E2,6.69E2,6.73E2,6.48E2,8.18E2,4.93E2,9.75E2,1.588E3,8.82E2,1.187E3,1.166E3,3.318E3,1.775E3,7.631E3,5.519E3,1.2849E4,1.028E3,9.69E2,1.231E3,1.08E2,1.247E3,6.67E2,4.21E2,1.84E2,3.98E2,4.52E2,3.12E2,1E0,4.76E2,1.62E2,2.08E2,2E1,4.72E2,1.76E2,3.23E2,1.49E2,1.54E2,5.21E2,1.34E2,2.7E1,4.72E2,5.18E2,1.42E2,1.23E2,2.65E2,1.88E2,2.26E2,1.11E2,3.06E2,2.8E2,3.97E2,2.72E2,6.42E2,3.1E1,4.61E2,1.87E2,4.31E2,3.87E2,3.28E2,1.65E2,5.81E2,3.94E2,3.46E2,1.242E3,7.15E2,1.67E2,3.18E2,8.69E2,5.38E2,6.28E2,9.51E2,2.367E3,5.54E2,1.221E3,2.091E3,5.54E3,1.921E3,3.598E3,7.642E3,5.207E3,7.29E2,2.99E2,9.68E2,1E0,1.229E3,2E0,1.148E3,9.9E1,4.05E2,2.62E2,2.91E2,1.3E2,1.56E2,2.8E1,1.35E2,2.63E2,3.65E2,8.7E1,1.52E2,1.6E2,3.73E2,1.03E2,4.3E1,1.19E2,9.9E1,1.09E2,8E0,1.2E1,1.14E2,3.58E2,1.75E2,1E0,2.06E2,1.17E2,8.4E1,6.5E1,1.01E2,5.3E1,5.19E2,2E0,9.4E1,4E1,1.2E1,1.5E1,2.6E2,2.12E2,4.9E2,2.8E1,9.9E1,4.3E1,9.3E1,3E1,1.59E2,1.06E2,1.47E2,4.1E1,6.1E1,1.65E2,5E1,6.1E1,1.43E2,1.63E2,6.9E1,2.11E2,6.3E1,3.34E2,2.58E2,1.4E1,3.7E2,2.72E2,2.3E1,8E0,2.77E2,1.84E2,8.7E1,1E2,1.87E2,2.44E2,2.2E2,1.67E2,1.86E2,1.42E2,6.5E1,1E2,1.78E2,4.03E2,1.52E2,2.42E2,9E1,2.56E2,5.31E2,7.11E2,4.21E2,2.94E2,7.7E1,9E1,1.74E2,1.44E2,1.77E2,6.92E2,2.52E2,2.86E2,3.45E2,2.83E2,4.49E2,5.02E2,6.42E2,1.725E3,3.97E2,1.57E2,5.42E2,6.79E2,3.36E2,1.755E3,3.076E3,2.464E3,3.21E2,1.6E3,1.186E3,2.412E3,3.165E3,4.477E3,3.86E3,1.347E3],"tree_param":{"num_deleted":"0","num_feature":"30","num_nodes":"251","size_leaf_vector":"1"}},{"base_weights":[-1.2856987E-2,-8.544418E1,2.3330908E1,-1.0541495E2,-4.2179146E1,-1.1840996E1,3.0666956E1,-1.1336124E2,-8.0844574E1,-6.177982E1,-1.2200358E1,-3.670374E1,9.831472E0,1.5290176E1,3.436858E1,-1.2082959E2,-1.0334217E2,-8.923171E1,-5.8762104E1,-7.581626E1,-4.5190765E1,-2.6453074E1,1.6635687E1,-5.3307304E1,-1.50649805E1,-1.0439681E1,2.2154037E1,-5.9226236E0,2.3597876E1,2.723433E1,3.796086E1,-1.25353165E2,-1.1481784E2,-1.0789209E2,-8.8520676E1,-9.664658E1,-7.718733E1,-6.1724606E1,3.322101E1,-8.725012E1,-6.47342E1,-5.420293E1,-2.813258E1,-3.448936E1,3.8865964E0,-1.766238E-2,3.606468E1,-6.867511E1,-3.9670586E1,-2.68398E1,6.8389606E0,-2.186513E1,5.695449E0,7.309465E0,3.1154325E1,-1.9355764E1,1.4800932E1,8.910544E0,2.8310965E1,1.3181919E1,3.0685984E1,3.258684E1,4.0364513E1,-1.25534164E2,-3.1825907E1,-1.2016579E2,-1.1016159E2,-1.1173521E2,-9.7628685E1,-9.085051E1,-5.8129536E1,-1.0724566E2,-9.0324425E1,-8.05939E1,-5.6232098E1,-7.076191E1,-4.556346E1,2.4535615E0,-4.016266E0,-9.679769E1,-7.909703E1,-7.302232E1,-5.0095234E1,-5.573651E1,3.1721624E1,-3.528473E1,-5.239461E-1,-5.254348E1,-2.493243E1,-2.9680904E1,1.0738454E1,-1.6736069E1,1.4260229E1,2.769829E1,5.3487297E1,-8.0067184E1,-5.33849E1,-4.5359203E1,-1.795112E1,-3.241653E1,-6.811942E0,-4.562704E0,2.7336773E1,-3.0174702E1,-1.8543655E0,-1.034581E1,1.3883559E1,-3.6380036E0,2.3573956E1,1.4026341E1,3.5489845E1,-3.365346E1,-3.9248714E0,-3.4487293E0,2.2093475E1,-8.042117E0,1.8494383E1,1.892677E1,3.2117184E1,-9.330507E-1,2.3219517E1,2.2822256E1,3.355487E1,2.6194727E1,3.5913864E1,3.554405E1,4.2227474E1,-6.510354E0,-6.04863E0,-2.9936225E0,3.4146348E-1,-6.0162506E0,-2.253978E0,-5.5458546E0,-3.945894E0,-5.776149E0,-5.264656E0,-5.093374E0,-4.2393775E0,-4.9606886E0,-4.216142E0,-3.488154E0,-1.926911E0,-5.741989E0,-4.9606543E0,-4.5349154E0,2.7333086E0,-4.2960153E0,-3.559883E0,-3.019174E0,-1.4356751E0,-3.8587322E0,-2.700184E0,-3.2068233E0,-1.8708912E0,-9.0879744E-1,3.8037816E-1,-4.9703345E0,-3.8629982E0,-4.079046E0,-2.773712E0,-3.6742814E0,2.552632E0,-2.5750988E0,4.2137924E-1,-3.123107E0,-2.1075258E0,3.1736014E0,-5.303725E-1,-2.3575957E0,-1.3267332E0,-1.2128587E0,8.023152E-1,-3.2380059E0,-2.1439064E0,-1.5162548E0,-2.763827E-1,-1.7032557E0,5.858477E-1,3.5278338E-1,2.3670733E0,-1.4027295E0,-2.1648245E-1,4.0327764E-1,2.2306802E0,3.0684975E-1,1.767829E0,1.0684923E0,2.7831285E0,-4.32216E0,-3.1763444E0,-2.7436545E0,7.0293105E-1,-2.8378198E0,-1.9139977E0,-1.2529504E0,4.255024E-1,-1.9665421E0,-1.0146188E0,-1.5515007E0,6.783887E-2,-6.26365E-1,6.160091E-1,-3.2296018E-3,1.6175911E0,-1.658111E0,-9.198135E-2,-3.7698194E-1,2.164398E0,-1.769957E0,-2.7252278E-1,-4.7145924E-1,9.6714157E-1,-8.2641554E-1,2.2808647E-1,7.4478394E-1,1.9348459E0,5.936084E-2,1.2551839E0,1.4593315E0,2.0162592E0,-2.0101295E0,-1.0357196E0,-8.420728E-1,4.0479574E-1,-7.363282E-1,8.389018E-1,5.1750714E-1,1.4324392E0,-9.102234E-1,5.678426E-1,4.314336E-1,1.2296573E0,4.2899948E-1,1.2770218E0,1.3234757E0,1.7861719E0,-8.926701E-1,3.5591242E-1,4.9651012E-1,1.459536E0,7.368097E-1,1.4301625E0,1.4681629E0,1.8473507E0,4.2268944E-1,1.4456714E0,1.3422284E0,1.8791296E0,1.6384948E0,2.0450692E0,1.9631684E0,2.2400782E0],"categories":[],"categories_nodes":[],"categories_segments":[],"categories_sizes":[],"default_left":[1,1,1,0,0,1,0,1,0,1,0,1,0,1,0,1,1,0,0,1,0,0,0,1,0,0,0,0,0,1,1,1,1,1,0,1,1,0,1,0,1,1,1,0,0,1,0,1,1,0,0,1,0,1,0,0,0,0,0,0,0,0,0,1,0,1,1,0,0,0,1,0,1,0,0,0,0,0,0,1,1,1,1,0,0,1,0,0,1,0,1,1,0,0,0,0,0,0,1,0,0,1,0,0,0,0,0,0,1,0,1,0,0,0,0,0,0,0,0,1,0,0,0,0,0,0,0,0,0,0,0,0,0,0,0,0,0,0,0,0,0,0,0,0,0,0,0,0,0,0,0,0,0,0,0,0,0,0,0,0,0,0,0,0,0,0,0,0,0,0,0,0,0,0,0,0,0,0,0,0,0,0,0,0,0,0,0,0,0,0,0,0,0,0,0,0,0,0,0,0,0,0,0,0,0,0,0,0,0,0,0,0,0,0,0,0,0,0,0,0,0,0,0,0,0,0,0,0,0,0,0,0,0,0,0,0,0,0,0,0,0,0,0,0,0,0,0,0,0,0,0,0,0],"id":5,"left_children":[1,3,5,7,9,11,13,15,17,19,21,23,25,27,29,31,33,35,37,39,41,43,45,47,49,51,53,55,57,59,61,63,65,67,69,71,73,75,77,79,81,83,85,87,89,91,93,95,97,99,101,103,105,107,109,111,113,115,117,119,121,123,125,127,129,131,133,135,137,139,141,143,145,147,149,151,153,-1,155,157,159,161,163,165,167,169,171,173,175,177,179,181,183,185,187,189,191,193,195,197,199,201,203,205,207,209,211,213,215,217,219,221,223,225,227,229,231,233,235,237,239,241,243,245,247,249,251,-1,-1,-1,-1,-1,-1,-1,-1,-1,-1,-1,-1,-1,-1,-1,-1,-1,-1,-1,-1,-1,-1,-1,-1,-1,-1,-1,-1,-1,-1,-1,-1,-1,-1,-1,-1,-1,-1,-1,-1,-1,-1,-1,-1,-1,-1,-1,-1,-1,-1,-1,-1,-1,-1,-1,-1,-1,-1,-1,-1,-1,-1,-1,-1,-1,-1,-1,-1,-1,-1,-1,-1,-1,-1,-1,-1,-1,-1,-1,-1,-1,-1,-1,-1,-1,-1,-1,-1,-1,-1,-1,-1,-1,-1,-1,-1,-1,-1,-1,-1,-1,-1,-1,-1,-1,-1,-1,-1,-1,-1,-1,-1,-1,-1,-1,-1,-1,-1,-1,-1,-1,-1,-1,-1,-1,-1],"loss_changes":[1.05027224E8,9.760888E6,1.0672702E7,1.500456E6,2.097581E6,3.8471182E6,1.947472E6,4.24496E5,3.45357E5,4.993E5,5.811717E5,1.1938045E6,9.5319E5,1.1706568E6,7.0587E5,7.6436E4,1.59108E5,1.14892E5,1.448405E5,1.4235E5,1.5097638E5,2.3078612E5,1.5142569E5,3.914705E5,3.728706E5,2.6614312E5,3.1681788E5,5.2086162E5,3.3014725E5,4.47821E5,2.35626E5,2.8084E4,2.2768E4,6.439E4,3.6707E4,4.6869E4,3.3088E4,7.0970875E4,1.0230805E4,3.68695E4,6.87755E4,8.7156625E4,6.810559E4,1.27751375E5,4.6088676E4,6.063067E4,3.0003594E4,1.495325E5,1.22616125E5,1.04767875E5,1.1838157E5,1.4045144E5,7.882085E4,1.598011E5,1.09182375E5,2.5027866E5,9.802781E4,1.8877822E5,1.284425E5,2.5844669E5,1.665855E5,1.19727E5,1.12278E5,2.4558E4,5.8296055E3,2.49E3,9.777E3,2.1558E4,2.01025E4,2.16055E4,7.5676875E3,7.51625E3,3.3961E4,1.64545E4,7.062672E3,3.065125E4,2.5588656E4,0E0,1.1258131E3,5.522E3,1.389875E4,2.5538125E4,1.84635E4,5.5572625E4,1.6800857E4,2.7200625E4,2.8704352E4,2.7687375E4,5.1212312E4,6.570033E3,2.204295E4,1.6307949E4,2.5400186E4,2.4221172E4,3.631125E3,4.7661E4,3.8911625E4,6.1648E4,3.9522594E4,6.0817E4,4.079521E4,4.3990047E4,2.4874969E4,5.0475938E4,6.4231332E4,2.4703982E4,5.0708805E4,5.683473E4,4.680167E4,4.2637184E4,3.472625E4,4.9078812E4,8.506767E4,4.8379156E4,4.0195594E4,8.300517E4,4.443292E4,7.129034E4,5.1377E4,1.0352624E5,8.430056E4,9.2415E4,7.61645E4,9.36155E4,5.54265E4,5.1242E4,6.7925E4,0E0,0E0,0E0,0E0,0E0,0E0,0E0,0E0,0E0,0E0,0E0,0E0,0E0,0E0,0E0,0E0,0E0,0E0,0E0,0E0,0E0,0E0,0E0,0E0,0E0,0E0,0E0,0E0,0E0,0E0,0E0,0E0,0E0,0E0,0E0,0E0,0E0,0E0,0E0,0E0,0E0,0E0,0E0,0E0,0E0,0E0,0E0,0E0,0E0,0E0,0E0,0E0,0E0,0E0,0E0,0E0,0E0,0E0,0E0,0E0,0E0,0E0,0E0,0E0,0E0,0E0,0E0,0E0,0E0,0E0,0E0,0E0,0E0,0E0,0E0,0E0,0E0,0E0,0E0,0E0,0E0,0E0,0E0,0E0,0E0,0E0,0E0,0E0,0E0,0E0,0E0,0E0,0E0,0E0,0E0,0E0,0E0,0E0,0E0,0E0,0E0,0E0,0E0,0E0,0E0,0E0,0E0,0E0,0E0,0E0,0E0,0E0,0E0,0E0,0E0,0E0,0E0,0E0,0E0,0E0,0E0,0E0,0E0,0E0,0E0,0E0],"parents":[2147483647,0,0,1,1,2,2,3,3,4,4,5,5,6,6,7,7,8,8,9,9,10,10,11,11,12,12,13,13,14,14,15,15,16,16,17,17,18,18,19,19,20,20,21,21,22,22,23,23,24,24,25,25,26,26,27,27,28,28,29,29,30,30,31,31,32,32,33,33,34,34,35,35,36,36,37,37,38,38,39,39,40,40,41,41,42,42,43,43,44,44,45,45,46,46,47,47,48,48,49,49,50,50,51,51,52,52,53,53,54,54,55,55,56,56,57,57,58,58,59,59,60,60,61,61,62,62,63,63,64,64,65,65,66,66,67,67,68,68,69,69,70,70,71,71,72,72,73,73,74,74,75,75,76,76,78,78,79,79,80,80,81,81,82,82,83,83,84,84,85,85,86,86,87,87,88,88,89,89,90,90,91,91,92,92,93,93,94,94,95,95,96,96,97,97,98,98,99,99,100,100,101,101,102,102,103,103,104,104,105,105,106,106,107,107,108,108,109,109,110,110,111,111,112,112,113,113,114,114,115,115,116,116,117,117,118,118,119,119,120,120,121,121,122,122,123,123,124,124,125,125,126,126],"right_children":[2,4,6,8,10,12,14,16,18,20,22,24,26,28,30,32,34,36,38,40,42,44,46,48,50,52,54,56,58,60,62,64,66,68,70,72,74,76,78,80,82,84,86,88,90,92,94,96,98,100,102,104,106,108,110,112,114,116,118,120,122,124,126,128,130,132,134,136,138,140,142,144,146,148,150,152,154,-1,156,158,160,162,164,166,168,170,172,174,176,178,180,182,184,186,188,190,192,194,196,198,200,202,204,206,208,210,212,214,216,218,220,222,224,226,228,230,232,234,236,238,240,242,244,246,248,250,252,-1,-1,-1,-1,-1,-1,-1,-1,-1,-1,-1,-1,-1,-1,-1,-1,-1,-1,-1,-1,-1,-1,-1,-1,-1,-1,-1,-1,-1,-1,-1,-1,-1,-1,-1,-1,-1,-1,-1,-1,-1,-1,-1,-1,-1,-1,-1,-1,-1,-1,-1,-1,-1,-1,-1,-1,-1,-1,-1,-1,-1,-1,-1,-1,-1,-1,-1,-1,-1,-1,-1,-1,-1,-1,-1,-1,-1,-1,-1,-1,-1,-1,-1,-1,-1,-1,-1,-1,-1,-1,-1,-1,-1,-1,-1,-1,-1,-1,-1,-1,-1,-1,-1,-1,-1,-1,-1,-1,-1,-1,-1,-1,-1,-1,-1,-1,-1,-1,-1,-1,-1,-1,-1,-1,-1,-1],"split_conditions":[5E0,1.3E1,8E0,1.1E1,1.6E1,1.8E1,1.8E1,8E0,1.3E1,1.4E1,2E1,1.7E1,1.8E1,1E1,2E1,7E0,1.1E1,1.1E1,2.3E1,1.2E1,1.7E1,2.1E1,1.1E1,1.4E1,1.9E1,1.9E1,1E1,2E1,1.8E1,1E1,2E1,7E0,7E0,1E1,1.7E1,8E0,7E0,1.4E1,1.4E1,1E1,5E0,1.7E1,1.2E1,1.4E1,6E0,9E0,2.6E1,5E0,1.1E1,2E1,1.2E1,1.2E1,1.8E1,1.1E1,1.8E1,1.8E1,1.8E1,1.2E1,1.9E1,1.9E1,1.9E1,2E1,2E1,6E0,9E0,1.5E1,5E0,8E0,1.1E1,9E0,4E0,8E0,1.6E1,1.3E1,1.8E1,1.5E1,1.2E1,2.4535615E0,7E0,1.3E1,8E0,2.3E1,1.3E1,1.5E1,9E0,5E0,1.9E1,1.4E1,1.1E1,2.1E1,2E1,8E0,1.6E1,9E0,6E0,1.4E1,1.9E1,1.4E1,1.3E1,1.8E1,1.5E1,1.2E1,1.7E1,2.1E1,2.2E1,5E0,1.6E1,7E0,1.4E1,2E1,1.3E1,1.8E1,1.8E1,1.9E1,1.9E1,2E1,1.9E1,1.9E1,2E1,9E0,1.9E1,2E1,2.1E1,9E0,1.8E1,2.3E1,2.2E1,-6.510354E0,-6.04863E0,-2.9936225E0,3.4146348E-1,-6.0162506E0,-2.253978E0,-5.5458546E0,-3.945894E0,-5.776149E0,-5.264656E0,-5.093374E0,-4.2393775E0,-4.9606886E0,-4.216142E0,-3.488154E0,-1.926911E0,-5.741989E0,-4.9606543E0,-4.5349154E0,2.7333086E0,-4.2960153E0,-3.559883E0,-3.019174E0,-1.4356751E0,-3.8587322E0,-2.700184E0,-3.2068233E0,-1.8708912E0,-9.0879744E-1,3.8037816E-1,-4.9703345E0,-3.8629982E0,-4.079046E0,-2.773712E0,-3.6742814E0,2.552632E0,-2.5750988E0,4.2137924E-1,-3.123107E0,-2.1075258E0,3.1736014E0,-5.303725E-1,-2.3575957E0,-1.3267332E0,-1.2128587E0,8.023152E-1,-3.2380059E0,-2.1439064E0,-1.5162548E0,-2.763827E-1,-1.7032557E0,5.858477E-1,3.5278338E-1,2.3670733E0,-1.4027295E0,-2.1648245E-1,4.0327764E-1,2.2306802E0,3.0684975E-1,1.767829E0,1.0684923E0,2.7831285E0,-4.32216E0,-3.1763444E0,-2.7436545E0,7.0293105E-1,-2.8378198E0,-1.9139977E0,-1.2529504E0,4.255024E-1,-1.9665421E0,-1.0146188E0,-1.5515007E0,6.783887E-2,-6.26365E-1,6.160091E-1,-3.2296018E-3,1.6175911E0,-1.658111E0,-9.198135E-2,-3.7698194E-1,2.164398E0,-1.769957E0,-2.7252278E-1,-4.7145924E-1,9.6714157E-1,-8.2641554E-1,2.2808647E-1,7.4478394E-1,1.9348459E0,5.936084E-2,1.2551839E0,1.4593315E0,2.0162592E0,-2.0101295E0,-1.0357196E0,-8.420728E-1,4.0479574E-1,-7.363282E-1,8.389018E-1,5.1750714E-1,1.4324392E0,-9.102234E-1,5.678426E-1,4.314336E-1,1.2296573E0,4.2899948E-1,1.2770218E0,1.3234757E0,1.7861719E0,-8.926701E-1,3.5591242E-1,4.9651012E-1,1.459536E0,7.368097E-1,1.4301625E0,1.4681629E0,1.8473507E0,4.2268944E-1,1.4456714E0,1.3422284E0,1.8791296E0,1.6384948E0,2.0450692E0,1.9631684E0,2.2400782E0],"split_indices":[22,0,29,2,11,1,5,1,12,2,14,2,10,28,9,3,3,5,13,1,3,4,28,4,11,9,28,3,0,28,10,27,4,4,1,3,17,13,2,4,18,17,20,12,17,20,9,15,15,4,20,15,3,26,12,0,2,17,2,11,1,4,6,0,5,11,17,2,14,10,21,0,15,1,9,9,14,0,15,6,15,15,29,10,18,28,2,6,18,12,15,15,17,21,15,1,15,5,21,5,13,15,6,13,15,27,4,27,21,6,15,2,9,10,12,3,1,9,12,15,6,7,6,15,3,12,7,0,0,0,0,0,0,0,0,0,0,0,0,0,0,0,0,0,0,0,0,0,0,0,0,0,0,0,0,0,0,0,0,0,0,0,0,0,0,0,0,0,0,0,0,0,0,0,0,0,0,0,0,0,0,0,0,0,0,0,0,0,0,0,0,0,0,0,0,0,0,0,0,0,0,0,0,0,0,0,0,0,0,0,0,0,0,0,0,0,0,0,0,0,0,0,0,0,0,0,0,0,0,0,0,0,0,0,0,0,0,0,0,0,0,0,0,0,0,0,0,0,0,0,0,0,0],"split_type":[0,0,0,0,0,0,0,0,0,0,0,0,0,0,0,0,0,0,0,0,0,0,0,0,0,0,0,0,0,0,0,0,0,0,0,0,0,0,0,0,0,0,0,0,0,0,0,0,0,0,0,0,0,0,0,0,0,0,0,0,0,0,0,0,0,0,0,0,0,0,0,0,0,0,0,0,0,0,0,0,0,0,0,0,0,0,0,0,0,0,0,0,0,0,0,0,0,0,0,0,0,0,0,0,0,0,0,0,0,0,0,0,0,0,0,0,0,0,0,0,0,0,0,0,0,0,0,0,0,0,0,0,0,0,0,0,0,0,0,0,0,0,0,0,0,0,0,0,0,0,0,0,0,0,0,0,0,0,0,0,0,0,0,0,0,0,0,0,0,0,0,0,0,0,0,0,0,0,0,0,0,0,0,0,0,0,0,0,0,0,0,0,0,0,0,0,0,0,0,0,0,0,0,0,0,0,0,0,0,0,0,0,0,0,0,0,0,0,0,0,0,0,0,0,0,0,0,0,0,0,0,0,0,0,0,0,0,0,0,0,0,0,0,0,0,0,0,0,0,0,0,0,0],"sum_hessian":[5.2662E4,1.1301E4,4.1361E4,7.731E3,3.57E3,7.138E3,3.4223E4,5.839E3,1.892E3,2.158E3,1.412E3,3.324E3,3.814E3,6.641E3,2.7582E4,3.339E3,2.5E3,1.369E3,5.23E2,1.167E3,9.91E2,9.45E2,4.67E2,1.88E3,1.444E3,1.442E3,2.372E3,1.869E3,4.772E3,9.24E3,1.8342E4,1.894E3,1.445E3,1.908E3,5.92E2,8.43E2,5.26E2,5.07E2,1.6E1,5.71E2,5.96E2,6.47E2,3.44E2,7.47E2,1.98E2,2.52E2,2.15E2,8.82E2,9.98E2,9.39E2,5.05E2,8.44E2,5.98E2,8.96E2,1.476E3,1.134E3,7.35E2,1.16E3,3.612E3,1.823E3,7.417E3,5.673E3,1.2669E4,1.89E3,4E0,6.61E2,7.84E2,1.381E3,5.27E2,5.48E2,4.4E1,3.09E2,5.34E2,4.5E2,7.6E1,3.23E2,1.84E2,1.1E1,5E0,2.58E2,3.13E2,3.78E2,2.18E2,6.36E2,1.1E1,2.73E2,7.1E1,2.57E2,4.9E2,3.3E1,1.65E2,1.16E2,1.36E2,1.47E2,6.8E1,5.03E2,3.79E2,7.9E2,2.08E2,7.34E2,2.05E2,3.25E2,1.8E2,5.96E2,2.48E2,2.02E2,3.96E2,5.36E2,3.6E2,2.99E2,1.177E3,5.88E2,5.46E2,2.1E2,5.25E2,4.19E2,7.41E2,1.044E3,2.568E3,7.58E2,1.065E3,1.985E3,5.432E3,1.945E3,3.728E3,3.537E3,9.132E3,9.2E2,9.7E2,2E0,2E0,6.59E2,2E0,7.63E2,2.1E1,8.59E2,5.22E2,3.91E2,1.36E2,2.34E2,3.14E2,2.6E1,1.8E1,1.52E2,1.57E2,5.33E2,1E0,2.82E2,1.68E2,6.5E1,1.1E1,2.31E2,9.2E1,5.4E1,1.3E2,2E0,3E0,2.24E2,3.4E1,2.81E2,3.2E1,3.77E2,1E0,2.13E2,5E0,4.23E2,2.13E2,6E0,5E0,1.14E2,1.59E2,2.9E1,4.2E1,1.11E2,1.46E2,3.83E2,1.07E2,3E1,3E0,1.51E2,1.4E1,6E1,5.6E1,1.14E2,2.2E1,3.9E1,1.08E2,5E0,6.3E1,3.6E2,1.43E2,3.71E2,8E0,3E2,4.9E2,1.64E2,4.4E1,4.66E2,2.68E2,5.1E1,1.54E2,2.21E2,1.04E2,2.8E1,1.52E2,5.39E2,5.7E1,2.21E2,2.7E1,3.2E1,1.7E2,7.5E1,3.21E2,2.08E2,3.28E2,2.3E2,1.3E2,1.39E2,1.6E2,5.14E2,6.63E2,3.89E2,1.99E2,2.63E2,2.83E2,1.35E2,7.5E1,1.89E2,3.36E2,2.75E2,1.44E2,2.84E2,4.57E2,4.08E2,6.36E2,1.004E3,1.564E3,2.44E2,5.14E2,3.31E2,7.34E2,8.29E2,1.156E3,2.434E3,2.998E3,2.59E2,1.686E3,5.82E2,3.146E3,2.335E3,1.202E3,4.252E3,4.88E3],"tree_param":{"num_deleted":"0","num_feature":"30","num_nodes":"253","size_leaf_vector":"1"}},{"base_weights":[-1.4394535E-2,-8.019029E1,2.25641E1,-9.9842804E1,-3.9364685E1,-1.0916232E1,2.916723E1,-1.07796295E2,-7.623821E1,-5.5390396E1,-5.2290335E0,-3.256736E1,1.1040821E1,1.4440315E1,3.3136036E1,-1.1449786E2,-9.834492E1,-8.75849E1,-6.032367E1,-6.9661224E1,-3.9335636E1,-1.8842936E1,2.1944048E1,-5.5292942E1,-1.8410545E1,-4.4421344E0,2.3131031E1,-8.742216E0,2.1839329E1,2.6343771E1,3.6423336E1,-1.1826596E2,-1.06473915E2,-1.03196625E2,-8.601042E1,-9.564351E1,-7.631503E1,-6.544071E1,-2.754797E1,-8.4867355E1,-6.016728E1,-4.4586178E1,-1.1172615E1,-2.8115192E1,1.983454E0,4.8372993E0,3.7876125E1,-6.9290215E1,-4.161292E1,-2.7052061E1,3.0165653E0,-1.9763142E1,8.759241E0,1.2502908E1,3.0749855E1,-2.1808584E1,1.153084E1,8.110625E0,2.6800367E1,1.5982608E1,3.072129E1,3.1094707E1,3.8695175E1,-1.2257049E2,-1.14068695E2,-1.0895602E2,-9.655745E1,-1.08136604E2,-9.467102E1,-9.03994E1,-7.2629105E1,-1.0318968E2,-8.774106E1,-7.878668E1,-4.6092716E1,-7.091005E1,-4.6128292E1,-3.585E1,2.2657473E0,-8.94721E1,-7.179547E1,-6.6695076E1,-4.525918E1,-5.4733894E1,-3.62402E1,-1.4391109E1,7.548369E1,-3.473968E1,-8.230169E0,-9.302885E0,1.9950396E1,-2.020796E1,1.7515375E1,5.6359325E1,2.9456808E1,-8.285523E1,-5.8723293E1,-6.197804E1,-3.8229057E1,-3.7884995E1,-1.6051947E1,-1.257194E1,1.6045084E1,-2.8604956E1,-3.737893E0,-3.540176E0,2.0315516E1,-2.1544402E0,2.1481192E1,2.3133514E1,3.5610683E1,-3.032621E1,6.5263593E-1,4.3497705E-1,2.7374985E1,-5.4375944E0,1.735075E1,1.927415E1,3.1434355E1,-2.5369375E0,2.1574675E1,2.4786655E1,3.3958508E1,2.5357903E1,3.4210335E1,3.5644108E1,4.146483E1,-6.206368E0,-5.689808E0,-5.709401E0,6.8031085E-1,-5.5878778E0,-5.1250706E0,-5.0177073E0,-4.102804E0,-5.6127715E0,-5.093868E0,-4.8675556E0,-3.943976E0,-4.58826E0,-3.2126007E0,-3.7191124E0,-1.9784945E0,-5.2922416E0,-4.2333927E0,-4.749418E0,-4.077082E0,-4.3038483E0,-3.4817936E0,2.5131671E0,-2.4975562E0,-3.7334085E0,-2.8288264E0,-2.5863807E0,-1.5334709E0,-2.4399953E0,-1.0132345E0,-4.7056327E0,-3.8478162E0,-3.6648183E0,1.0588689E0,-3.8396137E0,-2.9895897E0,-2.4637616E0,-7.130895E-1,-2.8191288E0,-8.9096063E-1,-2.0777762E0,-1.0279671E0,-1.3118763E0,1.4721875E-1,4.5804024E-1,4.250535E0,-2.527521E0,-1.4374195E0,-1.2600046E0,3.195936E-1,-6.967685E-1,1.0239594E0,-2.5007418E-1,1.3501805E0,-2.58441E0,-4.1156927E-1,-5.838408E-1,1.2117543E0,1.0210103E0,2.9207466E0,5.981729E-1,1.7669563E0,-4.3906913E0,-3.1605086E0,-3.3312805E0,-2.2434595E0,-3.564885E0,-2.3923519E0,-2.0318422E0,-6.942085E-1,-2.6768587E0,-1.5280913E0,-1.0786237E0,2.1336536E-1,-7.898172E-1,1.8740994E0,3.934208E-1,1.5530897E0,-1.7457441E0,-7.3449135E-1,-4.659679E-1,7.5831485E-1,-6.754786E-1,3.071048E-1,1.7433612E-1,1.2768185E0,-1.158677E0,4.6120125E-1,8.1066084E-1,1.8366984E0,7.411558E-1,1.619717E0,1.463412E0,1.976043E0,-1.8319263E0,-4.8746428E-1,-1.2593831E0,5.9421974E-1,-8.349539E-1,5.0233495E-1,4.4226232E-1,1.6243544E0,-6.920116E-1,7.5103784E-1,3.6041102E-1,1.154596E0,1.283932E-1,1.1026202E0,1.2802514E0,1.7349838E0,-7.070259E-1,4.8501465E-1,2.8896233E-1,1.2516202E0,2.1825536E-1,1.3212537E0,1.4338381E0,1.8276154E0,8.4474564E-1,1.4905713E0,1.6021184E0,2.0086668E0,1.5958402E0,1.9113022E0,1.7927338E0,2.1352088E0],"categories":[],"categories_nodes":[],"categories_segments":[],"categories_sizes":[],"default_left":[1,1,1,0,0,0,0,1,0,1,0,0,1,1,0,1,1,1,0,0,0,0,0,0,0,0,0,0,0,0,0,1,1,1,1,1,1,1,0,1,1,0,1,0,1,0,1,0,0,1,1,0,0,0,0,0,0,1,1,0,0,0,0,0,1,0,1,1,1,1,1,1,1,1,0,1,0,0,0,1,1,1,1,0,1,0,0,1,0,0,0,0,0,0,0,1,1,0,0,0,1,0,0,0,0,0,0,0,0,0,0,0,0,0,0,0,0,0,0,0,0,0,0,0,0,0,1,0,0,0,0,0,0,0,0,0,0,0,0,0,0,0,0,0,0,0,0,0,0,0,0,0,0,0,0,0,0,0,0,0,0,0,0,0,0,0,0,0,0,0,0,0,0,0,0,0,0,0,0,0,0,0,0,0,0,0,0,0,0,0,0,0,0,0,0,0,0,0,0,0,0,0,0,0,0,0,0,0,0,0,0,0,0,0,0,0,0,0,0,0,0,0,0,0,0,0,0,0,0,0,0,0,0,0,0,0,0,0,0,0,0,0,0,0,0,0,0,0,0,0,0,0,0],"id":6,"left_children":[1,3,5,7,9,11,13,15,17,19,21,23,25,27,29,31,33,35,37,39,41,43,45,47,49,51,53,55,57,59,61,63,65,67,69,71,73,75,77,79,81,83,85,87,89,91,93,95,97,99,101,103,105,107,109,111,113,115,117,119,121,123,125,127,129,131,133,135,137,139,141,143,145,147,149,151,153,155,-1,157,159,161,163,165,167,169,171,173,175,177,179,181,183,185,187,189,191,193,195,197,199,201,203,205,207,209,211,213,215,217,219,221,223,225,227,229,231,233,235,237,239,241,243,245,247,249,251,-1,-1,-1,-1,-1,-1,-1,-1,-1,-1,-1,-1,-1,-1,-1,-1,-1,-1,-1,-1,-1,-1,-1,-1,-1,-1,-1,-1,-1,-1,-1,-1,-1,-1,-1,-1,-1,-1,-1,-1,-1,-1,-1,-1,-1,-1,-1,-1,-1,-1,-1,-1,-1,-1,-1,-1,-1,-1,-1,-1,-1,-1,-1,-1,-1,-1,-1,-1,-1,-1,-1,-1,-1,-1,-1,-1,-1,-1,-1,-1,-1,-1,-1,-1,-1,-1,-1,-1,-1,-1,-1,-1,-1,-1,-1,-1,-1,-1,-1,-1,-1,-1,-1,-1,-1,-1,-1,-1,-1,-1,-1,-1,-1,-1,-1,-1,-1,-1,-1,-1,-1,-1,-1,-1,-1,-1],"loss_changes":[9.5335064E7,9.280584E6,9.084734E6,1.458208E6,2.057705E6,3.2187832E6,2.005642E6,3.5864E5,3.50816E5,5.837935E5,4.4544138E5,1.0957322E6,6.294429E5,1.2502858E6,6.02706E5,9.054E4,1.36542E5,9.7052E4,1.3639425E5,1.903655E5,1.7798225E5,1.5492806E5,1.093803E5,2.4757625E5,3.8929362E5,2.9850422E5,1.52494E5,4.675267E5,3.76083E5,3.995955E5,2.19314E5,2.779E4,1.6555E4,6.3004E4,3.40755E4,3.06615E4,3.2523E4,7.193475E4,6.9979375E4,2.4756E4,7.8436E4,8.414875E4,5.4356734E4,7.282319E4,5.047528E4,6.2271465E4,3.0707938E4,8.7589E4,4.3388625E4,1.7789875E5,1.2307427E5,9.6668875E4,1.1278533E5,1.0400856E5,3.9863E4,2.0530216E5,1.2164478E5,1.8386919E5,1.409225E5,2.715957E5,1.18271E5,9.65445E4,1.0641E5,1.284E3,1.9606E4,4.313E3,4.3735E3,1.6768E4,1.9661E4,1.25675E4,7.25725E3,7.513E3,7.171E3,2.37595E4,1.7010156E4,2.556375E4,1.2263031E4,1.9597562E4,0E0,1.476975E4,2.1088125E4,3.58365E4,3.1414938E4,2.6808625E4,4.5904375E4,3.806947E4,3.644246E3,3.7953094E4,3.489996E4,2.1394035E4,1.7030188E4,2.4458215E4,2.5784191E4,3.53525E3,1.449793E4,2.1724625E4,3.7080125E4,8.836344E3,3.2964938E4,8.479E4,8.366095E4,4.5136836E4,4.0275188E4,3.8120625E4,2.5886527E4,3.724564E4,3.584597E4,7.220245E4,3.87765E4,3.2690078E4,1.5434625E4,1.0069569E5,8.620801E4,6.736038E4,2.6709531E4,1.02662734E5,5.0668312E4,7.183919E4,4.68885E4,8.661252E4,1.0985244E5,7.322675E4,5.3875E4,7.1936875E4,4.4334E4,5.7311E4,4.4956E4,0E0,0E0,0E0,0E0,0E0,0E0,0E0,0E0,0E0,0E0,0E0,0E0,0E0,0E0,0E0,0E0,0E0,0E0,0E0,0E0,0E0,0E0,0E0,0E0,0E0,0E0,0E0,0E0,0E0,0E0,0E0,0E0,0E0,0E0,0E0,0E0,0E0,0E0,0E0,0E0,0E0,0E0,0E0,0E0,0E0,0E0,0E0,0E0,0E0,0E0,0E0,0E0,0E0,0E0,0E0,0E0,0E0,0E0,0E0,0E0,0E0,0E0,0E0,0E0,0E0,0E0,0E0,0E0,0E0,0E0,0E0,0E0,0E0,0E0,0E0,0E0,0E0,0E0,0E0,0E0,0E0,0E0,0E0,0E0,0E0,0E0,0E0,0E0,0E0,0E0,0E0,0E0,0E0,0E0,0E0,0E0,0E0,0E0,0E0,0E0,0E0,0E0,0E0,0E0,0E0,0E0,0E0,0E0,0E0,0E0,0E0,0E0,0E0,0E0,0E0,0E0,0E0,0E0,0E0,0E0,0E0,0E0,0E0,0E0,0E0,0E0],"parents":[2147483647,0,0,1,1,2,2,3,3,4,4,5,5,6,6,7,7,8,8,9,9,10,10,11,11,12,12,13,13,14,14,15,15,16,16,17,17,18,18,19,19,20,20,21,21,22,22,23,23,24,24,25,25,26,26,27,27,28,28,29,29,30,30,31,31,32,32,33,33,34,34,35,35,36,36,37,37,38,38,39,39,40,40,41,41,42,42,43,43,44,44,45,45,46,46,47,47,48,48,49,49,50,50,51,51,52,52,53,53,54,54,55,55,56,56,57,57,58,58,59,59,60,60,61,61,62,62,63,63,64,64,65,65,66,66,67,67,68,68,69,69,70,70,71,71,72,72,73,73,74,74,75,75,76,76,77,77,79,79,80,80,81,81,82,82,83,83,84,84,85,85,86,86,87,87,88,88,89,89,90,90,91,91,92,92,93,93,94,94,95,95,96,96,97,97,98,98,99,99,100,100,101,101,102,102,103,103,104,104,105,105,106,106,107,107,108,108,109,109,110,110,111,111,112,112,113,113,114,114,115,115,116,116,117,117,118,118,119,119,120,120,121,121,122,122,123,123,124,124,125,125,126,126],"right_children":[2,4,6,8,10,12,14,16,18,20,22,24,26,28,30,32,34,36,38,40,42,44,46,48,50,52,54,56,58,60,62,64,66,68,70,72,74,76,78,80,82,84,86,88,90,92,94,96,98,100,102,104,106,108,110,112,114,116,118,120,122,124,126,128,130,132,134,136,138,140,142,144,146,148,150,152,154,156,-1,158,160,162,164,166,168,170,172,174,176,178,180,182,184,186,188,190,192,194,196,198,200,202,204,206,208,210,212,214,216,218,220,222,224,226,228,230,232,234,236,238,240,242,244,246,248,250,252,-1,-1,-1,-1,-1,-1,-1,-1,-1,-1,-1,-1,-1,-1,-1,-1,-1,-1,-1,-1,-1,-1,-1,-1,-1,-1,-1,-1,-1,-1,-1,-1,-1,-1,-1,-1,-1,-1,-1,-1,-1,-1,-1,-1,-1,-1,-1,-1,-1,-1,-1,-1,-1,-1,-1,-1,-1,-1,-1,-1,-1,-1,-1,-1,-1,-1,-1,-1,-1,-1,-1,-1,-1,-1,-1,-1,-1,-1,-1,-1,-1,-1,-1,-1,-1,-1,-1,-1,-1,-1,-1,-1,-1,-1,-1,-1,-1,-1,-1,-1,-1,-1,-1,-1,-1,-1,-1,-1,-1,-1,-1,-1,-1,-1,-1,-1,-1,-1,-1,-1,-1,-1,-1,-1,-1,-1],"split_conditions":[5E0,1.3E1,8E0,1.1E1,1.7E1,1.8E1,1.8E1,8E0,1.2E1,5E0,1.1E1,1.5E1,1E1,1E1,2E1,8E0,3E0,3E0,1.7E1,1.1E1,2E1,2E1,1.2E1,1.4E1,1.9E1,1.8E1,2E1,2E1,1.8E1,1.9E1,2E1,6E0,1E1,9E0,1.2E1,9E0,7E0,6E0,2.5E1,4E0,1.5E1,1.4E1,2.3E1,2E1,9E0,1.8E1,5E0,1.2E1,1.1E1,8E0,9E0,1.9E1,1E1,1.1E1,1.2E1,2E1,2.1E1,1.3E1,2E1,1E1,2E1,2E1,2.2E1,8E0,1.1E1,8E0,1E1,8E0,1.2E1,5E0,7E0,1.2E1,9E0,3E0,3E0,6E0,1.6E1,1.6E1,2.2657473E0,1.2E1,9E0,3E0,9E0,2.1E1,8E0,1.8E1,2.1E1,4E0,8E0,1.4E1,8E0,1.5E1,1.7E1,6E0,9E0,5E0,6E0,1.4E1,2.1E1,1.4E1,1.2E1,2.4E1,2.2E1,1.9E1,1.2E1,1E1,1.8E1,1.8E1,2.4E1,2.2E1,2.1E1,1.9E1,1.7E1,9E0,9E0,2.1E1,1.9E1,1.6E1,2E1,1.9E1,1.7E1,8E0,2E1,1.4E1,2.4E1,2.1E1,1.1E1,-6.206368E0,-5.689808E0,-5.709401E0,6.8031085E-1,-5.5878778E0,-5.1250706E0,-5.0177073E0,-4.102804E0,-5.6127715E0,-5.093868E0,-4.8675556E0,-3.943976E0,-4.58826E0,-3.2126007E0,-3.7191124E0,-1.9784945E0,-5.2922416E0,-4.2333927E0,-4.749418E0,-4.077082E0,-4.3038483E0,-3.4817936E0,2.5131671E0,-2.4975562E0,-3.7334085E0,-2.8288264E0,-2.5863807E0,-1.5334709E0,-2.4399953E0,-1.0132345E0,-4.7056327E0,-3.8478162E0,-3.6648183E0,1.0588689E0,-3.8396137E0,-2.9895897E0,-2.4637616E0,-7.130895E-1,-2.8191288E0,-8.9096063E-1,-2.0777762E0,-1.0279671E0,-1.3118763E0,1.4721875E-1,4.5804024E-1,4.250535E0,-2.527521E0,-1.4374195E0,-1.2600046E0,3.195936E-1,-6.967685E-1,1.0239594E0,-2.5007418E-1,1.3501805E0,-2.58441E0,-4.1156927E-1,-5.838408E-1,1.2117543E0,1.0210103E0,2.9207466E0,5.981729E-1,1.7669563E0,-4.3906913E0,-3.1605086E0,-3.3312805E0,-2.2434595E0,-3.564885E0,-2.3923519E0,-2.0318422E0,-6.942085E-1,-2.6768587E0,-1.5280913E0,-1.0786237E0,2.1336536E-1,-7.898172E-1,1.8740994E0,3.934208E-1,1.5530897E0,-1.7457441E0,-7.3449135E-1,-4.659679E-1,7.5831485E-1,-6.754786E-1,3.071048E-1,1.7433612E-1,1.2768185E0,-1.158677E0,4.6120125E-1,8.1066084E-1,1.8366984E0,7.411558E-1,1.619717E0,1.463412E0,1.976043E0,-1.8319263E0,-4.8746428E-1,-1.2593831E0,5.9421974E-1,-8.349539E-1,5.0233495E-1,4.4226232E-1,1.6243544E0,-6.920116E-1,7.5103784E-1,3.6041102E-1,1.154596E0,1.283932E-1,1.1026202E0,1.2802514E0,1.7349838E0,-7.070259E-1,4.8501465E-1,2.8896233E-1,1.2516202E0,2.1825536E-1,1.3212537E0,1.4338381E0,1.8276154E0,8.4474564E-1,1.4905713E0,1.6021184E0,2.0086668E0,1.5958402E0,1.9113022E0,1.7927338E0,2.1352088E0],"split_indices":[25,0,28,2,14,8,14,3,5,17,27,0,22,15,0,0,16,16,13,3,5,4,28,4,14,12,14,2,11,2,4,5,4,6,8,6,21,19,2,16,5,6,19,5,28,4,26,6,2,16,21,5,24,15,21,12,8,16,5,19,6,12,3,2,16,2,10,5,8,17,15,3,11,15,0,16,14,6,0,8,23,16,28,11,26,12,4,28,16,15,15,2,3,15,19,17,16,3,6,2,26,5,3,2,21,23,2,3,3,5,3,0,4,21,26,13,2,12,6,11,8,25,5,15,2,8,21,0,0,0,0,0,0,0,0,0,0,0,0,0,0,0,0,0,0,0,0,0,0,0,0,0,0,0,0,0,0,0,0,0,0,0,0,0,0,0,0,0,0,0,0,0,0,0,0,0,0,0,0,0,0,0,0,0,0,0,0,0,0,0,0,0,0,0,0,0,0,0,0,0,0,0,0,0,0,0,0,0,0,0,0,0,0,0,0,0,0,0,0,0,0,0,0,0,0,0,0,0,0,0,0,0,0,0,0,0,0,0,0,0,0,0,0,0,0,0,0,0,0,0,0,0,0],"split_type":[0,0,0,0,0,0,0,0,0,0,0,0,0,0,0,0,0,0,0,0,0,0,0,0,0,0,0,0,0,0,0,0,0,0,0,0,0,0,0,0,0,0,0,0,0,0,0,0,0,0,0,0,0,0,0,0,0,0,0,0,0,0,0,0,0,0,0,0,0,0,0,0,0,0,0,0,0,0,0,0,0,0,0,0,0,0,0,0,0,0,0,0,0,0,0,0,0,0,0,0,0,0,0,0,0,0,0,0,0,0,0,0,0,0,0,0,0,0,0,0,0,0,0,0,0,0,0,0,0,0,0,0,0,0,0,0,0,0,0,0,0,0,0,0,0,0,0,0,0,0,0,0,0,0,0,0,0,0,0,0,0,0,0,0,0,0,0,0,0,0,0,0,0,0,0,0,0,0,0,0,0,0,0,0,0,0,0,0,0,0,0,0,0,0,0,0,0,0,0,0,0,0,0,0,0,0,0,0,0,0,0,0,0,0,0,0,0,0,0,0,0,0,0,0,0,0,0,0,0,0,0,0,0,0,0,0,0,0,0,0,0,0,0,0,0,0,0,0,0,0,0,0,0],"sum_hessian":[5.2662E4,1.1571E4,4.1091E4,7.81E3,3.761E3,6.769E3,3.4322E4,5.839E3,1.971E3,2.559E3,1.202E3,3.408E3,3.361E3,7.287E3,2.7035E4,3.41E3,2.429E3,1.148E3,8.23E2,1.353E3,1.206E3,8.01E2,4.01E2,1.307E3,2.101E3,1.474E3,1.887E3,1.763E3,5.524E3,8.82E3,1.8215E4,2.311E3,1.099E3,1.738E3,6.91E2,6.65E2,4.83E2,7.11E2,1.12E2,5.17E2,8.36E2,1.016E3,1.9E2,5.54E2,2.47E2,1.94E2,2.07E2,6.44E2,6.63E2,1.497E3,6.04E2,6.82E2,7.92E2,7.89E2,1.098E3,1.072E3,6.91E2,1.467E3,4.057E3,2.621E3,6.199E3,5.449E3,1.2766E4,1.127E3,1.184E3,8.71E2,2.28E2,1.093E3,6.45E2,5.16E2,1.75E2,3.34E2,3.31E2,4.45E2,3.8E1,5.52E2,1.59E2,1.01E2,1.1E1,3.78E2,1.39E2,5.79E2,2.57E2,4.56E2,5.6E2,1.84E2,6E0,4.15E2,1.39E2,1.52E2,9.5E1,6.5E1,1.29E2,6.3E1,1.44E2,2.79E2,3.65E2,9.2E1,5.71E2,7.53E2,7.44E2,2.75E2,3.29E2,4.39E2,2.43E2,3.84E2,4.08E2,3E2,4.89E2,4.3E2,6.68E2,7.77E2,2.95E2,4.07E2,2.84E2,5.95E2,8.72E2,1.548E3,2.509E3,6.08E2,2.013E3,2.191E3,4.008E3,1.921E3,3.528E3,6.081E3,6.685E3,9.46E2,1.81E2,1.183E3,1E0,5.96E2,2.75E2,1.76E2,5.2E1,6.49E2,4.44E2,5.47E2,9.8E1,4.88E2,2.8E1,1.65E2,1E1,2.88E2,4.6E1,1.46E2,1.85E2,2.43E2,2.02E2,1E0,3.7E1,4.34E2,1.18E2,1.15E2,4.4E1,5.4E1,4.7E1,2.71E2,1.07E2,1.37E2,2E0,2.31E2,3.48E2,2.27E2,3E1,4.36E2,2E1,4.17E2,1.43E2,1.09E2,7.5E1,1E0,5E0,1.12E2,3.03E2,6.4E1,7.5E1,1.32E2,2E1,2.1E1,7.4E1,1.7E1,4.8E1,2.4E1,1.05E2,4E0,5.9E1,3.7E1,1.07E2,2.2E2,5.9E1,2.3E2,1.35E2,5.3E1,3.9E1,5.19E2,5.2E1,2.38E2,5.15E2,5.85E2,1.59E2,2.59E2,1.6E1,2.14E2,1.15E2,3.01E2,1.38E2,1.88E2,5.5E1,1.89E2,1.95E2,9.7E1,3.11E2,1.05E2,1.95E2,3.65E2,1.24E2,2.28E2,2.02E2,2.58E2,4.1E2,5.94E2,1.83E2,8.9E1,2.06E2,1.46E2,2.61E2,6.2E1,2.22E2,4.22E2,1.73E2,3.16E2,5.56E2,2.21E2,1.327E3,9.04E2,1.605E3,3.12E2,2.96E2,3.62E2,1.651E3,1.63E2,2.028E3,1.324E3,2.684E3,6.64E2,1.257E3,2.592E3,9.36E2,2.494E3,3.587E3,1.215E3,5.47E3],"tree_param":{"num_deleted":"0","num_feature":"30","num_nodes":"253","size_leaf_vector":"1"}},{"base_weights":[-1.6045826E-2,-7.703879E1,2.1232058E1,-9.446625E1,-3.716728E1,-1.16597595E1,2.7663858E1,-1.009927E2,-6.842823E1,-5.293863E1,-5.6606026E0,-3.2770267E1,9.813641E0,1.6360119E1,3.2222916E1,-1.0812789E2,-9.1176056E1,-7.485736E1,-4.490502E1,-6.706263E1,-3.796256E1,-2.8922209E1,8.239999E0,-5.2813522E1,-1.9929508E1,-1.2423261E1,1.8863111E1,-2.48823E0,2.2843164E1,2.6162243E1,3.534761E1,-1.1172716E2,-1.00036545E2,-9.579274E1,-7.672591E1,-8.213582E1,-6.3693867E1,-4.765054E1,1.8490053E1,-7.585322E1,-5.2020386E1,-4.210573E1,-7.5844903E0,-3.4363926E1,2.4149675E0,-6.687607E0,2.3817186E1,-6.7038605E1,-4.0241753E1,-3.0474983E1,-1.5390635E0,-2.3380953E1,1.1383666E0,-1.2231437E0,2.4674208E1,-1.681263E1,1.2601839E1,1.1112289E1,2.6858772E1,1.4153213E1,2.9056482E1,3.0302315E1,3.7463093E1,-1.15006096E2,-1.05818344E2,-1.0169283E2,-7.988085E1,-1.0231195E2,-8.954499E1,-8.25133E1,-6.3518753E1,-8.7156204E1,-7.2743935E1,-7.089855E1,-5.167946E1,-4.9017242E1,2.2415462E1,-1.9354536E1,3.93478E1,-9.195455E1,-7.109457E1,-5.86148E1,-3.829458E1,-4.9834072E1,-3.0523933E1,-1.4254177E1,3.4236958E1,-4.51319E1,-2.4310583E1,-8.139438E0,3.0425882E1,-1.7907644E1,1.3524998E1,6.3490725E0,3.1634098E1,-7.7154465E1,-5.3564766E1,-5.0092545E1,-3.0022676E1,-3.716647E1,-1.629605E1,-1.6154272E1,7.964168E0,-3.1079308E1,-1.2182048E1,-1.2476831E1,1.3958315E1,-1.5603265E1,1.3820278E1,1.4711937E1,3.1045841E1,-2.8155056E1,-5.73648E0,-1.0466175E1,1.8955729E1,-1.3359722E1,1.6487045E1,1.45666485E1,2.8859335E1,5.496588E-1,2.1581032E1,2.0098766E1,3.1314632E1,2.571481E1,3.4023956E1,3.518847E1,4.063894E1,-5.8871245E0,-5.5374675E0,-5.4535327E0,-4.976493E0,-5.345736E0,-4.835275E0,7.5910825E-1,-4.109384E0,-5.234623E0,-4.5815883E0,-4.4902024E0,1.496857E0,-4.143474E0,1.9352833E0,-3.4872391E0,-2.3173897E0,-4.7049665E0,-4.0846233E0,-3.6770253E0,1.1066717E0,-3.8159554E0,-3.0434558E0,-2.831309E0,-1.7932854E0,-2.8165557E0,-2.0631313E0,3.6814873E0,-6.3981E-1,-1.6147299E0,-2.405428E-1,2.1631613E0,1.02724455E-1,-4.8894796E0,-3.6130033E0,-3.8053734E0,-3.0351152E0,-3.258374E0,-2.4989948E0,-2.230367E0,-1.2238355E0,-2.9014783E0,-2.0261986E0,-1.8455238E0,-9.5629805E-1,-1.1047819E0,3.3065426E-1,3.4840438E0,6.259079E-1,-2.7982945E0,-1.9092938E0,-1.2746073E0,1.8945631E0,-8.554105E-1,6.3662034E-1,1.7570223E-1,2.1794484E0,-1.4062754E0,-1.5870221E-1,-9.4464225E-1,9.886015E-1,4.187281E-2,1.7389615E0,2.6976068E0,1.3702339E0,-4.1069574E0,-3.0484908E0,-3.0841255E0,-2.0311005E0,-2.5680466E0,1.6545565E0,-1.7513735E0,-4.751554E-1,-1.9467678E0,6.723568E-1,-1.3029774E0,-2.8949532E-1,-1.3376802E0,-2.2021389E-1,-2.4243896E-1,8.184971E-1,-1.899848E0,-1.0215437E0,-1.0583282E0,-1.9722472E-1,-8.7253803E-1,3.9764038E-1,-4.8600905E-2,1.1996702E0,-1.2392133E0,2.207744E-1,3.8808098E-1,2.3625896E0,-2.4340956E-2,1.0886396E0,1.3570352E0,2.0658243E0,-1.6057805E0,-2.319973E-1,-1.0212505E0,1.9799049E-1,-1.2373685E0,1.19007304E-1,5.329229E-1,1.3641202E0,-1.3702694E0,2.3070788E-1,2.647227E-1,1.0321784E0,5.4305266E-3,1.0684303E0,1.0957826E0,1.5710462E0,-6.6921216E-1,6.617997E-1,8.242399E-1,1.5172256E0,4.073286E-1,1.2377061E0,1.4055802E0,1.7545147E0,9.4402343E-1,1.4967412E0,1.437501E0,1.8150446E0,1.5691704E0,1.8886455E0,1.5491984E0,2.0581145E0],"categories":[],"categories_nodes":[],"categories_segments":[],"categories_sizes":[],"default_left":[1,0,1,1,0,1,0,1,1,1,0,0,1,1,0,1,0,0,0,0,0,0,0,1,0,1,0,0,0,0,0,1,1,0,1,1,1,0,0,1,0,0,1,1,0,0,0,1,0,0,0,0,0,0,0,0,0,1,0,0,0,0,0,1,1,1,1,1,1,1,0,1,1,0,0,1,0,0,0,1,1,1,1,1,0,0,0,0,1,0,0,1,0,0,1,1,0,0,1,1,0,0,0,0,0,0,0,0,0,0,0,1,0,0,1,0,0,0,0,0,0,1,0,0,0,0,0,0,0,0,0,0,0,0,0,0,0,0,0,0,0,0,0,0,0,0,0,0,0,0,0,0,0,0,0,0,0,0,0,0,0,0,0,0,0,0,0,0,0,0,0,0,0,0,0,0,0,0,0,0,0,0,0,0,0,0,0,0,0,0,0,0,0,0,0,0,0,0,0,0,0,0,0,0,0,0,0,0,0,0,